{"version": "0.5.1", "metadata": {"date": {"year": 2023, "month": 5, "day": 29, "hour": 19, "minute": 9, "second": 58}, "loudness": -11.806573867797852, "gain": 0.6383032382473655}, "architecture": "LSTM", "config": {"input_size": 1, "hidden_size": 24, "num_layers": 1}, "weights": [-0.7301227450370789, 0.3337075710296631, 0.4368616044521332, -0.2949337959289551, -0.6380718946456909, -0.05401862412691116, -0.38301384449005127, 0.02900255285203457, 0.695379912853241, -0.2559569776058197, 0.2653724253177643, -0.526146411895752, -0.18855834007263184, -0.013919312506914139, -0.2585587501525879, -0.014831596985459328, -0.3406502306461334, -0.15101589262485504, 0.5539628863334656, -0.006481114774942398, -0.935611367225647, 0.21262164413928986, -0.9872355461120605, 0.41526758670806885, 0.46815139055252075, -0.6725805401802063, -0.029185663908720016, 0.7189874649047852, 0.2762840986251831, -0.22703346610069275, -0.5174296498298645, -1.095922827720642, 0.9508216977119446, 0.7391108870506287, -0.020382191985845566, 0.4421224594116211, 0.09843268990516663, -0.2900635600090027, 0.2871030867099762, -1.0971482992172241, -0.7631635665893555, -0.4921623468399048, -0.5253733992576599, 0.27764397859573364, -0.08473539352416992, -0.3167463541030884, -0.24014362692832947, -0.9235720634460449, 1.1124643087387085, -1.2069710493087769, -1.1097438335418701, 0.0017894835909828544, -0.25448042154312134, 0.2973747253417969, 0.1954026222229004, -0.7501802444458008, -0.8330522775650024, 1.3771952390670776, -0.04282102733850479, -0.23659905791282654, 0.8867790102958679, -0.16434821486473083, -0.14337675273418427, 0.48367130756378174, -0.3578062653541565, -0.15451976656913757, 0.6445364356040955, -0.8308572173118591, 0.2774686813354492, 0.12797172367572784, -1.0089926719665527, -0.2434031367301941, 0.6959854364395142, 1.2920955419540405, -2.482339859008789, -0.47307196259498596, 0.31915083527565, -0.013500618748366833, 0.056444697082042694, -0.4572102427482605, -0.09434347599744797, -0.02159161865711212, -0.3474760055541992, 0.19261907041072845, -0.41698047518730164, -0.09345720708370209, 0.5131548047065735, 0.2307041436433792, 0.00038922534440644085, -0.19600649178028107, 0.3070959150791168, -0.03422575071454048, 0.40151360630989075, -0.06241293251514435, -0.1931234747171402, 0.2554532587528229, -0.48503389954566956, -0.8817154765129089, 0.16134363412857056, 0.4453255534172058, -0.21148549020290375, -0.7864110469818115, -0.49640482664108276, 0.08792146295309067, 0.5546320676803589, -0.1832883507013321, 0.20099715888500214, -0.08059132099151611, -0.552676260471344, 0.03187404200434685, -0.4958454966545105, -0.6250852942466736, -0.04807956889271736, -0.1068972796201706, 1.5585240125656128, -0.45491263270378113, -0.6634216904640198, -0.22972337901592255, -0.8406475186347961, 0.11929124593734741, 0.6215248703956604, -0.5005031824111938, 0.06487272679805756, 0.9529983401298523, -1.720264196395874, 0.844289243221283, -0.33918869495391846, -0.41718029975891113, -0.3635038733482361, -0.5191303491592407, 0.13883908092975616, 0.18077826499938965, 0.580918550491333, -0.028353292495012283, 0.34694668650627136, 0.2770439088344574, -1.3707181215286255, -0.34707406163215637, 0.14114712178707123, -1.182525634765625, -0.8081190586090088, 0.10157035291194916, 0.2985911965370178, -0.08276142179965973, 0.08000737428665161, 0.26441192626953125, -0.3321102261543274, -0.9674625396728516, 0.3825879693031311, -0.8412221670150757, 1.3447332382202148, -0.9486268758773804, -0.6029583215713501, -0.8135942816734314, 1.9697813987731934, 0.46467557549476624, 2.293818235397339, 1.5598487854003906, -1.662068486213684, -0.48649072647094727, -1.8058382272720337, -0.5413035154342651, 0.7906177043914795, -0.43773335218429565, -0.10035063326358795, 1.0094066858291626, -0.5507304072380066, 0.37024328112602234, -2.663315773010254, 0.7098346948623657, 0.3606258034706116, 0.41351190209388733, 1.467597246170044, -0.6481354832649231, 0.9540966153144836, -0.8395353555679321, -0.19866541028022766, -0.04261516407132149, 0.5707495808601379, 0.0034962028730660677, -0.8296286463737488, -0.6597940325737, 1.052194356918335, -0.5120358467102051, -0.6957693696022034, 0.318447083234787, 0.3379841446876526, 0.26346665620803833, 0.707781195640564, 0.06492099165916443, -1.3611724376678467, 0.8172658681869507, -0.2614087462425232, 0.09607836604118347, 0.2019212394952774, -1.611528992652893, -0.1467326432466507, 0.7610244750976562, 0.27331534028053284, -1.1118621826171875, 0.11759532988071442, -0.4511973559856415, -0.23074115812778473, -0.14842483401298523, 0.46577125787734985, -0.33154234290122986, 0.4982074201107025, -0.12246350944042206, -0.8162946105003357, -0.3725641071796417, -0.49349427223205566, 0.16309060156345367, 0.427155464887619, 0.045101482421159744, 0.32730212807655334, 0.048836275935173035, -0.23154668509960175, 0.08389817923307419, -0.48277151584625244, 0.4945055842399597, -0.1348467916250229, 0.013435989618301392, 0.31287944316864014, -0.3047919273376465, -0.2018032670021057, -0.4695383608341217, 0.6464086771011353, -0.16142818331718445, 0.3993770182132721, -0.22640123963356018, 0.2405213564634323, -0.7284479737281799, 0.341792494058609, -0.19979998469352722, 0.4766652286052704, 0.9512307047843933, 0.1555366963148117, -0.3478904962539673, 0.20978505909442902, 0.12524041533470154, 0.07283826917409897, 0.22733409702777863, 0.2776515781879425, 0.4395705759525299, -0.1335194706916809, -0.8749400973320007, 0.34534671902656555, -0.2660926878452301, 1.0981576442718506, -1.1213481426239014, 2.357398271560669, 0.10510670393705368, -0.057230859994888306, 0.43821391463279724, 0.10377240180969238, 0.04211287200450897, -0.47881197929382324, -0.3898879587650299, 0.2994561791419983, -0.06132034584879875, 0.12802189588546753, 0.06497864425182343, -0.13549698889255524, 0.34435081481933594, 0.1368551403284073, 0.03764062747359276, -0.1971341073513031, -0.14979755878448486, 0.06609246134757996, -0.2563047409057617, 0.4458194673061371, -0.816109836101532, -0.07845387607812881, -0.49668365716934204, -0.7610276937484741, 0.6818715333938599, -0.8616170883178711, -0.3318266272544861, 0.18829169869422913, 0.6594889760017395, -0.17189238965511322, 0.16039463877677917, -0.015068411827087402, -0.8153262734413147, -0.9279518723487854, -1.024645447731018, -0.8801659345626831, 0.6614621877670288, -0.04718415439128876, -0.23043179512023926, -0.06436137109994888, -0.43312957882881165, -0.14435139298439026, -0.4741647243499756, 0.6259812712669373, 0.08027015626430511, -0.1802912801504135, 0.4758009612560272, -0.6666351556777954, -1.977851152420044, 0.7775902152061462, -0.772384524345398, -0.24385133385658264, -0.6018335223197937, 0.8291928768157959, -0.7542704939842224, 1.0294314622879028, -0.5337352752685547, -0.6884098649024963, -0.5215203762054443, -0.30028289556503296, -0.4307614862918854, 0.635126531124115, -0.057455018162727356, 0.20058436691761017, -0.8852438926696777, -0.42345669865608215, -0.1893053650856018, -0.20110760629177094, 0.3336043357849121, 0.07702107727527618, -0.33272406458854675, -0.4183831512928009, -0.7262886166572571, -0.24031975865364075, -0.5024733543395996, -0.6354731321334839, 0.7725632786750793, 0.12825490534305573, 0.349968284368515, -0.4652097523212433, 0.3172694444656372, -0.7865618467330933, -0.5246255993843079, -0.44356414675712585, -0.42357319593429565, 1.1238267421722412, 0.7224751710891724, -0.4935440421104431, -1.347970724105835, 1.0474926233291626, -1.1581313610076904, 0.11629563570022583, -0.29572615027427673, 0.29882821440696716, 0.45633837580680847, -0.41309142112731934, -0.8165612816810608, -0.06738720834255219, -0.5695164203643799, 1.1146788597106934, -0.0036513516679406166, -0.5014121532440186, -0.5759220719337463, -0.07730893790721893, -1.538670301437378, 0.5210888981819153, 0.7463884949684143, -0.7378283143043518, -1.29067063331604, -1.8057923316955566, 0.6935369968414307, 1.3120652437210083, 0.40629735589027405, 0.3348575234413147, -0.848391592502594, -0.4926535189151764, 0.8508302569389343, -0.7017781734466553, 0.1521393358707428, -2.9406583309173584, 0.5405120253562927, 0.4385063350200653, 0.14771899580955505, -1.96137535572052, -1.0184239149093628, -0.22635677456855774, 0.8285145163536072, -0.25419607758522034, -0.2522684335708618, -0.8853733539581299, -0.523269772529602, -0.5904087424278259, -0.2838062047958374, 0.1641351580619812, 0.7202129364013672, 0.04441578686237335, -0.0034201769158244133, -0.29675495624542236, -0.251424640417099, -0.8031719326972961, 0.5925649404525757, 0.11824072152376175, 0.5379428863525391, 0.4715244770050049, -0.6834379434585571, 0.2319641262292862, -0.41781097650527954, 0.0006491758977063, -0.84647536277771, 0.0369405634701252, -0.40005579590797424, 0.9517810344696045, -0.11948701739311218, 0.474733829498291, -0.004804227966815233, 0.4186132252216339, -1.5866094827651978, -0.1926325112581253, -0.46341314911842346, -0.7644296288490295, 0.2990727424621582, 0.4221033453941345, 0.7568451762199402, -0.1471206247806549, 0.29827460646629333, -0.8320945501327515, 0.15055648982524872, -0.6400649547576904, 0.8888700604438782, 0.6646804809570312, 0.024148238822817802, 0.33906736969947815, 0.7866207957267761, -0.5716008543968201, 0.21264906227588654, 0.058588169515132904, 0.06530694663524628, -0.37438827753067017, 0.004024577792733908, -0.24074198305606842, -0.25748211145401, -0.17397643625736237, -0.10894081741571426, -0.19178321957588196, -1.303695797920227, -0.47671130299568176, 0.30831119418144226, 0.4185259938240051, -0.32002267241477966, 0.5768773555755615, 0.23049646615982056, -0.046249546110630035, 0.08611705154180527, 0.6059723496437073, -0.23566824197769165, 0.1424204558134079, -1.0286998748779297, -0.40738746523857117, -1.0422394275665283, 0.004045420326292515, 0.013979383744299412, -0.2355702817440033, 0.5063846707344055, 0.2092645913362503, 0.2614886164665222, 0.12449489533901215, 0.6134308576583862, 0.29608991742134094, 0.1431163251399994, -0.011931139975786209, 0.10511314868927002, -0.2536066770553589, -0.33054599165916443, -0.35722383856773376, 0.17028626799583435, 0.40049293637275696, 0.5011796355247498, -0.20379525423049927, -0.7554755806922913, 0.5283241271972656, -0.13745279610157013, 0.6506558060646057, 0.08680180460214615, -0.023302415385842323, -0.2788456082344055, -0.6845265030860901, -0.1521274298429489, -0.17847664654254913, 1.1465506553649902, 0.22225144505500793, 0.8902350664138794, -2.450669527053833, -1.8979727029800415, -2.076446056365967, 0.05032442882657051, 0.14635531604290009, 1.5072145462036133, -0.31604108214378357, 0.29196393489837646, 1.5300523042678833, -1.5097053050994873, 0.37209707498550415, -0.7749101519584656, 2.071763038635254, -0.5368525385856628, -0.5585874915122986, -0.550993800163269, 0.23515476286411285, -0.8692534565925598, -0.03335949406027794, -0.16725674271583557, 0.1969866156578064, -0.06838881969451904, 0.2673567533493042, 0.004445761442184448, -0.515362560749054, 0.06937893480062485, -0.03665551170706749, -0.04763524606823921, -0.13868582248687744, -0.2745206356048584, 0.1271868497133255, 0.225482776761055, 0.033401861786842346, -0.09139781445264816, -0.40701842308044434, -0.5216359496116638, 0.4913851022720337, 0.36917951703071594, -0.1527913510799408, 0.306814044713974, -0.4421035051345825, 0.46045419573783875, -0.9825505018234253, 0.17028120160102844, 0.760147750377655, 0.15642940998077393, -0.5887952446937561, -0.4677431285381317, 0.15084479749202728, -0.6930136680603027, 0.45093098282814026, 0.5623343586921692, 0.016270533204078674, 0.5700110793113708, -0.43204885721206665, -0.44281744956970215, 0.4144224524497986, -0.26852381229400635, -0.46679386496543884, -0.22396725416183472, -0.05769588425755501, 0.6657256484031677, -0.3672938644886017, -0.17367184162139893, 0.2976439595222473, -0.2549440264701843, 0.6400443315505981, 0.9482621550559998, 0.3807179927825928, -0.7595764398574829, -0.1506565809249878, -0.12126222252845764, 1.0901339054107666, -0.5938155055046082, 1.2178348302841187, -0.7019479870796204, -0.6596590280532837, -0.28106606006622314, -0.6550101637840271, 0.7831758856773376, 0.7565407752990723, -1.1648612022399902, -1.1176862716674805, -0.15441274642944336, -1.2510679960250854, 0.7020969986915588, -1.4331276416778564, 0.9588143229484558, 1.4576375484466553, 0.15781055390834808, 0.3447549045085907, -1.0828298330307007, 0.02299588918685913, 0.2715117037296295, -1.4151549339294434, -1.0581018924713135, -0.2854474186897278, 0.8170978426933289, -0.8001008033752441, 1.8632925748825073, 0.259320467710495, 0.77749103307724, 0.19472002983093262, -1.5351219177246094, -0.22213709354400635, -0.31941288709640503, -1.6645389795303345, 0.8714840412139893, 1.8732497692108154, -0.7068323493003845, -0.7385124564170837, -1.3535422086715698, -0.3088812232017517, 3.0148513317108154, -0.45711299777030945, 0.18562673032283783, -0.6613689064979553, 1.0686036348342896, 0.626225471496582, 0.5651840567588806, 0.215939462184906, -0.30551519989967346, -0.1931755542755127, -0.017120370641350746, -0.19206292927265167, 0.4723331034183502, 0.5502030253410339, 0.3305836021900177, -0.06180895119905472, -0.35969385504722595, -0.04898114129900932, 0.0957833081483841, -0.01898968033492565, -0.8140040040016174, -0.05677645653486252, 0.413406103849411, 0.36830025911331177, -0.08379363268613815, -0.523506224155426, 0.39025750756263733, -0.6486813426017761, 0.6020016670227051, 0.46446287631988525, -0.12517012655735016, -0.322721004486084, 0.1167847067117691, 0.042806848883628845, -0.008935768157243729, -0.5703783631324768, 0.17787088453769684, -0.1576312631368637, -0.3596813678741455, -0.2775959074497223, 0.3555578589439392, 0.2621748447418213, 0.7154551148414612, 0.035850007086992264, 0.3456765413284302, -0.465824156999588, 0.16653916239738464, 0.23031677305698395, 0.16495518386363983, 0.6582494378089905, -1.9191935062408447, 0.18142350018024445, 0.006064249202609062, 0.38720735907554626, 1.2345715761184692, -0.7119361758232117, -0.3535117506980896, 0.03540579602122307, -0.3409822881221771, 0.37805187702178955, -0.7208671569824219, 0.6217566132545471, 0.05413541570305824, -0.7395200133323669, -0.5052348971366882, -0.15241415798664093, 0.26666370034217834, 0.9710693359375, -0.5294637680053711, 0.17394877970218658, 0.4354466199874878, 0.1102847084403038, -0.38150447607040405, -0.7160547971725464, 0.7045538425445557, -0.3452627956867218, 0.5018240213394165, 0.7141351699829102, -0.08386392146348953, 0.9006412029266357, 0.7221142649650574, 1.0018588304519653, 0.12721900641918182, -0.5200806856155396, -0.8423776626586914, -0.13223311305046082, -0.4494665265083313, -0.288059264421463, 0.28958839178085327, 0.0146516477689147, 0.38648977875709534, -0.21714167296886444, 0.21530930697917938, 0.1563647985458374, -0.43899914622306824, -0.7105943560600281, 0.000603951804805547, 0.35930922627449036, 0.4541167914867401, -0.30387017130851746, -0.1033126562833786, -0.10321643203496933, -0.6088003516197205, -0.03640653192996979, 0.3473064601421356, -0.9405151605606079, -0.7452269196510315, -0.32776370644569397, 0.25377970933914185, 0.3137274980545044, -0.1348785161972046, -0.1585177481174469, 0.5416813492774963, -0.12492134422063828, -0.22207722067832947, -0.7862659692764282, -0.2710720896720886, 0.31275275349617004, -0.49959635734558105, 0.6347852945327759, 0.09310020506381989, -0.8336398005485535, -0.5290119051933289, -0.5021055936813354, 0.40630632638931274, -0.1567998230457306, -0.1171020120382309, 0.3239927291870117, 0.4186134934425354, -0.6232571005821228, 1.1543947458267212, 0.06502876430749893, 0.4559655487537384, -0.44936543703079224, -0.3895657956600189, -0.7701221704483032, -0.37544745206832886, 0.5426025986671448, -0.7609691023826599, -0.6896857619285583, 0.08691081404685974, -0.690901517868042, 0.8825852870941162, 0.06229160726070404, 0.2750509977340698, -0.7575254440307617, 0.26460546255111694, 0.09157989174127579, 0.40954479575157166, 0.40774407982826233, -2.4589242935180664, 0.3631567060947418, -0.5743305087089539, 0.9563031792640686, 1.9024689197540283, -0.8420314192771912, 1.147961139678955, 0.5554798245429993, 0.07063350081443787, -0.1776115745306015, 0.9989698529243469, -0.7826902866363525, 1.2668689489364624, 0.4897478222846985, 0.38425105810165405, 0.9214072227478027, -0.01825939677655697, -0.5902367830276489, 0.34819963574409485, -0.1214323416352272, 0.23101118206977844, 1.225189208984375, 0.276170015335083, 0.7206559777259827, -1.4463680982589722, -0.0755520910024643, 0.5911386013031006, -0.5876957178115845, -0.9677304625511169, -0.049879204481840134, 0.7663053274154663, 0.2091749757528305, -0.2879372537136078, 0.5373644232749939, 0.08208512514829636, 0.1399431824684143, 0.5287314057350159, 1.0907456874847412, -0.07640959322452545, -0.40644899010658264, -0.7738260626792908, -0.177056685090065, 0.502802848815918, -0.7051194906234741, 0.49672839045524597, 0.1097729429602623, -0.31785911321640015, -0.350048691034317, -0.23715008795261383, -0.11469456553459167, 0.3468814492225647, 0.15594671666622162, 0.9771177172660828, -0.5940201282501221, 2.5896413326263428, -0.15540947020053864, -0.18189501762390137, -0.2679489850997925, -0.013951025903224945, 0.28010502457618713, -0.42210695147514343, 0.6004304885864258, 0.003769364906474948, -0.6356686949729919, -0.7747176289558411, -0.2908164858818054, 0.06881726533174515, 0.5283077359199524, 0.24532368779182434, 0.26899534463882446, 0.08111073821783066, -0.2996010184288025, -0.10703781247138977, -0.5184730887413025, 0.3005155026912689, -0.18789266049861908, 0.10339191555976868, 0.43096622824668884, -0.028464706614613533, -0.3169694244861603, -1.2610061168670654, 0.5336971879005432, 0.4007214307785034, -0.33771660923957825, 0.02767021581530571, 0.09279263019561768, 0.05393392592668533, -0.39413243532180786, -0.32548919320106506, -0.15147088468074799, 0.8633546233177185, 0.7049853205680847, 0.19533011317253113, 0.13402293622493744, 0.37168532609939575, 0.15555182099342346, 0.2948799729347229, 0.5372288823127747, 0.05448233708739281, 0.08370253443717957, -0.647047758102417, 0.6090394258499146, -0.4831596612930298, 0.1097889393568039, 1.082923173904419, 1.2484747171401978, -0.453129380941391, -0.2161281853914261, -0.3767685890197754, -0.16201475262641907, 0.1912098377943039, 0.08703867346048355, -0.37629565596580505, -0.528559684753418, 0.018013866618275642, -0.8472744226455688, -0.6454843282699585, 0.07376018166542053, -0.33171021938323975, 0.4892435371875763, -0.09923296421766281, -0.20670998096466064, 0.05063445493578911, -0.06158449128270149, -0.2392132580280304, 0.5868434309959412, 0.14858092367649078, 0.5796385407447815, -0.311780720949173, -0.588067889213562, 0.8359500169754028, -0.20948614180088043, -0.04861704260110855, 0.4426135718822479, -0.12246270477771759, 0.14452984929084778, -0.5366949439048767, 0.3575493395328522, -0.8598975539207458, -0.3146510720252991, -0.7339684963226318, -1.035207986831665, -0.11389293521642685, -0.3023850619792938, 0.5991215705871582, 0.023203881457448006, 0.03926853463053703, -0.2464037835597992, 0.00683320639654994, -0.07105273008346558, 0.3220582902431488, 0.01903289556503296, 0.5769938826560974, -0.24350638687610626, -0.6965938210487366, -0.5555617213249207, -0.21992594003677368, -0.42035773396492004, -0.359093576669693, -0.7678646445274353, -0.048740584403276443, 0.1461317241191864, 0.28238388895988464, -0.5918197631835938, 0.14333386719226837, 0.6644610166549683, -0.03896050527691841, -0.0017439714865759015, 0.38458573818206787, 0.463410884141922, -0.5091625452041626, 0.07750072330236435, -0.6495466828346252, 0.7252920269966125, -0.6202884316444397, 0.019884206354618073, 0.30784475803375244, -0.04670014604926109, -0.5976952314376831, 1.1083601713180542, -0.44114336371421814, 0.6023404002189636, 0.2158617526292801, -0.17467215657234192, -0.18524740636348724, 0.47785085439682007, -0.36126813292503357, 1.3180344104766846, 0.21923235058784485, 0.4938993453979492, -0.21039874851703644, -0.02383989840745926, -0.394403874874115, 0.25681784749031067, -0.6680393218994141, -0.5798825025558472, 0.17277853190898895, 0.10988090187311172, 0.24147386848926544, -0.2774337828159332, -0.006265937816351652, -0.029059140011668205, -0.6335128545761108, 0.22160443663597107, 2.1052751541137695, -0.1669822633266449, 0.0915195420384407, -0.6392615437507629, -0.6156311631202698, -0.9121227264404297, -0.5316908955574036, -0.29759126901626587, -0.027312852442264557, 0.012386932037770748, 0.41037800908088684, -0.3113124370574951, -0.26570233702659607, -0.13821780681610107, -0.19567470252513885, -0.21718324720859528, -1.118198275566101, 0.3907841444015503, 0.29265403747558594, 0.38050323724746704, -1.1528304815292358, 0.8145056962966919, 0.599631130695343, -0.3335634469985962, -0.43858179450035095, 1.4789904356002808, -0.9706395268440247, 0.14392349123954773, -0.06396684050559998, -0.07375019788742065, 0.15133407711982727, -0.36861613392829895, 0.3019372522830963, -0.8505969047546387, -0.3563026785850525, -0.0907786414027214, 0.01526850275695324, -0.4004501402378082, 0.15855750441551208, -0.7536250948905945, 0.22868970036506653, 0.18440841138362885, 0.24994425475597382, -0.11755970865488052, 0.17036037147045135, 0.5475209355354309, -0.26123321056365967, 0.7038902640342712, -0.13602058589458466, 0.08001824468374252, 1.143746256828308, -1.7238185405731201, 0.7726529836654663, 0.9445121884346008, 0.1865682601928711, -0.6590536236763, 0.5307915806770325, -0.28590676188468933, -0.8681318163871765, -0.09135814011096954, -0.0363800935447216, -0.3272019326686859, -0.1990308165550232, -0.3616343140602112, 0.9706331491470337, 0.03800026327371597, 0.38863638043403625, 0.18326735496520996, 0.7544159889221191, 0.18776065111160278, 0.07924770563840866, 0.09692373871803284, -0.3960554301738739, -0.4281289279460907, 0.11486875265836716, 0.7003902196884155, -1.5395756959915161, 0.1746181696653366, 0.43206796050071716, -0.5912385582923889, -0.37774989008903503, -0.20061233639717102, 0.32426682114601135, -0.06993492692708969, -0.07465694844722748, 0.1665603667497635, -1.0238385200500488, -1.0255895853042603, 0.2657697796821594, -0.10510113090276718, -0.21585625410079956, 0.9241827130317688, 0.18243272602558136, 0.07352796941995621, 0.31028473377227783, 0.07368263602256775, 0.015012000687420368, 0.5186100602149963, -0.8046408891677856, -0.0960007905960083, 0.6176525950431824, 1.9965298175811768, -0.5001477599143982, -0.1497499793767929, 0.010267617180943489, 0.05942128226161003, 0.39412304759025574, 0.7025253772735596, 0.9548170566558838, -0.026852531358599663, -0.2124791443347931, -0.5965693593025208, -0.41635310649871826, -0.30373695492744446, -0.0620250403881073, -0.20110179483890533, -0.23747800290584564, -0.38832950592041016, -0.3047642111778259, -0.6414328813552856, -0.7504585981369019, 0.6518154144287109, -0.5367370843887329, 0.9321956038475037, -0.2630770802497864, 1.6280863285064697, -0.2428843080997467, 0.48693975806236267, 0.9511797428131104, -0.3438408672809601, -0.6067699193954468, 0.6623503565788269, -0.3321909010410309, -1.5461426973342896, -0.35443684458732605, 0.76458740234375, 0.9765821099281311, 0.18013837933540344, -0.7764816880226135, -0.5942297577857971, -0.046970516443252563, -0.5384290814399719, -0.09970913082361221, 1.1597645282745361, 0.5263952016830444, -0.23098769783973694, 0.8984172344207764, 0.5691676139831543, -1.5711930990219116, -0.5638802647590637, 1.2922208309173584, -1.2525634765625, -0.18971802294254303, -0.08881181478500366, -0.3224929869174957, -0.029101014137268066, -0.1619844287633896, 0.6179039478302002, -0.23991090059280396, -0.5120052695274353, -0.38847917318344116, -0.4566027820110321, -0.19025762379169464, 0.555324375629425, -0.4899296164512634, 0.17774946987628937, 0.12611515820026398, 0.6035939455032349, -0.4991644322872162, -0.1734342724084854, 0.4761877655982971, -0.27469560503959656, 0.1094779521226883, -0.6054555773735046, -0.08458773046731949, 0.2498152256011963, -0.35013094544410706, 0.10429699718952179, 0.13938578963279724, 0.07404915988445282, 0.29505303502082825, -0.6653190851211548, 0.40135568380355835, 0.08962768316268921, -0.4567551016807556, -0.6890662908554077, -0.604657769203186, 0.3745444715023041, 0.725005030632019, 0.046873539686203, -0.31066444516181946, 0.6279918551445007, -0.40377455949783325, 0.1947503536939621, -0.49944356083869934, 0.6149390339851379, 0.10619179159402847, 0.24573425948619843, -0.23357141017913818, -0.6401904821395874, -0.5797086358070374, 0.48360317945480347, 1.1168073415756226, -0.2812253534793854, -0.3592584729194641, -0.12076625972986221, 0.611325204372406, -0.6143161654472351, 0.4930666983127594, 0.058212313801050186, 0.35822364687919617, 0.2599058449268341, -0.2801888585090637, -0.45543044805526733, 0.4907428026199341, 0.18057289719581604, -1.951597809791565, 0.5969098806381226, 0.40319332480430603, 0.6749125719070435, -0.1624486893415451, -0.5745957493782043, -0.28695300221443176, 0.03639141470193863, 0.3601081967353821, 0.8982922434806824, 1.248378872871399, 0.3409142792224884, -0.17731012403964996, -0.38677889108657837, -0.769572913646698, 2.433182954788208, -0.22407996654510498, 1.4121466875076294, 1.5878468751907349, 2.3527441024780273, 0.5021328330039978, 0.24413852393627167, -2.871070146560669, -0.28195586800575256, -0.6908320188522339, -1.9531288146972656, 0.34978795051574707, 0.050047971308231354, 0.5851391553878784, -1.2177258729934692, 0.5216658115386963, -0.05565328523516655, -0.3270992934703827, -0.4936203956604004, 1.7836424112319946, -0.10627147555351257, 0.22134330868721008, -0.18574459850788116, 0.38727623224258423, 0.19879776239395142, 0.3785632252693176, -0.1477377861738205, -0.21422459185123444, -0.23896488547325134, 0.30320578813552856, -0.13461336493492126, 0.12290836125612259, 0.014240940101444721, -0.012364571914076805, 0.06857428699731827, 0.10824564844369888, 0.39319854974746704, -0.06371130049228668, 0.22068719565868378, 0.0024179923348128796, 0.18813040852546692, 0.03372931107878685, 0.8732196688652039, -0.14656615257263184, -0.23801802098751068, 1.429526448249817, -0.48615768551826477, -0.8603518605232239, 0.058716367930173874, 0.088254414498806, 0.4850102663040161, 0.020605433732271194, -0.04605244845151901, -0.2508581280708313, -0.49880683422088623, -0.4582512378692627, -0.07085303217172623, 0.24301961064338684, -0.5090179443359375, 0.2043829709291458, 0.11108177155256271, 0.03181813284754753, 0.4271124303340912, -0.27467116713523865, 0.2999521493911743, 0.30716338753700256, 0.3544943928718567, 0.6943228840827942, -0.15039971470832825, -1.5436007976531982, 0.4096681773662567, -0.200924813747406, -0.20001891255378723, 0.2219238132238388, 0.2924371063709259, 0.19120556116104126, 0.3190089464187622, 0.2263193428516388, 0.057629041373729706, 0.19190071523189545, -0.18463468551635742, -0.3321458101272583, -0.2856026291847229, -0.18429028987884521, 0.21816906332969666, 0.2701245844364166, -0.09719114750623703, -0.14131571352481842, -0.37383294105529785, -0.035967692732810974, 0.3485078811645508, -0.32809704542160034, 0.07761777937412262, 0.19651204347610474, -1.3432185649871826, 0.9647454023361206, 0.20683683454990387, -0.2062123864889145, -0.41547688841819763, -0.10392829775810242, -0.675108790397644, 0.09672192484140396, -0.14142858982086182, 0.22330883145332336, -0.5994512438774109, -0.14628203213214874, -0.013139067217707634, 0.47185540199279785, -0.3727307617664337, -0.2800261378288269, -0.06275123357772827, -0.3259601593017578, 0.4291608929634094, -0.3646935522556305, 0.2667492926120758, -0.1872503161430359, -0.13284339010715485, -0.3787786662578583, 0.026765208691358566, 0.06649600714445114, 0.5425100326538086, 0.43401286005973816, 0.564466118812561, -0.44826194643974304, -0.4937938153743744, 0.18976595997810364, 0.28463834524154663, -0.34108492732048035, 0.507163941860199, 0.5227733850479126, 0.933374285697937, 0.207883819937706, -0.04459423944354057, -0.09294600039720535, -0.5948942303657532, 0.1994803100824356, 0.20133350789546967, 0.2888128161430359, 0.34913861751556396, -0.3511674702167511, 0.1365063488483429, 0.3738812804222107, 0.1319219470024109, -1.1667497158050537, 0.47775670886039734, -0.9659277200698853, -0.2129060924053192, 0.6889501214027405, -0.7517662048339844, 0.04449186101555824, -0.9453861117362976, 0.1758493185043335, 0.09001025557518005, 0.06328406929969788, -0.450175404548645, -0.5939806699752808, -0.9319390654563904, 0.8672845363616943, 0.005687633063644171, 0.2213427573442459, 0.8646730780601501, 0.17357024550437927, 0.2649303376674652, -0.016698502004146576, 0.6881341338157654, -0.6491029858589172, 0.2259412258863449, -0.4802243709564209, -0.7759405970573425, 0.3894979655742645, 1.347940444946289, 0.19926905632019043, 0.03139498084783554, -0.7809573411941528, -0.6713876128196716, -0.4840162396430969, 0.3518230617046356, -1.9000176191329956, 0.6066352725028992, -0.007290503941476345, -1.4761790037155151, -0.5849626064300537, 0.3057510256767273, -0.12126177549362183, -0.08272711932659149, -0.3612003028392792, -0.8216822147369385, 0.23058541119098663, 0.7915790677070618, -0.7079353332519531, -0.7828614115715027, 0.04130086302757263, 0.2526571452617645, 0.6851812601089478, -0.13769946992397308, -0.7730839252471924, 0.36077120900154114, 0.0835949182510376, -0.05170433968305588, -0.06150152534246445, -0.2936095893383026, -0.6353879570960999, 0.3679191470146179, -0.260653555393219, -0.008324211463332176, 0.1474739909172058, 0.6880417466163635, 0.07124897837638855, -0.10467390716075897, -0.011050417087972164, 0.12187569588422775, 0.4090771973133087, 0.06509718298912048, 0.024506758898496628, -0.15103837847709656, -0.7705196738243103, 0.36524006724357605, -0.47892916202545166, 0.658828854560852, 0.012831160798668861, -0.1476287543773651, 0.166193425655365, 0.008131050504744053, -0.1942884624004364, -0.47193703055381775, 0.22470787167549133, -0.2612699568271637, -0.039025064557790756, 0.6166447997093201, 0.48348915576934814, 0.09180953353643417, 0.06111832708120346, -0.26660242676734924, 0.16443775594234467, -0.30970385670661926, -0.09891514480113983, 0.06775962561368942, 0.04617796465754509, 0.18553249537944794, -0.4503215551376343, 0.25401875376701355, -0.23693132400512695, -0.24603904783725739, -0.0934777483344078, -0.06187766417860985, 1.085304856300354, -0.0759562999010086, -0.10683432966470718, 0.37491676211357117, 0.2281796783208847, 0.3172356188297272, 0.07054076343774796, 0.14413493871688843, -0.033523157238960266, -0.016178084537386894, -0.6440450549125671, 0.33513447642326355, -0.25588300824165344, 0.21910029649734497, 0.10303172469139099, -0.3621993660926819, 0.24591374397277832, 0.27195218205451965, 0.09578963369131088, -0.1197015792131424, 0.24835148453712463, 0.053851865231990814, 0.10882359743118286, -0.2485601007938385, 0.08376459032297134, 2.1543216705322266, 0.04554335027933121, 0.38361579179763794, 0.7933662533760071, -0.245890274643898, -0.2572263181209564, -0.5151666402816772, -0.10596908628940582, -0.10923487693071365, -0.28336334228515625, -0.4061242938041687, -0.24675031006336212, 0.11567052453756332, 0.39153188467025757, 0.38091805577278137, 0.32042959332466125, 0.013090482912957668, -0.25743597745895386, -0.11139262467622757, -0.12267826497554779, 0.28464463353157043, 0.08799517154693604, 0.6558862924575806, 0.08884742856025696, -0.7286019325256348, 0.4165276885032654, -0.5440101027488708, 0.4728255867958069, 0.1604290008544922, 0.07097037136554718, -0.32027667760849, -0.006046665832400322, -0.05676992982625961, -0.9216318726539612, -0.7272518873214722, -0.2342575043439865, 0.12287382036447525, 0.5060765147209167, 0.09151580184698105, 0.5238788723945618, -0.015416612848639488, -0.26612550020217896, -0.5452428460121155, -0.5186444520950317, 0.8415040373802185, -0.5690910220146179, 0.20352953672409058, 0.48198363184928894, -0.6024837493896484, 0.23960740864276886, 3.252150774002075, 0.144711434841156, -0.2377127856016159, 0.06018579751253128, -0.5171439051628113, -0.13684017956256866, -0.5173442363739014, 0.14384779334068298, 0.3911680579185486, -0.46061280369758606, 0.002929177600890398, -0.9127699732780457, -0.007610711269080639, -0.467376172542572, -0.27065330743789673, -0.6498535871505737, -0.12790784239768982, 0.36332032084465027, 0.2952120900154114, -0.702034056186676, -0.11078553646802902, -0.05600660666823387, 0.2727668583393097, -0.48874616622924805, 2.2050552368164062, -0.47832566499710083, -0.324649840593338, 0.22932250797748566, -0.07953611016273499, 0.9798066020011902, 0.3166043758392334, 0.07053697854280472, 0.28495389223098755, 0.3839403986930847, -0.17111614346504211, 0.24464011192321777, -0.020739398896694183, -0.39629310369491577, 1.0276340246200562, -0.5619010925292969, 0.2571733891963959, -0.273756206035614, 0.11593008786439896, -0.5341452360153198, 0.17796345055103302, 0.061077702790498734, -0.7175792455673218, -0.07420511543750763, 1.1985914707183838, 0.5465577244758606, 0.16803573071956635, -0.0420600101351738, -0.0941234827041626, -0.3740882873535156, -0.23544146120548248, -0.793300449848175, 0.5181689858436584, -0.18397732079029083, -0.025312252342700958, -0.7827104330062866, -0.45663565397262573, 0.3521975576877594, 0.5782579779624939, -0.08843573927879333, -0.16652947664260864, -0.8534524440765381, -0.09899783879518509, 0.0057688308879733086, -0.015102052129805088, -0.10598938912153244, -1.5438282489776611, 0.2627415657043457, 0.26599523425102234, 0.14710909128189087, 0.6321982741355896, 0.708763837814331, 0.12302257120609283, -0.2628208100795746, 0.36378470063209534, 0.12395263463258743, 0.033502571284770966, -0.2480088472366333, 0.08496024459600449, 0.11142312735319138, 0.06048997864127159, -0.28795164823532104, 0.45335644483566284, -0.09028680622577667, 0.5160121917724609, -0.08527965843677521, 0.27519482374191284, -0.4471702575683594, 0.4134160578250885, 0.005893574096262455, 0.08161851763725281, 0.2869282066822052, -0.5287476778030396, 0.5852940082550049, -0.08021758496761322, -0.710518479347229, 0.28120794892311096, 0.29778942465782166, -0.7157536149024963, -0.23396489024162292, -0.3193229138851166, 0.36555635929107666, -0.18217046558856964, 0.5583090782165527, 0.6514338254928589, 0.7201020121574402, 0.20134568214416504, -0.6100810170173645, -0.7499421238899231, 0.06728510558605194, -0.05074743553996086, 0.17982782423496246, 0.34143438935279846, -0.4833293557167053, 0.1235852986574173, -0.5107195973396301, -0.08614373952150345, -0.5518006682395935, 0.1159488633275032, 0.07745953649282455, 0.5770967602729797, -0.5511783361434937, 0.15481384098529816, -0.3803677260875702, 0.2863675355911255, -0.39416196942329407, 0.08092324435710907, -0.500819206237793, -0.12644127011299133, 0.3143123686313629, 0.23900718986988068, 0.5380141735076904, -0.602592945098877, -0.1579798012971878, -0.17537978291511536, -0.013906546868383884, -0.33955124020576477, 0.2768688201904297, 0.10449463874101639, 0.3447476029396057, -0.5538903474807739, -0.2035539746284485, 0.029336340725421906, 0.043844472616910934, -0.2785501480102539, 0.49268484115600586, 1.5552654266357422, 0.02859121561050415, 0.26454809308052063, -0.008846206590533257, -0.05951320752501488, -0.2230212241411209, -0.04397231712937355, 0.6679888963699341, 0.441659539937973, -0.4025920629501343, -0.24748194217681885, 0.8679006099700928, 0.31472140550613403, 0.024878637865185738, -0.45410117506980896, 0.5375810265541077, 0.47664743661880493, 0.07842318713665009, -0.19487860798835754, -0.011366775259375572, 0.33359959721565247, 0.02677168883383274, 0.6256030797958374, 0.09733261913061142, -0.3858727216720581, 1.1675318479537964, -0.19380536675453186, -0.4843166768550873, -0.20547445118427277, 0.043186966329813004, -0.1239309087395668, 0.8805753588676453, 1.210449457168579, 1.0144575834274292, 0.5688938498497009, -0.5383607149124146, -0.20397649705410004, -0.5663380026817322, 0.0892774686217308, 0.06353987008333206, 0.0739915743470192, -0.4234200119972229, -0.35575634241104126, -0.8560100197792053, -1.0142242908477783, 0.07255440950393677, -0.6650464534759521, 0.14269907772541046, -0.3666541576385498, 0.9532784819602966, 0.40481823682785034, -0.39953890442848206, -0.25185808539390564, 0.1912926435470581, 0.506705105304718, 0.047316815704107285, 0.4551001489162445, -0.18620942533016205, -0.23028041422367096, -0.09149716049432755, -0.503799557685852, 0.49253392219543457, 0.22480787336826324, 0.02338719181716442, 0.2799685299396515, 0.04024719074368477, -0.3863537907600403, -0.27428027987480164, -0.24964985251426697, 0.33618485927581787, 0.380808025598526, -0.540492832660675, 0.4512443244457245, -0.6566141247749329, -0.13782671093940735, 0.08929963409900665, 0.4352496862411499, 0.0478040911257267, -0.554948091506958, -0.43139857053756714, -0.27449867129325867, -0.1848859041929245, -0.3296990990638733, -0.0732824057340622, -0.4491635262966156, 0.03590526431798935, 0.1131422147154808, 0.23747263848781586, -0.12556445598602295, -0.23874449729919434, 0.11576658487319946, 0.14398913085460663, 0.28325462341308594, -0.038520392030477524, -0.16699039936065674, -0.2275848239660263, -0.13652317225933075, -0.1917068213224411, -0.5691686272621155, -0.1354496330022812, -1.684124231338501, 0.05656260624527931, 0.6839348673820496, 0.006996140815317631, 0.9152165651321411, 0.7558231949806213, 0.17375437915325165, -0.915424108505249, -0.7506460547447205, 0.9071364998817444, 0.11166519671678543, 1.228317141532898, -0.33405473828315735, -0.27135396003723145, -0.22101856768131256, 0.12161431461572647, -0.18861529231071472, 0.4781849682331085, -0.09445186704397202, 1.0946145057678223, 2.700282573699951, 0.9410778880119324, -0.6466357111930847, 0.774079442024231, -0.24412956833839417, -0.23549310863018036, 0.5448362827301025, 0.22668252885341644, 0.30641719698905945, 0.11115136742591858, 0.12631753087043762, -0.6479988098144531, 0.17896440625190735, -0.471876323223114, -0.5508809089660645, 1.0366967916488647, -0.09837807714939117, 0.6578120589256287, 0.3285628855228424, 0.24301943182945251, -0.440122127532959, -0.06921830773353577, 0.6225051879882812, 0.5013071298599243, 0.5326115489006042, -1.9607819318771362, 0.06660111993551254, -0.8200300335884094, 0.5725690126419067, -0.2806435823440552, -0.4499180018901825, -0.2208019345998764, 0.1405828446149826, 0.2605818510055542, 0.10093484818935394, -0.6172751188278198, -0.584629237651825, 0.6190800070762634, 1.3174185752868652, 0.36170294880867004, 1.073386549949646, -0.8203361630439758, -0.7817713618278503, 0.3378041982650757, 1.337422490119934, -1.0557856559753418, 0.6348940134048462, -0.3286702334880829, 1.006122350692749, -0.4307718276977539, -0.44881758093833923, -0.6555178165435791, -1.117430329322815, 1.2427994012832642, 0.4333801865577698, 1.7713075876235962, 0.07345324009656906, 0.7672548890113831, 0.39838388562202454, 0.20527590811252594, -0.23643149435520172, 0.4399276673793793, 0.938995897769928, -0.5255296230316162, -0.27605879306793213, -0.688622772693634, 1.9670896530151367, 0.5746849179267883, -0.39707955718040466, -0.1704021692276001, 0.3078015148639679, -0.7134178280830383, -0.3327045738697052, -0.6449202299118042, 0.9635511040687561, -0.08192920684814453, 1.223669409751892, 0.5536675453186035, -0.05465499311685562, 0.25232088565826416, 0.43566328287124634, -0.2641947865486145, 0.17328624427318573, -0.13101954758167267, 0.05667566880583763, -0.33588942885398865, 0.5245771408081055, 0.23086804151535034, -0.544839084148407, -0.24516476690769196, -0.3724365830421448, 0.7063680291175842, 0.3622201979160309, -0.1843775063753128, 0.036789581179618835, 0.3654319941997528, -0.6031841039657593, 0.08595381677150726, -0.313780814409256, 0.29175591468811035, 0.35917532444000244, 0.5824755430221558, 0.6579210758209229, -0.4287745952606201, 0.5632136464118958, -0.4421451687812805, -0.10690891742706299, 0.010602356866002083, 0.1772952675819397, 0.27877277135849, 0.32760927081108093, -0.28899821639060974, 1.5170387029647827, 0.6574220657348633, 0.7758450508117676, 0.9408305287361145, 0.2496500313282013, -0.7371129989624023, 0.21070130169391632, 0.7861261963844299, -0.5193560123443604, 0.5479384064674377, 0.5320864915847778, 0.23991245031356812, -0.2925834655761719, 0.035043977200984955, -0.5686813592910767, -1.2431446313858032, 2.0048446655273438, 0.3051712214946747, 0.06527658551931381, 0.48610398173332214, 0.6232494711875916, 0.8677470088005066, -1.6355884075164795, 0.14333386719226837, -0.6134759783744812, -0.39402031898498535, 0.4149059057235718, -0.3930100202560425, 1.5090245008468628, -0.8053908944129944, -0.19754041731357574, -0.005215131212025881, 0.060004085302352905, -1.369774341583252, 1.2498267889022827, 0.750762403011322, 1.1623481512069702, -1.1321173906326294, -2.108269453048706, -0.42395737767219543, -0.998894453048706, -0.5160639882087708, -1.2519543170928955, 4.342379093170166, -0.04104972630739212, -0.11508996784687042, -0.06290948390960693, 0.04701320454478264, 0.1739634871482849, -0.09618323296308517, 0.7111608982086182, 0.41245320439338684, 0.5794363617897034, -0.2608517110347748, -0.4306672513484955, -0.6657437086105347, 0.5411909222602844, 0.15542422235012054, -0.6591156721115112, 0.118446484208107, 0.28983160853385925, 0.10328534990549088, -0.8141757249832153, -0.1061101108789444, -0.9557937383651733, -0.5647799968719482, 0.14748525619506836, 1.1648832559585571, 0.8183935880661011, -1.2487881183624268, 0.728795051574707, 0.018943089991807938, 1.1307660341262817, -0.3738538324832916, 0.8183965086936951, -0.3094293475151062, -1.5108200311660767, -0.7772406339645386, -0.45626989006996155, 1.625383734703064, 1.0398586988449097, -1.6770833730697632, -0.49249371886253357, 0.9329099059104919, 0.016535062342882156, -1.3926547765731812, -0.9802305698394775, 2.049349069595337, -0.7724631428718567, 2.694005250930786, 2.1147098541259766, 0.03483182564377785, -0.9296598434448242, -3.6160900592803955, 0.07713860273361206, 1.1656138896942139, 0.0036008080933243036, 0.09633602946996689, 0.19785341620445251, -0.47508835792541504, 0.007401622831821442, -0.17901510000228882, -0.14435455203056335, 1.329759120941162, 1.0104033946990967, 0.4427298307418823, 0.04326564818620682, 0.014999275095760822, -0.03205190598964691, 0.12038785219192505, 0.3244818449020386, 0.07135099172592163, 0.2171519547700882, 0.11419554799795151, 1.187636137008667, -0.5662176012992859, 0.309037983417511, 0.15599192678928375, -2.0367722511291504, 0.6636395454406738, 1.101224422454834, 0.6813271045684814, -0.41483965516090393, -0.443605899810791, -1.5607529878616333, -0.3402087986469269, -1.2214299440383911, -1.3671730756759644, 1.8174468278884888, 0.6647605895996094, 1.0667999982833862, 1.16371750831604, 0.10277611017227173, -0.8490189909934998, 1.0696430206298828, 0.07837360352277756, 1.445008635520935, 1.068500280380249, -3.2292871475219727, 0.40654078125953674, -0.3040030896663666, 0.8843984007835388, 1.1154751777648926, 5.345673084259033, -0.12939861416816711, -0.27743372321128845, -0.14265452325344086, 0.043920133262872696, -0.607647716999054, -0.5398696064949036, -0.4521765112876892, 1.36173415184021, -0.32523006200790405, -0.6260706186294556, -1.609897494316101, 0.30595189332962036, -0.018133189529180527, 0.2237185388803482, -0.27421584725379944, -0.2629799544811249, 0.2673299014568329, 0.646355926990509, -0.6139224171638489, -0.23363730311393738, -0.49215996265411377, -0.6649720072746277, 0.4248449206352234, -1.0887802839279175, 0.921072781085968, 0.14086398482322693, 0.27190297842025757, 0.4925006926059723, -0.08421394228935242, -0.04172996059060097, 0.3946550190448761, 0.8051578998565674, -0.6054691076278687, 0.33527207374572754, -0.38670387864112854, 0.9522296190261841, -0.23588816821575165, 0.04224250093102455, -0.33089888095855713, -0.4681025743484497, -0.023373061791062355, -0.09083159267902374, -0.8291293382644653, 0.09238506853580475, 1.0011564493179321, 0.2833026051521301, 0.23516611754894257, -0.6591012477874756, 0.2813246548175812, -2.71504545211792, 0.324651300907135, 0.4867261052131653, 0.6862744092941284, -0.3619367182254791, -0.3375132083892822, -1.0290104150772095, -1.4236117601394653, -0.8711718320846558, -0.6691135764122009, 1.787555456161499, 0.4440823197364807, 1.1291158199310303, 0.8022428154945374, 0.24298053979873657, -0.9711558818817139, 0.8097270727157593, 0.6252152323722839, 1.201032042503357, 1.4340265989303589, -1.438779592514038, 0.9602577686309814, 0.08937691897153854, 0.4070649743080139, -0.66494220495224, 1.198881983757019, -0.26979687809944153, -0.6431522369384766, -0.22613880038261414, 0.576830267906189, -1.1277328729629517, 0.7974098920822144, 1.1577138900756836, -1.0975714921951294, -1.7940107583999634, -0.35206764936447144, 0.15119269490242004, 0.9752421975135803, -0.13774773478507996, 0.50021892786026, 2.1264777183532715, -0.20567399263381958, -0.6571158766746521, -0.7038588523864746, 0.4590505361557007, -1.4756501913070679, -0.058826006948947906, -0.0563645102083683, -0.8904799222946167, 2.0544962882995605, -0.8722372055053711, -0.43752938508987427, 1.0944257974624634, 0.3241144120693207, 0.7711890935897827, 0.5026195049285889, 0.19945162534713745, 1.808069109916687, -0.24441127479076385, -0.24992318451404572, -0.21372906863689423, 1.1602632999420166, -0.08150628954172134, -0.8646519780158997, -0.8534356355667114, 3.0676281452178955, -1.0236756801605225, -0.9137104749679565, 0.2660595774650574, 0.21152186393737793, -1.2239922285079956, 0.22045737504959106, -1.12106454372406, 0.8417907357215881, 0.24266034364700317, 0.9840012788772583, -0.27386194467544556, -1.2479647397994995, -1.1744581460952759, 0.5958322882652283, -1.3522696495056152, 1.1190118789672852, 1.4151524305343628, -0.617214560508728, -0.49636611342430115, -1.8716939687728882, 0.19232000410556793, 0.14223897457122803, 0.6374126076698303, -0.1818598061800003, 0.7736897468566895, -0.41747868061065674, 0.7482647895812988, -1.5671316385269165, -0.4312422275543213, 1.8945800065994263, 0.08623597025871277, 0.6694804430007935, -2.535244941711426, -2.2989180088043213, 1.7824008464813232, -0.6263583898544312, -0.501850962638855, -0.5307653546333313, 0.9479425549507141, 0.021145202219486237, 0.99739009141922, 0.1285020262002945, 0.13421030342578888, 0.23256030678749084, -1.7368882894515991, 0.9478636980056763, 0.01924208365380764, -0.2523290514945984, -0.08096244931221008, 1.266079068183899, -1.6220769882202148, 0.47156357765197754, -1.4729443788528442, -0.32473665475845337, 0.7686724662780762, -0.19163154065608978, -0.6813720464706421, -0.2777257263660431, 0.7889530658721924, 1.2596274614334106, 0.23843200504779816, 0.030751993879675865, 0.49210643768310547, -0.9396752715110779, -0.6190201044082642, -0.8252171874046326, 2.431614875793457, 1.0789164304733276, -0.13086669147014618, 1.0949652194976807, -0.6400745511054993, -0.48459339141845703, 1.0323153734207153, 1.4403783082962036, 0.4362058937549591, 0.864653468132019, -0.4982549548149109, 0.6910394430160522, -0.612370491027832, -2.954716920852661, -0.9048981070518494, -0.49352073669433594, 1.9732550382614136, 0.3087216317653656, 2.5800247192382812, 0.20999819040298462, -0.32383599877357483, 0.3825998902320862, -0.6356493234634399, 0.19931569695472717, -0.3069595396518707, 1.0149506330490112, 0.826408863067627, 0.8477511405944824, 0.5410521030426025, -0.19105710089206696, -0.9495212435722351, 1.00796377658844, 0.34381887316703796, -0.9449459910392761, 0.46367546916007996, 0.7479509711265564, 0.26630130410194397, -1.3397161960601807, -0.3609672486782074, -1.0667026042938232, -0.7958734631538391, 0.5582202076911926, 0.20090587437152863, -6.527866840362549, 0.17577332258224487, 1.28874671459198, 1.2229900360107422, 0.5291491746902466, -0.1292835921049118, -1.3410248756408691, -0.14379620552062988, 0.12413262575864792, 0.29485023021698, 2.3950459957122803, 2.604977607727051, -0.028277341276407242, 1.078609585762024, 0.3271546959877014, -0.16147738695144653, 0.6950384974479675, -0.20744287967681885, 0.26756855845451355, 1.2601836919784546, 0.10096730291843414, 1.2129912376403809, -0.9577956199645996, 0.5991752743721008, -0.15741895139217377, -1.007015347480774, 0.3878985047340393, 0.4559997618198395, 1.1013399362564087, -0.4703511595726013, -1.847610592842102, -0.09352528303861618, 1.7714067697525024, -0.11718673259019852, -1.812718391418457, -0.12405643612146378, 0.28561022877693176, 0.10555370897054672, 2.113053321838379, 0.07572483271360397, -1.7719050645828247, -0.6733522415161133, 0.18836940824985504, -0.9471997022628784, -0.5175479054450989, -2.6441707611083984, 0.11261063069105148, -2.7766847610473633, -0.010009863413870335, -1.485841989517212, -1.5074955224990845, 0.034365471452474594, -0.31638839840888977, 0.41607925295829773, -0.17481090128421783, -0.8224127292633057, 0.3484787046909332, 0.09709522128105164, -0.4524650573730469, -0.3651847541332245, -0.46727603673934937, 0.195296972990036, 0.523447573184967, -0.561475932598114, -0.548592209815979, 0.13665199279785156, -0.20253832638263702, 0.19733262062072754, -0.12817098200321198, 0.723302960395813, 0.09903039783239365, 0.048991549760103226, 0.8111016154289246, -0.44646742939949036, 0.20865857601165771, -0.01465753186494112, 0.652468204498291, 0.5532104969024658, -0.04323948174715042, 0.022486520931124687, 0.47402238845825195, -0.5889577269554138, 0.11686736345291138, -0.14405231177806854, 0.3556084632873535, 0.5606540441513062, -0.9673349261283875, -0.4812665283679962, -0.20655694603919983, 0.9697350263595581, -0.36869877576828003, 1.2424453496932983, 0.4479876160621643, 0.8584052324295044, -0.17504079639911652, -1.1370848417282104, -1.1764702796936035, -0.7078861594200134, 0.684285581111908, 0.03255952522158623, -0.19433322548866272, -1.338674783706665, -0.6361345052719116, 0.4411633610725403, 1.3351370096206665, 0.5086750984191895, 1.0689387321472168, -0.2110605537891388, -0.36827391386032104, 0.41634824872016907, 0.39792466163635254, 0.3878922760486603, 0.027717286720871925, -2.3902852535247803, 0.534175455570221, -0.4233019948005676, -0.1251206398010254, 1.7579796314239502, -0.8798972964286804, 0.7510235905647278, 1.4918091297149658, -0.6790021657943726, -0.2889193892478943, 0.42685937881469727, 0.15140865743160248, -1.1383811235427856, -1.9388896226882935, -0.3621407449245453, -0.41811197996139526, 0.15926526486873627, -0.31813114881515503, 0.2562806010246277, -1.6208114624023438, 2.2869598865509033, 2.678010940551758, -1.3843474388122559, -0.03862380236387253, -2.4576940536499023, -0.15467029809951782, -0.35784485936164856, 0.5351448059082031, -0.18153756856918335, -0.3787807822227478, -0.6704781651496887, -0.8855185508728027, 6.260066032409668, 0.04392661899328232, -0.24201777577400208, 0.6680451035499573, -1.2697250843048096, -4.120261192321777, -4.721534729003906, -5.217082977294922, -3.141641855239868, -3.7987945079803467, -4.164875030517578, -1.1234780550003052, -4.822697639465332, -3.3996148109436035, -5.022114276885986, -4.329068183898926, -2.7627460956573486, -3.0195298194885254, -2.8086776733398438, -2.7947654724121094, -4.627510070800781, -3.225111246109009, -3.615731716156006, -4.462639331817627, -0.8857468366622925, -4.096147060394287, -5.62003755569458, -1.7017078399658203, -2.2587525844573975, 3.781670093536377, 4.354274272918701, 5.013553619384766, 3.6892430782318115, 4.695535659790039, 3.9197678565979004, 2.155941963195801, 4.831377983093262, 4.793186664581299, 4.067571640014648, 4.7415313720703125, 4.3036885261535645, 3.9908347129821777, 3.1932811737060547, 3.2838053703308105, 4.411613464355469, 3.1052660942077637, 4.36796760559082, 4.480463981628418, 2.6867594718933105, 4.277815818786621, 5.330453872680664, 2.817415237426758, 1.7045648097991943, -0.5445401072502136, 0.41410961747169495, 0.17402663826942444, 1.176989197731018, -0.4202937185764313, 0.5001686811447144, 0.261174738407135, -0.3669467568397522, -0.8317267298698425, -0.046518951654434204, 0.437741756439209, 0.6691591739654541, -0.2924482524394989, -0.15995487570762634, 0.5180243253707886, -0.3121035695075989, -1.027458906173706, -0.72795170545578, 0.7163349390029907, -0.034021977335214615, 0.3305865526199341, 0.5077197551727295, 0.7066605091094971, -0.4697374701499939, -1.6267460584640503, 1.9370629787445068, 1.1541540622711182, -1.374648094177246, -1.2101452350616455, -0.37346789240837097, 3.3745274543762207, 0.5634156465530396, -1.2769711017608643, 0.1576709896326065, 0.8805124759674072, -0.5621808767318726, 0.327883243560791, 0.3103969693183899, 1.5610268115997314, 1.4991663694381714, -2.258227825164795, -1.0673186779022217, -1.3036160469055176, 0.41268593072891235, 1.130418300628662, -0.8598742485046387, 1.802422285079956, 0.9105774164199829, -0.07727250456809998, 0.820898711681366, 0.046468526124954224, 0.06643115729093552, -0.06197259947657585, 0.06364574283361435, 0.4616667628288269, 0.4619652330875397, -0.4900049567222595, -0.10978494584560394, 0.18705610930919647, 0.3481524884700775, -0.3161472678184509, 0.058001093566417694, 0.5645304918289185, -0.45815756916999817, -0.2643919885158539, -0.03029366210103035, 0.27183741331100464, -0.3108503222465515, 0.5379348993301392, 0.08041748404502869, 0.1254742443561554, 0.0031308731995522976, -1.822150707244873, 1.1720905303955078, 0.050503090023994446, 0.6404106616973877, -1.6551700830459595, 0.5487716794013977, 0.4995713531970978, 0.5706346035003662, -7.752335548400879, -0.23222486674785614, 0.28078144788742065, 4.839624404907227, -0.3405473232269287, 0.05828630179166794, 1.0615543127059937, -0.5410775542259216, -1.3525214195251465, -6.728353023529053, 0.5757609605789185, -0.3808128833770752, 0.7512620091438293, 1.1563782691955566, 0.1920618861913681, 0.04104423150420189, -1.177452802658081, -0.2136596441268921, -0.12208148837089539, 0.7619323134422302, 0.4565540552139282, 0.434456467628479, -0.718440592288971, -0.4921313226222992, -0.22552576661109924, -1.1013636589050293, -0.13820813596248627, 0.40473705530166626, 0.021693775430321693, -0.10560630261898041, -0.07330578565597534, -0.22610029578208923, -0.67295902967453, -0.8249433636665344, 0.5461257100105286, 0.6177866458892822, -0.12560537457466125, 2.2906548976898193, -0.3158341348171234, -0.03416562080383301, -0.03392588719725609]}