{"version": "0.5.1", "metadata": {"date": {"year": 2023, "month": 5, "day": 29, "hour": 16, "minute": 46, "second": 36}, "loudness": -11.955801010131836, "gain": 0.608310806006682}, "architecture": "WaveNet", "config": {"layers": [{"input_size": 1, "condition_size": 1, "head_size": 4, "channels": 8, "kernel_size": 3, "dilations": [1, 2, 4, 8, 16, 32, 64], "activation": "Tanh", "gated": false, "head_bias": false}, {"input_size": 8, "condition_size": 1, "head_size": 1, "channels": 4, "kernel_size": 3, "dilations": [128, 256, 512, 1, 2, 4, 8, 16, 32, 64, 128, 256, 512], "activation": "Tanh", "gated": false, "head_bias": true}], "head": null, "head_scale": 0.02}, "weights": [0.3325969874858856, 0.6184900403022766, -0.9445673823356628, -0.5121396780014038, -0.49915650486946106, 0.13172173500061035, -0.20352493226528168, 0.6980065107345581, -0.0970396026968956, -0.15085014700889587, 0.09929659217596054, -0.10384070873260498, -0.4013643264770508, -0.02904360182583332, -0.016489675268530846, 0.22256627678871155, -0.022176558151841164, 0.19101522862911224, 0.07869172841310501, -0.19436830282211304, 0.13679420948028564, 0.3825796842575073, -0.15679621696472168, 0.17486432194709778, -0.17595143616199493, 0.08519768714904785, 0.14231492578983307, -0.2635226249694824, -0.3082796633243561, -0.11816277354955673, -0.2920576333999634, 0.2784230411052704, -0.10261061042547226, 0.228199303150177, -0.3286280930042267, -0.23185299336910248, 0.1054081991314888, -0.0441003181040287, 0.12800078094005585, -0.13140331208705902, 0.22769229114055634, -0.06044008955359459, -0.1747818887233734, 0.03529903665184975, -0.10114780068397522, -0.32707643508911133, 0.3507622182369232, 0.054447613656520844, 0.0779232308268547, -0.2224332094192505, 0.1122640073299408, -0.2456721067428589, 0.08144816756248474, -0.01659812033176422, 0.35504084825515747, -0.337316632270813, 0.03943551331758499, -0.47621914744377136, 0.09327487647533417, -0.08522862941026688, -0.18384559452533722, 0.2806299924850464, -0.1398257613182068, 0.34351909160614014, -0.08365903049707413, -0.04334714636206627, 0.2890017032623291, -0.1518934816122055, 0.10314065217971802, 0.4773750603199005, -0.36639857292175293, -0.023920303210616112, -0.11695092171430588, 0.30683422088623047, -0.06630023568868637, 0.28301775455474854, -0.0951227992773056, -0.15909872949123383, -0.2594684064388275, 0.06660137325525284, -0.2571144998073578, 0.14488252997398376, 0.385437548160553, -0.306344211101532, -0.08187010139226913, 0.07769288122653961, 0.07156287878751755, 0.032453421503305435, -0.03207475692033768, -0.012800652533769608, 0.2020891308784485, -0.005309532396495342, 0.2442515343427658, 0.19664359092712402, -0.32146143913269043, -0.20577701926231384, -0.03899930790066719, 0.08392857015132904, -0.08933883160352707, -0.2637172043323517, 0.012172354385256767, 0.034093622118234634, -0.2138219028711319, 0.05566422641277313, -0.0018222550861537457, -0.2758447229862213, -0.05028926208615303, -0.02402237057685852, -0.3119142949581146, 0.07930584251880646, -0.2166515290737152, 0.4280368387699127, -0.16960687935352325, 0.04981940612196922, 0.44576194882392883, -0.21487192809581757, -0.19098742306232452, 0.31498318910598755, -0.020669419318437576, 0.1847684681415558, -0.17942044138908386, 0.045620400458574295, -0.3859960734844208, -0.018900752067565918, -0.49245312809944153, 0.008080154657363892, -0.35709986090660095, -0.056807540357112885, 0.07544125616550446, -0.28831595182418823, 0.21963205933570862, 0.20101845264434814, -0.2438683658838272, 0.2249663919210434, -0.008030226454138756, 0.09802909940481186, -0.22584693133831024, -0.16625533998012543, 0.16230513155460358, -0.09292200952768326, 0.02946770191192627, 0.24528522789478302, -0.03988765552639961, 0.12508654594421387, -0.2847917079925537, 0.10329101234674454, -0.1659359335899353, -0.061030127108097076, -0.3602088689804077, 0.0002820964145939797, -0.3064502477645874, 0.054919444024562836, -0.21835048496723175, 0.29818373918533325, -0.04596602916717529, -0.308788537979126, 0.35056599974632263, -0.23070627450942993, 0.06769262999296188, -0.3135265111923218, 0.028517797589302063, 0.07392123341560364, -0.41588637232780457, -0.10625441372394562, 0.08996868133544922, -0.2251325398683548, -0.014058675616979599, -0.03389042243361473, 0.005680631380528212, -0.04378215968608856, 0.4502033293247223, 0.0012467812048271298, 0.32393789291381836, -0.03365661948919296, 0.045401595532894135, 0.06323036551475525, 0.05998428538441658, -0.14733760058879852, -0.034453343600034714, -0.13694998621940613, -0.07453067600727081, -0.24191240966320038, 0.1163485199213028, 0.15261690318584442, 0.2976993918418884, 0.05355193093419075, 0.05698683112859726, 0.15929532051086426, -0.19250045716762543, 0.21423722803592682, 0.3685915768146515, 0.14687034487724304, -0.24494336545467377, -0.1555708646774292, -0.32589682936668396, -0.0665673092007637, 0.18797346949577332, 0.09688488394021988, -0.22040678560733795, -0.2025483250617981, 0.0280404444783926, 0.17956897616386414, -0.10063718259334564, -0.19246354699134827, -0.07407668977975845, 0.06788290292024612, -0.15122142434120178, 0.09160999953746796, 0.4598430395126343, -0.09505263715982437, 0.18270613253116608, -0.08890916407108307, 0.1696220487356186, 0.009040316566824913, -0.07065693289041519, -0.07118809968233109, -0.40666666626930237, -0.3807947337627411, 0.1139344796538353, -0.5706323981285095, -0.23905640840530396, 0.09533971548080444, 0.29168811440467834, -0.07959015667438507, -0.6263052225112915, 0.2682132124900818, -0.49601075053215027, -0.2844259738922119, -0.35870563983917236, -0.14902226626873016, 0.08396275341510773, 0.31264233589172363, 0.011675599962472916, 0.3898683786392212, 0.14229458570480347, -0.2394799441099167, 0.13249658048152924, -0.16319572925567627, -0.2529551386833191, 0.09152187407016754, 0.06586982309818268, 0.08556317538022995, -0.1880287230014801, -0.017792971804738045, 0.0074428073130548, -0.5227447748184204, 0.5332909226417542, -0.39390379190444946, -0.03180234879255295, -0.03261720389127731, -0.22334769368171692, 0.05485835298895836, 0.18012042343616486, -0.1168781965970993, -0.16635559499263763, -0.16612014174461365, -0.3835698962211609, -0.024387013167142868, -0.07762186229228973, -0.0764101967215538, -0.09286719560623169, 0.11868831515312195, 0.24239815771579742, 0.2100580781698227, 0.4367903769016266, -0.06193917244672775, 0.11708077788352966, 0.13018998503684998, 0.6195434927940369, 0.3455367684364319, -0.5215561389923096, -0.12578043341636658, -0.2393110990524292, 0.05969512090086937, -0.10380195826292038, -0.26048555970191956, 0.48449209332466125, -0.11494338512420654, -0.12784086167812347, 0.19564799964427948, 0.08898884803056717, -0.1272020787000656, -0.2244580239057541, 0.18856430053710938, 0.053423523902893066, 0.10637066513299942, -0.026836657896637917, 0.08714460581541061, 0.09981053322553635, -0.0404215082526207, -0.27510619163513184, 0.3426252603530884, 0.06925463676452637, -0.003963190596550703, -0.07115170359611511, -0.17672304809093475, 0.13667923212051392, -0.15207673609256744, 0.03519152104854584, -0.060023896396160126, -0.19581745564937592, -0.11258752644062042, -0.016039954498410225, 0.12522736191749573, 0.038204509764909744, -0.12492355704307556, -0.12073702365159988, 0.10873453319072723, 0.08785349130630493, 0.16920487582683563, -0.09617211669683456, -0.00713984202593565, 0.2994120121002197, 0.009935067966580391, 0.06575434654951096, 0.19540143013000488, 0.05372624099254608, -0.06504318863153458, -0.1261172741651535, -0.022782839834690094, -0.006793334614485502, -0.15124139189720154, -0.05510914698243141, -0.0217302106320858, 0.010638521052896976, 0.24086111783981323, 0.09849899262189865, 0.050098687410354614, 0.16669844090938568, -0.0669083446264267, -0.17876556515693665, -0.3039192855358124, 0.24987322092056274, 0.3567503094673157, -0.06407158821821213, 0.08906912803649902, 0.23378515243530273, 0.22579269111156464, 0.17348012328147888, 0.1233268529176712, -0.20924216508865356, -0.05320880562067032, 0.1745343953371048, 0.07664402574300766, -0.22422675788402557, 0.06596118956804276, -0.0743521898984909, 0.15380315482616425, -0.035197142511606216, -0.04046141728758812, -0.10845467448234558, 0.24614951014518738, -0.004304318688809872, 0.14413268864154816, 0.1293497532606125, 0.20107558369636536, -0.18039292097091675, 0.18438053131103516, -0.048680227249860764, 0.13273976743221283, -0.3326537311077118, -0.13848312199115753, 0.14229218661785126, -0.01777680218219757, 0.041283633559942245, 0.3542081415653229, 0.4771973788738251, -0.05514214560389519, -0.18106184899806976, 0.03553769364953041, -0.09912870079278946, 0.29640400409698486, 0.22096140682697296, -0.0012595461448654532, -0.3551517426967621, -0.13608239591121674, 0.14708366990089417, 0.16018903255462646, 0.27638906240463257, 0.19218303263187408, 0.0323852077126503, -0.3641246557235718, -0.02869483083486557, 0.21447792649269104, -0.18898019194602966, -0.10985875874757767, 0.11964380741119385, 0.13416077196598053, -0.1600373536348343, 0.22896455228328705, 0.14924676716327667, 0.17564842104911804, -0.05840852111577988, 0.045084595680236816, -0.1831064522266388, 0.23406022787094116, 0.34652891755104065, 0.31909433007240295, -0.2488069087266922, 0.1089819148182869, 0.08266822248697281, 0.005223316140472889, -0.12617342174053192, 0.32552409172058105, -0.002215766115114093, -0.2763441503047943, 0.051752328872680664, 0.08790728449821472, -0.38872605562210083, 0.23718374967575073, -0.13634763658046722, -0.1835714876651764, 0.3390817940235138, -0.041334956884384155, -0.04860789328813553, -0.24885520339012146, -0.09719549119472504, -0.22513742744922638, 0.1647597700357437, 0.042842891067266464, 0.17313915491104126, -0.3252459466457367, 0.04011450707912445, 0.14208932220935822, 0.17327651381492615, -0.15012559294700623, 0.05586787313222885, -0.4080127775669098, 0.05036419630050659, 0.01366741769015789, -0.014170407317578793, 0.25570204854011536, -0.03836197033524513, -0.2051922082901001, -0.21092739701271057, -0.0028149853460490704, 0.04983427748084068, -0.1146535575389862, 0.2503257691860199, -0.15460585057735443, -0.2597333490848541, 0.06803552806377411, -0.05414194613695145, -0.037152986973524094, -0.16942252218723297, 0.15904563665390015, -0.26899388432502747, 0.037347376346588135, -0.04894891381263733, -0.20476718246936798, 0.0031623493414372206, 0.07885570079088211, 0.24274016916751862, -0.16269637644290924, -0.24191176891326904, 0.1903354376554489, -0.3113950192928314, -0.018210848793387413, 0.016717474907636642, -0.2193710058927536, -0.30395230650901794, 0.0973190888762474, 0.21261999011039734, -0.1352454125881195, 0.008042492903769016, 0.16638964414596558, -0.00950619112700224, -0.06579186022281647, 0.21634481847286224, -0.06100350618362427, -0.24173134565353394, 0.20468944311141968, 0.09996525943279266, 0.002661370439454913, 0.16501355171203613, -0.12839196622371674, -0.2865954339504242, -0.07730022817850113, -0.12226660549640656, 0.21304455399513245, -0.12837590277194977, -0.08028160780668259, -0.09531917423009872, 0.1173415556550026, -0.04872967675328255, 0.19671283662319183, 0.07077796757221222, 0.14765197038650513, -0.04325586557388306, -0.17218711972236633, -0.3212871849536896, 0.11603151261806488, 0.39481839537620544, -0.47629737854003906, 0.9245702028274536, 0.04783526808023453, -0.44993674755096436, -0.260624498128891, 0.03253335878252983, 0.6084054112434387, -0.13723967969417572, 0.47160977125167847, 0.2532460689544678, 0.33158156275749207, 0.25633272528648376, -0.19134192168712616, 0.2940618693828583, 0.22210602462291718, -0.15958307683467865, 0.1907012164592743, -0.11097249388694763, 0.21833014488220215, -0.08651600033044815, -0.15216311812400818, 0.12179452180862427, 0.09373046457767487, -0.13700377941131592, 0.062493111938238144, 0.1819106489419937, 0.04253070056438446, 0.2737514078617096, 0.027490751817822456, 0.4418027400970459, -0.33993080258369446, -0.21662820875644684, -0.2736877202987671, 0.23466692864894867, -0.2646244168281555, -0.10768810659646988, -0.2316654771566391, 0.391608864068985, 0.4107350707054138, -0.10881123691797256, -0.18997813761234283, -0.29066911339759827, 0.053993090987205505, 0.03846374526619911, -0.17188581824302673, 0.16070137917995453, -0.07421969622373581, -0.060308896005153656, -0.1879141628742218, -0.08231262862682343, -0.3055989146232605, 0.18606974184513092, 0.2846760153770447, 0.08336103707551956, -0.4116166830062866, -0.5247824788093567, 0.38144487142562866, -0.1775766760110855, -0.2882956862449646, 0.2920626103878021, -0.20278894901275635, -0.16801446676254272, 0.08566702902317047, -0.045445796102285385, -0.0766233578324318, 0.29234737157821655, 0.04961708188056946, -0.3182026147842407, -0.10873968154191971, -0.0465390644967556, 0.06526374071836472, -0.1734088957309723, 0.10735730081796646, -0.021411119028925896, -0.06577490270137787, 0.14682123064994812, -0.29602959752082825, 0.25399404764175415, 0.13545045256614685, -0.15050271153450012, -0.06830326467752457, -0.09336652606725693, 0.2360602766275406, -0.12710268795490265, -0.1406090408563614, 0.07961196452379227, 0.21386918425559998, -0.12035495787858963, -0.11359366029500961, -0.2577601671218872, 0.07635875791311264, 0.03533274307847023, -0.08204016834497452, 0.2940109074115753, 0.46994492411613464, 0.07766767591238022, 0.24567240476608276, -0.2667027413845062, -0.025352397933602333, -0.11395566910505295, 0.17969143390655518, 0.0709700956940651, -0.07504299283027649, -0.17298954725265503, 0.09080936759710312, 0.1304640769958496, 0.2283439040184021, -0.2050420492887497, -0.10193613171577454, -0.13768862187862396, 0.30805686116218567, -0.15994809567928314, -0.02598384954035282, 0.05531937628984451, -0.12019287794828415, -0.09202577918767929, -0.0292296651750803, -0.13609525561332703, 0.025671303272247314, 0.07719963043928146, 0.05208607390522957, -0.028892019763588905, 0.05397004634141922, 0.1132432147860527, -0.033914487808942795, -0.03722449764609337, 0.1142284944653511, -0.08920314908027649, 0.2034936398267746, -0.05029161646962166, -0.2769445776939392, 0.07213128358125687, -0.04636010527610779, 0.1283932626247406, -0.19099348783493042, -0.22020548582077026, -0.17628887295722961, 0.24995914101600647, 0.11040344089269638, 0.08462187647819519, 0.11263283342123032, 0.11045514047145844, 0.11534584313631058, 0.05317889526486397, -0.0953747108578682, 0.10421045124530792, 0.04299251735210419, -0.14234048128128052, -0.03294088691473007, 0.16740070283412933, 0.026562314480543137, -0.267001211643219, 0.19056695699691772, -0.022360770031809807, 0.22689762711524963, -0.22568123042583466, -0.16123197972774506, 0.14022116363048553, 0.02389063686132431, 0.164163276553154, -0.034327320754528046, -0.2651045024394989, -0.23142185807228088, -0.04784317687153816, 0.048786893486976624, 0.020259033888578415, 0.022612715139985085, -0.0304783433675766, -0.1362607777118683, -0.14864638447761536, -0.19029423594474792, -0.15616238117218018, 0.6937504410743713, -0.16850359737873077, 0.024466708302497864, 0.05571144074201584, -0.026453319936990738, -0.06438439339399338, -0.06389209628105164, 0.12399368733167648, -0.06925919651985168, 0.04681015387177467, 0.11866665631532669, 0.03254709020256996, -0.07103358209133148, 0.2849258482456207, -0.06671082228422165, 0.1354447901248932, -0.1561392992734909, -0.2696671187877655, -0.43810954689979553, 0.05936229228973389, -0.10987140238285065, 0.1411043405532837, -0.3902830481529236, -0.04018309339880943, 0.13743701577186584, -0.09964005649089813, -0.08552169799804688, 0.1805400252342224, 0.16361522674560547, 0.002222208073362708, -0.2720206677913666, 0.2106025665998459, -0.06299229711294174, 0.04461101070046425, -0.05722403526306152, -0.1015840694308281, -0.05167436972260475, -0.09753147512674332, 0.09504633396863937, -0.1288682073354721, 0.047785643488168716, 0.13764481246471405, 0.17424197494983673, 0.03162365034222603, 0.007933339104056358, 0.09624908119440079, -0.12673135101795197, -0.27412527799606323, 0.48379582166671753, 0.021791715174913406, -0.02581721544265747, 0.22410129010677338, 0.03198413550853729, 0.15927349030971527, 0.0004692870134022087, 0.17719151079654694, -0.15696166455745697, -0.06259623169898987, -0.08326020836830139, -0.11613339930772781, -0.15437409281730652, 0.22049491107463837, -0.12144983559846878, 0.08402563631534576, -0.06980526447296143, -0.19495223462581635, 0.1862446367740631, 0.037562716752290726, 0.012920980341732502, 0.30561399459838867, 0.20631936192512512, 0.05309973284602165, -0.4864647388458252, 0.26113712787628174, -0.03238966688513756, -0.25935471057891846, 0.12402638047933578, 0.1768016666173935, 0.03937137871980667, 0.06510839611291885, 0.16955462098121643, 0.05381181091070175, -0.1533164083957672, 0.021072547882795334, 0.04119787737727165, -0.1880658119916916, -0.08163651078939438, 0.08003243058919907, 0.07864733040332794, 0.26130279898643494, 0.3912280201911926, 0.05344661325216293, 0.2010573148727417, -0.24041077494621277, -0.012229780666530132, 0.046812910586595535, 0.11019018292427063, -0.12289086729288101, 0.06649667769670486, 0.0626894161105156, -0.06036490201950073, -0.020200612023472786, 0.09187053889036179, -0.47143450379371643, -0.3029475808143616, 0.10646513104438782, -0.6709480881690979, 0.16010276973247528, 0.3216553032398224, 0.41102737188339233, -0.3713124692440033, 0.42979127168655396, -0.3436112105846405, 0.3980851471424103, -0.3758721351623535, -0.5635923147201538, 0.2564117908477783, 0.023682856932282448, 0.1646616905927658, -0.24393419921398163, -0.35797423124313354, 0.03196246549487114, -0.6003762483596802, 0.06324312835931778, 0.11610127985477448, -0.03592759370803833, 0.09158492088317871, 0.4523499011993408, 0.040464114397764206, -0.27545779943466187, 0.06761783361434937, -0.3873111605644226, -0.3440319299697876, -0.08501268923282623, 0.010581065900623798, 0.058301858603954315, -0.17663124203681946, 0.4108515679836273, -0.484351247549057, 0.20662160217761993, 0.492867648601532, 0.3940120041370392, -0.28173547983169556, 0.16077476739883423, 0.18747375905513763, -0.2395118623971939, 0.09247352927923203, -0.18023274838924408, -0.2505892813205719, 0.17975689470767975, 0.19749601185321808, -0.2940320074558258, 0.4187708795070648, -0.062228377908468246, 0.06939186155796051, 0.5657975673675537, -0.11802281439304352, 0.21215328574180603, -0.2092868536710739, -0.20855042338371277, 0.014097539708018303, -0.0005630837404169142, -0.28458845615386963, 0.43761560320854187, 0.059946052730083466, 0.25321727991104126, -0.17784377932548523, -0.40959006547927856, -0.20413494110107422, -0.3657202422618866, 0.12076680362224579, 0.4288690686225891, -0.2425229847431183, -0.2838349938392639, -0.12250103056430817, -0.039109405130147934, 0.23116587102413177, 0.11545772105455399, 0.10730957239866257, 0.16964435577392578, -0.12662546336650848, 0.1749817430973053, 0.15698570013046265, 0.13397350907325745, -0.050742845982313156, 0.03773367777466774, 0.2892209589481354, 0.00998356007039547, -0.09356361627578735, -0.06161149963736534, -0.2802126109600067, -0.009469712153077126, -0.04422013461589813, 0.20022271573543549, -0.2628624737262726, -0.03568221256136894, 0.19594036042690277, -0.033953167498111725, 0.14731355011463165, 0.33354318141937256, 0.014152747578918934, -0.016098957508802414, -0.05749187991023064, -0.00565895764157176, 0.16682589054107666, 0.13235092163085938, 0.06076527386903763, -0.2868681848049164, 0.2613471746444702, -0.10809696465730667, -0.06272143125534058, 0.21298429369926453, 0.13181155920028687, -0.15052925050258636, -0.37037333846092224, 0.2087121456861496, -0.3436943590641022, -0.06381511688232422, -0.01407505851238966, 0.12412893772125244, -0.20335634052753448, 0.24802730977535248, -0.009039441123604774, -0.00685672415420413, 0.16645509004592896, -0.16212165355682373, 0.03334059566259384, -0.06214239448308945, 0.023939454928040504, -0.06998030096292496, -0.1475561559200287, -0.0870673879981041, 0.15443676710128784, 0.10797976702451706, 0.12623415887355804, 0.4334666132926941, 0.14634671807289124, 0.21271206438541412, -0.14607121050357819, 0.12786388397216797, -0.0666842833161354, -0.18089622259140015, -0.11307357251644135, -0.03149614855647087, -0.16776099801063538, 0.02948925830423832, 0.1420384794473648, 0.14940667152404785, 0.013277030549943447, -0.16439960896968842, -0.46368032693862915, -0.06699039041996002, -0.14386169612407684, 0.4116760194301605, 0.12016210705041885, 0.42034658789634705, -0.13970808684825897, -0.20473647117614746, 0.40825819969177246, 0.16080544888973236, -0.3542989194393158, -0.13608583807945251, -0.18658144772052765, 0.37022149562835693, 0.3026868402957916, 0.3040379285812378, -0.37255796790122986, -0.45113906264305115, 0.15267886221408844, 0.31198230385780334, 0.06686457991600037, 0.20408879220485687, -0.2255459725856781, 0.0489267036318779, 0.05212456360459328, -0.1274246871471405, 0.08640426397323608, -0.1437865048646927, 0.10106868296861649, -0.22529450058937073, -0.05996702238917351, -0.31545329093933105, -0.3184325397014618, 0.0907571017742157, -0.04660053551197052, -0.02972482703626156, -0.10748904198408127, -0.20676101744174957, -0.26296016573905945, 0.06021074205636978, 0.20051726698875427, 0.1571795493364334, -0.16868774592876434, 0.09412918984889984, -0.049278512597084045, -0.18706662952899933, 0.02178698591887951, 0.11785269528627396, -0.3848910331726074, -0.04463742673397064, -0.0689825713634491, 0.25744742155075073, -0.228889599442482, 0.07886037975549698, -0.014133320190012455, 0.03645864129066467, 0.038578491657972336, 0.06720621138811111, 0.06213259696960449, -0.06523453444242477, 0.1561446487903595, 0.22455713152885437, 0.1475326418876648, -0.32546862959861755, -0.06472652405500412, -0.16624514758586884, -0.02130436711013317, 0.04283184930682182, -0.2423548698425293, -0.010529836639761925, -0.2089262455701828, 0.020612742751836777, -0.02272140234708786, -0.1486819088459015, 0.0834813341498375, 0.010501407086849213, 0.1541244387626648, 0.04995173588395119, -0.09327089041471481, 0.1639474779367447, 0.09114082902669907, 0.003966439049690962, -0.06900687515735626, -0.15363489091396332, 0.11461605876684189, -0.1815926730632782, -0.006781985517591238, -0.048306263983249664, -0.09649419039487839, -0.16107307374477386, 0.16616399586200714, -0.2506364583969116, -0.16308461129665375, -0.05541634559631348, -0.06780560314655304, 0.0432928130030632, -0.04766494035720825, 0.07798755913972855, -0.07062264531850815, -0.04273700341582298, 0.1298322081565857, 0.09817313402891159, -0.1831061989068985, -0.04768446087837219, 0.2228144109249115, 0.06919024884700775, -0.14074577391147614, -0.19597165286540985, 0.1699637770652771, -0.06393671035766602, -0.013834775425493717, -0.13852426409721375, -0.018111875280737877, -0.18853481113910675, 0.28508028388023376, 0.056184206157922745, 0.019117381423711777, -0.020513396710157394, -0.06409116089344025, -0.002034531906247139, 0.2701897919178009, -0.17516054213047028, -0.08339915424585342, -0.3064553737640381, 0.1330108791589737, -0.06310820579528809, 0.024384142830967903, -0.02624644711613655, -0.07899507880210876, 0.06430448591709137, -0.05625114589929581, 0.16702571511268616, 0.06700237095355988, -0.7716410160064697, 0.2778390645980835, -0.14811842143535614, -0.40836068987846375, 0.44360098242759705, 0.9465453028678894, -0.7845464944839478, 0.14067545533180237, 0.2719866633415222, 0.06494099646806717, 0.37259504199028015, 0.16118529438972473, -0.25580939650535583, 0.04115854948759079, 0.2638354003429413, 0.264315664768219, 0.08551742136478424, -0.21300610899925232, 0.2985188066959381, -0.3598233759403229, -0.002516313688829541, 0.3056001663208008, 0.13918879628181458, 0.09688913077116013, 0.11613765358924866, -0.16403217613697052, 0.43344709277153015, -0.44626182317733765, -0.2410045862197876, -0.03282569348812103, 0.39417117834091187, 0.09601457417011261, 0.1924712359905243, -0.20433543622493744, 0.25472399592399597, -0.3063490688800812, 0.1941155642271042, 0.22690905630588531, 0.17345552146434784, -0.00839961040765047, -0.0893547460436821, -0.2624284625053406, 0.09865089505910873, 0.4040062427520752, -0.07010060548782349, 0.20348994433879852, -0.023891393095254898, -0.13794094324111938, 0.10027431696653366, -0.29628005623817444, 0.10783307999372482, -0.5776807069778442, -0.022149424999952316, -0.06898736953735352, 0.3538447618484497, 0.46679747104644775, -0.1934562772512436, 0.19994807243347168, -0.0946178063750267, -0.6060765981674194, 0.08342675864696503, 0.1123480573296547, -0.14156098663806915, -0.2674752175807953, 0.03754168003797531, 0.31577348709106445, 0.2031596601009369, -0.4273427724838257, 0.14925602078437805, -0.3266160488128662, -0.2768700420856476, -0.13743016123771667, -0.07718246430158615, -0.24277019500732422, -0.12167874723672867, 0.0094067994505167, -0.27587032318115234, -0.06818149983882904, -0.2057836353778839, -0.1290029138326645, -0.009904398582875729, -0.32923123240470886, -0.11144156754016876, 0.06730972975492477, -0.13916131854057312, 0.3675566613674164, -0.014613612554967403, 0.13128216564655304, -0.18183466792106628, -0.02279001474380493, -0.030979854986071587, 0.03246856853365898, 6.36349359410815e-05, 0.24802224338054657, -0.28825145959854126, -0.03533889353275299, 0.24185410141944885, -0.20626209676265717, 0.04925302043557167, -0.2655699849128723, 0.3449628949165344, -0.12637899816036224, 0.01656961627304554, 0.04690282791852951, -0.10742918401956558, -0.16100779175758362, 0.4093867838382721, -0.12173547595739365, -0.20636112987995148, 0.3348444998264313, -0.00740480050444603, 0.30732518434524536, -0.26810961961746216, -0.07519923150539398, -0.31172293424606323, 0.32819241285324097, 0.060434240847826004, 0.04635768383741379, -0.1206456869840622, 0.026889102533459663, 0.09954679757356644, -0.2880142331123352, -0.06674369424581528, 0.052151571959257126, -0.09768739342689514, 0.042861465364694595, -0.2316502183675766, -0.004432696849107742, -0.11817432940006256, -0.2856381833553314, -0.026969503611326218, -0.20651356875896454, -0.18048296868801117, 0.20356892049312592, 0.2837836742401123, 0.03053230792284012, -0.33555829524993896, -0.23480717837810516, -0.16754065454006195, 0.5052014589309692, 0.20089823007583618, -0.061440739780664444, -0.2392185479402542, 0.053669072687625885, 0.2828393280506134, 0.09503483772277832, 0.027383890002965927, -0.1567976474761963, 0.5308071970939636, 0.009676358662545681, 0.02636498212814331, 0.12411342561244965, 0.07518339902162552, 0.04328466206789017, 0.07284972816705704, 0.10698585957288742, -0.21024975180625916, -0.11081936210393906, -0.2217026650905609, 0.1887798309326172, -0.0830601155757904, 0.221812441945076, -0.08107078820466995, -0.19668181240558624, -0.10375702381134033, -0.3016657531261444, -0.18107905983924866, -0.045869216322898865, -0.24632413685321808, 0.252233624458313, 0.12143950909376144, 0.3329398036003113, 0.11455439776182175, -0.4816546142101288, -0.044838204979896545, 0.0776207223534584, -0.10970301181077957, -0.08742699772119522, -0.2010950893163681, 0.08124392479658127, 0.049495380371809006, 0.07957588881254196, 0.22833754122257233, 0.42674437165260315, -0.2907620072364807, -0.07614482194185257, -7.16264548827894e-05, 0.15011964738368988, 0.10302017629146576, 0.1478877067565918, -0.09013237059116364, -0.18616777658462524, -0.027039917185902596, 0.059850577265024185, 0.039040982723236084, -0.16062237322330475, 0.35118362307548523, -0.02311898022890091, -0.14442269504070282, 0.20011472702026367, -0.05450351908802986, 0.11392563581466675, 0.09317299723625183, 0.22043131291866302, 0.032562632113695145, -0.24294522404670715, -0.02570541575551033, 0.07847325503826141, 0.3029657304286957, 0.044049158692359924, 0.09758705645799637, -0.06413698941469193, -0.11871238052845001, 0.03401894494891167, 0.3104740381240845, -0.19360150396823883, -0.12411411851644516, 0.07137251645326614, 0.10254953801631927, 0.2940094769001007, 0.17685329914093018, -0.4276202321052551, -0.2593481242656708, 0.3490506708621979, -0.09227920323610306, -0.32352304458618164, 0.00453142449259758, -0.057617731392383575, 0.06059291586279869, 0.2325817197561264, 0.1455904245376587, 0.33788350224494934, -0.2817680537700653, -0.02609126828610897, -0.10353706777095795, 0.26220643520355225, 0.0684012845158577, 0.005633499473333359, -0.2395435869693756, 0.09820807725191116, 0.035741448402404785, -0.1123645156621933, 0.08544536679983139, 0.11972123384475708, 0.07315228879451752, 0.07835686951875687, -0.18974247574806213, -0.15357044339179993, 0.22365979850292206, 0.18836793303489685, 0.2315286248922348, -0.0622980110347271, 0.10710279643535614, -0.14043785631656647, -0.019972823560237885, -0.08822937309741974, 0.18159113824367523, 0.1896543651819229, 0.08697687089443207, -0.25311827659606934, -0.25787562131881714, -0.1544068455696106, 0.2547297477722168, -0.05241977795958519, -0.26131436228752136, -0.2233482003211975, 0.11003506183624268, 0.1734851598739624, -0.38393113017082214, -0.186782106757164, 0.21486181020736694, -0.17791317403316498, 0.030865386128425598, 0.01701204478740692, -0.11400746554136276, -0.08331979066133499, -0.19916363060474396, 0.06635715812444687, 0.008889968506991863, -0.045521751046180725, -0.3459707498550415, -0.6096860766410828, -0.33766624331474304, -0.7301989197731018, 0.6480528712272644, 0.5106405019760132, -0.5829440951347351, -0.2537864148616791, 0.4222845733165741, 0.3495011031627655, 0.2999054491519928, 0.34008264541625977, -0.06768399477005005, 0.031252000480890274, 0.15832991898059845, 0.08864592760801315, -0.11694855988025665, 0.05029766261577606, 0.3480047285556793, -0.18579427897930145, -0.02177157811820507, 0.4064173698425293, -0.17736822366714478, 0.020082633942365646, 0.43025341629981995, 0.4971896708011627, -0.015965767204761505, 0.277701199054718, -0.15951408445835114, 0.023274172097444534, 0.10606503486633301, 0.10841934382915497, 0.29116514325141907, 0.4101201891899109, -0.03395933657884598, 0.4256221354007721, 0.12931613624095917, 0.14960430562496185, 0.1489650011062622, -0.3229444622993469, -0.3806273937225342, 0.1678893119096756, -0.29977044463157654, -0.059355128556489944, -0.32590800523757935, -0.15448063611984253, -0.09731047600507736, 0.2798936367034912, -0.00022897697635926306, 0.24805355072021484, 0.22215385735034943, 0.10454408079385757, 0.36004674434661865, -0.23700831830501556, 0.07399381697177887, -0.2440728396177292, 0.3959784507751465, 0.45125582814216614, 0.035749077796936035, 0.017696095630526543, -0.1771477311849594, 0.31475380063056946, -0.1357608586549759, 0.3095057010650635, 0.20016755163669586, 0.6275443434715271, 0.4952056109905243, -0.240126833319664, 0.13380618393421173, -0.2763206362724304, 0.4224940538406372, -0.17233285307884216, 0.06719230860471725, -0.13600699603557587, -0.14716880023479462, 0.1669485718011856, 0.11146412789821625, 0.05391066148877144, 0.21276646852493286, -0.12408117204904556, 0.032401420176029205, 0.10032083839178085, 0.00991289597004652, -0.10226303339004517, 0.26225048303604126, 0.0038480765651911497, 0.03831925988197327, -0.25179538130760193, 0.09839683026075363, -0.010155308060348034, 0.17581616342067719, -0.17985385656356812, -0.04341825470328331, -0.30901795625686646, -0.07258389890193939, 0.09670396149158478, -0.20547395944595337, 0.07877092063426971, 0.18136920034885406, 0.08698099106550217, -0.39866507053375244, -0.16199694573879242, -0.33534353971481323, 0.30497750639915466, 0.11186275631189346, -0.1907716542482376, 0.16652438044548035, 0.01553486380726099, -0.037157200276851654, -0.02806035801768303, -0.05178380385041237, 0.215448796749115, -0.0681227594614029, -0.06182758882641792, -0.08032317459583282, -0.06584474444389343, -0.05613381788134575, 0.2777857482433319, -0.08284928649663925, 0.03037983551621437, 0.02273786999285221, -0.24028605222702026, -0.01011092308908701, 0.022652657702565193, -0.011206969618797302, -0.010790916159749031, 0.2961020767688751, -0.3446187376976013, -0.3934697210788727, 0.11363939195871353, 0.27265504002571106, 0.12433284521102905, -0.06264100968837738, 0.027170849964022636, 0.09776681661605835, -0.21734246611595154, 0.08350418508052826, -0.46719565987586975, 0.10578567534685135, 0.21567805111408234, 0.2055007964372635, -0.07271602749824524, -0.08728829026222229, 0.026667118072509766, -0.01924162358045578, -0.06165453791618347, -0.012419277802109718, 0.036731377243995667, -0.1258300542831421, 0.5052888989448547, -0.11954352259635925, -0.1102304607629776, 0.06857050955295563, -0.00953493732959032, 0.1360129415988922, -0.131338432431221, 0.2084110826253891, 0.1214795857667923, 0.06405092775821686, -0.057738546282052994, 0.3317220211029053, 0.021731238812208176, 0.06509251147508621, -0.05769563093781471, -0.05218647047877312, -0.11140663921833038, 0.007242138031870127, 0.011485944502055645, -0.25141847133636475, 0.21297234296798706, 0.2022218406200409, -0.03956812620162964, 0.0996110588312149, -0.0865190401673317, 0.1423448771238327, -0.06616230309009552, 0.029081029817461967, -0.0335136279463768, 0.13196930289268494, 0.16857528686523438, -0.10586068779230118, 0.31492549180984497, -0.04584525153040886, 0.07450587302446365, -0.07943319529294968, -0.039798423647880554, -0.08814334869384766, 0.04914558306336403, -0.06571072340011597, -0.049166396260261536, -0.11631128937005997, -0.14758269488811493, 0.26777929067611694, 0.2746639549732208, 0.1489308625459671, -0.10111452639102936, 0.2574372887611389, -0.0820852741599083, -0.100956492125988, 0.251918762922287, -0.2623348832130432, -0.1544535756111145, 0.18846018612384796, -0.00470598042011261, 0.16905997693538666, -0.08472093194723129, 0.02655053697526455, -0.17356620728969574, -0.13114309310913086, 0.0563427098095417, 0.12437887489795685, -0.32404839992523193, 0.17467328906059265, -0.10352111607789993, 0.47527456283569336, 0.17417819797992706, -0.11488843709230423, -0.17614533007144928, -0.09421205520629883, -0.10355731844902039, -0.4629646837711334, 0.0888955295085907, -0.11571678519248962, -0.47387415170669556, 0.06828604638576508, 0.24440450966358185, -0.18446680903434753, 0.034553173929452896, 0.03933039680123329, -0.20377333462238312, 0.08222164213657379, -0.3656996786594391, -0.10057053714990616, -0.04073202982544899, 0.06081134453415871, -0.3915855586528778, 0.026604006066918373, -0.22240416705608368, 0.11751683801412582, 0.07046619057655334, -0.2732548117637634, -0.26037871837615967, -0.3647812604904175, -0.02987760305404663, 0.0319506973028183, 0.2086571455001831, 0.020518850535154343, -0.5969803333282471, -0.15040314197540283, -0.11899510771036148, 0.1585174947977066, -0.056084249168634415, 0.08172491192817688, -0.11137746274471283, -0.002861044369637966, -0.14690572023391724, -0.0817716121673584, -0.1970394253730774, -0.06469834595918655, -0.30602964758872986, 0.08556602895259857, -0.09852714836597443, 0.5007081031799316, 0.178964763879776, -0.30358365178108215, -0.441675066947937, -0.10672994703054428, 0.11141224950551987, -0.6295766830444336, 0.20856954157352448, 0.07014743238687515, -0.6664250493049622, -0.02245437167584896, 0.0010963460663333535, 0.044711846858263016, -0.009819360449910164, -0.040306489914655685, -0.032640453428030014, 0.02834414504468441, 0.11322542279958725, -0.6194169521331787, 0.16672329604625702, -0.4972389340400696, 0.3841855823993683, -0.4334065616130829, 0.3780345916748047, -0.6932955384254456, 0.46369749307632446, 0.0631377100944519, -0.13834738731384277, -0.2567233741283417, 0.024389781057834625, -0.039950817823410034, -0.7170771360397339, -0.24244269728660583, -0.04873913899064064, 0.47296926379203796, 0.30206695199012756, -0.06906291842460632, 0.11483532935380936, 0.06068135052919388, 0.14328816533088684, 0.06314990669488907, -0.1382470428943634, -0.07831937074661255, 0.1638307273387909, -0.5757033824920654, -0.2884649932384491, -0.02041243202984333, 0.17352472245693207, 0.22950220108032227, -0.08949503302574158, 0.3637658357620239, -0.24635538458824158, -0.3710021674633026, -0.2172049582004547, 0.1410321593284607, 0.05995367467403412, -0.10193505138158798, 0.015192351303994656, -0.47417059540748596, -0.0755239799618721, 0.3620700538158417, 0.10319504141807556, -0.17929570376873016, 0.008815450593829155, 0.08890584111213684, 0.5789676308631897, 0.06784311681985855, -0.08850376307964325, 0.08584322780370712, 0.1218225285410881, -0.3523097336292267, -0.36842405796051025, 0.00580189935863018, -0.10825681686401367, -0.4033140540122986, 0.23482079803943634, -0.5180027484893799, 0.10099273175001144, 0.0553278923034668, 0.11213205009698868, 0.2741958796977997, 0.2843059003353119, -0.38283830881118774, 0.03435414284467697, 0.18684417009353638, -0.019390515983104706, 0.27423757314682007, -0.29851844906806946, -0.3475109934806824, -0.3931911885738373, -0.27619338035583496, 0.32164329290390015, -0.033229220658540726, -0.23159444332122803, -0.005710109136998653, -0.18029920756816864, -0.18019378185272217, 0.19081979990005493, -0.07351312786340714, 0.0414828360080719, 0.0033769437577575445, -0.1109202578663826, 0.05429624393582344, -0.03498925641179085, 0.05586585775017738, 0.25876060128211975, -0.09619272500276566, -0.11004986613988876, -0.2309693843126297, 0.48931577801704407, 0.08619413524866104, -0.009786182083189487, 0.1199616864323616, 0.03822428360581398, 0.0629432424902916, -0.28958800435066223, 0.001340096932835877, 0.0706639215350151, 0.5227036476135254, 0.1228715255856514, 0.0738716647028923, -0.04046051949262619, -0.1479385942220688, 0.007933027110993862, -0.12612001597881317, -0.035031020641326904, 0.10733204334974289, 0.09310229122638702, -0.0033918065018951893, 0.0035822864156216383, -0.038850005716085434, -0.27849236130714417, -0.13371585309505463, -0.378806471824646, 0.028756020590662956, 0.07500492036342621, 0.44544678926467896, 0.09434379637241364, -0.10593632608652115, -0.36327502131462097, 0.0436980165541172, 0.1423753947019577, 0.27663350105285645, 0.18336983025074005, 0.13871780037879944, -0.6400367617607117, 0.16278943419456482, -0.15932659804821014, 0.40884271264076233, 0.2529613673686981, -0.15696807205677032, 0.15286366641521454, -0.042795319110155106, -0.07073237746953964, 0.21437959372997284, 0.5053279995918274, 0.2111067920923233, 0.3811440169811249, -0.19683651626110077, -0.08010180294513702, -1.0395015478134155, -0.29853689670562744, 0.1568382829427719, 0.9656371474266052, -0.07666721940040588, -0.2797895669937134, -0.6684576272964478, -0.36149680614471436, -0.12613876163959503, 0.9967764019966125, -0.15470857918262482, 0.021598612889647484, -0.2403237521648407, -0.08553551882505417, 0.10455509275197983, -0.32132020592689514, -0.06873016059398651, 0.013784424401819706, 0.08015056699514389, -0.26531147956848145, -0.17760688066482544, -0.2757411301136017, 0.03641347959637642, 0.08020181208848953, 0.1537737101316452, 0.12212996184825897, -0.09744510799646378, -0.3954513967037201, 0.03320031240582466, 0.18359993398189545, 0.1687767505645752, 0.16208495199680328, 0.16457824409008026, -0.4715455174446106, 0.01164328958839178, -0.12025163322687149, -0.1946520209312439, -0.12449521571397781, -0.39559078216552734, 0.12052111327648163, -0.020400505512952805, 0.30425140261650085, 0.3371657133102417, 0.06679247319698334, 0.033808521926403046, 0.3341330289840698, 0.20654185116291046, -0.007168616633862257, 0.004345082677900791, 0.16798438131809235, 0.11831916123628616, 0.08586479723453522, -0.062361497431993484, 0.015598678030073643, 0.2688511908054352, 0.06944873929023743, 0.07042936235666275, -0.09779777377843857, -0.1619003415107727, 0.1652984321117401, -0.1520010530948639, 0.005951938685029745, -0.04565604776144028, 0.1297815442085266, 0.12248941510915756, 0.1306060552597046, -0.04114752635359764, -0.2205430418252945, -0.10221569240093231, -0.29753121733665466, 0.08949568122625351, -0.0027482768055051565, 0.32032540440559387, 0.06977305561304092, -0.11277748644351959, -0.4599219560623169, -0.05960845947265625, 0.14765356481075287, -0.19596247375011444, 0.23962992429733276, 0.030764270573854446, -0.7160780429840088, -0.14407412707805634, 0.007588517852127552, 0.06330734491348267, -0.05276580899953842, 0.14445430040359497, 0.32580167055130005, -0.05738058313727379, 0.06498262286186218, -0.03484688326716423, -0.11983958631753922, -0.26033881306648254, 0.16019251942634583, -0.10678445547819138, -0.021245375275611877, 0.048858437687158585, 0.019389448687434196, 0.08474113792181015, 0.04995017126202583, 0.02191978320479393, -0.010139789432287216, 0.16915468871593475, 0.08986704051494598, 0.0622062161564827, 0.09206399321556091, 0.0036121399607509375, 0.0006259626243263483, -0.0102222366258502, 0.10665742307901382, 0.23633813858032227, 0.404727965593338, 0.056624218821525574, -0.18378041684627533, -0.14261141419410706, -0.03591185808181763, 0.08361122757196426, 0.03225095942616463, -0.010223804973065853, -0.11053959280252457, 0.0044673653319478035, -0.09958744794130325, -0.16632235050201416, 0.1780940741300583, -0.06202045828104019, 0.04623221233487129, -0.2366252988576889, -0.028472665697336197, -0.11360620707273483, -0.11781982332468033, 0.2009401023387909, -0.11945376545190811, -0.053703680634498596, -0.16343480348587036, 0.09564723819494247, -0.10349858552217484, 0.0481015183031559, -0.003333013504743576, -0.5462640523910522, 0.19795167446136475, -0.3673982322216034, 0.9107542037963867, 0.7574553489685059, 0.25300949811935425, -0.8809795379638672, -0.05080896615982056, -0.1455543488264084, -0.01539007667452097, 0.1358097344636917, 0.22569890320301056, 0.16878893971443176, 0.1350969821214676, -0.2567923367023468, -0.14978854358196259, -0.007463985122740269, -0.17797748744487762, -0.12443790584802628, -0.2244448959827423, -0.4327317476272583, 0.11497875303030014, -0.03246097266674042, -0.24992990493774414, 0.2622841000556946, -0.3716895580291748, -0.0716475248336792, 0.2125876247882843, 0.29761815071105957, -0.14759871363639832, 0.33033713698387146, 0.2287571132183075, -0.2637271285057068, -0.39666664600372314, -0.12176518142223358, -0.069049172103405, -0.26194971799850464, -0.028528491035103798, -0.12305323034524918, 0.09469421952962875, 0.21265050768852234, 0.0024403014685958624, -0.17992618680000305, -0.18072934448719025, 0.08395979553461075, 0.3241032063961029, 0.1311139613389969, -0.0032732547260820866, -0.07493440061807632, -0.02381148561835289, -0.44305476546287537, -0.6116732954978943, -0.35789814591407776, -0.3165302574634552, -0.18448475003242493, -0.1441115140914917, -0.12585462629795074, 0.039454977959394455, -0.026764629408717155, -0.012015442363917828, 0.1630994826555252, -0.45810917019844055, -0.05926123261451721, 0.1612723022699356, 0.10896577686071396, -0.2282211184501648, -0.3097614347934723, -0.4581550061702728, 0.25535261631011963, -0.3305436372756958, -0.130713552236557, 0.2537479102611542, 0.3160459101200104, -0.052719391882419586, -0.13481149077415466, 0.2909354865550995, -0.0671314224600792, -0.14414140582084656, -0.2227257341146469, -0.1573382467031479, -0.0777227133512497, 0.3112940192222595, -0.25183138251304626, -0.1623082458972931, 0.32738447189331055, -0.33052322268486023, 0.034740298986434937, -0.1867598444223404, 0.36850690841674805, 0.8099488615989685, 0.021598385646939278, -0.2683905065059662, -0.09114091098308563, -0.2663746476173401, 0.14962138235569, 0.02711283415555954, 0.4015573263168335, 0.4695434272289276, 0.24451665580272675, -0.4022918939590454, 0.2769554555416107, 0.2966483533382416, -0.3044886887073517, -0.2275400608778, 0.033456530421972275, -0.5545713305473328, -0.25920888781547546, 0.3077981472015381, -0.15604323148727417, 0.07840417325496674, -0.15084508061408997, 0.3238808512687683, 0.033993273973464966, -0.0009113827836699784, -0.030763640999794006, 0.291495680809021, 0.1281599998474121, 0.0920063927769661, 0.06957436352968216, 0.3301854729652405, -0.16183063387870789, 0.132425919175148, -0.2365526258945465, 0.11866195499897003, -0.13644757866859436, 0.09173327684402466, 0.10248462855815887, -0.007233727723360062, 0.08721467107534409, -0.005299669690430164, -0.17588508129119873, -0.20445355772972107, 0.018265722319483757, -0.35100653767585754, 0.05556485801935196, -0.20392684638500214, -0.07932180166244507, -0.05306650698184967, 0.23000206053256989, 0.0012917035492137074, -0.03937847912311554, 0.2349153608083725, -0.05149923264980316, 0.3186529278755188, -0.04906732961535454, -0.14715129137039185, 0.0027384457644075155, 0.010556815192103386, -0.1026497483253479, -0.4702869653701782, 0.1300521194934845, 0.046792495995759964, 0.09204857796430588, 0.1923886090517044, 0.2355036586523056, 0.21628841757774353, -0.00212411698885262, 0.1351691484451294, 0.25553077459335327, -0.15717743337154388, -0.37152743339538574, -0.056755464524030685, -0.09964795410633087, -0.05400162190198898, 0.06162736564874649, -0.028433889150619507, -0.08913985639810562, 0.026731733232736588, 0.0316416434943676, 0.12458236515522003, 0.8448905944824219, 0.049523189663887024, 0.16173797845840454, 0.3988634943962097, 0.02774817869067192, -0.05694149062037468, -0.227898508310318, -0.022933676838874817, -0.2199256867170334, 0.3767789900302887, -0.018439045175909996, -0.014964357018470764, -0.06592746824026108, -0.09071367979049683, -0.42994266748428345, -0.10893559455871582, 0.12164869159460068, -0.0070081851445138454, -0.18033909797668457, 0.21029813587665558, 0.16550089418888092, -0.07781422883272171, 0.012716320343315601, -0.0351446233689785, -0.0010812233667820692, 0.20811429619789124, -0.039974041283130646, -0.19601686298847198, -0.22756421566009521, 0.48555296659469604, -0.22342847287654877, -0.17345766723155975, -0.39982131123542786, -0.360316663980484, 0.43427127599716187, -0.13771507143974304, -0.008729927241802216, -0.008448665030300617, 0.07937578856945038, -0.06886318325996399, -0.6035712957382202, 0.5217967629432678, -0.585583508014679, -0.18029049038887024, 0.14051419496536255, -0.07565194368362427, 0.28768929839134216, 0.42908036708831787, 0.08029992133378983, -0.18204374611377716, 0.016455410048365593, 0.04280410334467888, 0.29682987928390503, -0.033999424427747726, -0.03706701844930649, 0.15813620388507843, 0.01962052471935749, -0.07317861914634705, -0.9005658626556396, 0.03381491079926491, -0.10722864419221878, 0.5308547019958496, 0.0037281427066773176, 0.12779279053211212, 0.167827308177948, 0.011246996000409126, -0.17032897472381592, 0.4504053294658661, 0.021552227437496185, -0.06983684748411179, -0.39283135533332825, 0.02324838563799858, -0.11080264300107956, 0.6189669370651245, 0.033779457211494446, 0.05300769954919815, 0.164778470993042, 0.14766716957092285, 0.3548479378223419, -0.02809750661253929, 0.12936070561408997, -0.041514791548252106, -0.1372300088405609, 0.10950852930545807, -0.20659419894218445, -0.1464066356420517, 0.024323714897036552, -0.09034862369298935, -0.16156046092510223, -0.01563315838575363, 0.0086808567866683, -0.27982988953590393, 0.0913558229804039, 0.19527876377105713, 0.3309294581413269, 0.130607470870018, 0.30989089608192444, -0.5130673050880432, -0.03485081344842911, -0.3136216104030609, 0.07131896913051605, -0.059112973511219025, 0.5023513436317444, 0.09625674784183502, -0.5263628959655762, -0.1773797869682312, -0.4752006530761719, -0.18713007867336273, -0.010225565172731876, 0.017357314005494118, 0.06417403370141983, 0.24892733991146088, -0.12063828110694885, -0.24181681871414185, 0.671760082244873, -0.024509470909833908, 0.0335414744913578, 0.3405125141143799, 0.22815220057964325, 0.004225210286676884, 0.004826219752430916, -0.17038774490356445, 0.1961047500371933, -0.022608144208788872, 0.2656150758266449, -0.4069810211658478, -0.0885525643825531, 0.23316547274589539, 0.2744362950325012, 0.016354970633983612, -0.10013234615325928, -0.20849557220935822, -0.17299623787403107, 0.0647411197423935, -0.16143719851970673, -0.1435372531414032, 0.09792029112577438, 0.02436632476747036, 0.09282995760440826, -0.17446409165859222, 0.16979049146175385, -0.004184345249086618, 0.21165867149829865, -0.2249913513660431, 0.17248564958572388, -0.03839804232120514, -0.3036653399467468, 0.1378527283668518, -0.13660012185573578, -0.0952242761850357, -0.016345273703336716, -0.07544507086277008, 0.5029854774475098, -0.0158540029078722, -0.07845213264226913, -0.02808915264904499, -0.021924355998635292, -0.06850229948759079, 0.08407795429229736, -0.00934607908129692, -0.019502999261021614, 0.06598973274230957, 0.0071088215336203575, -0.08082413673400879, -0.13740511238574982, -0.021541405469179153, 0.04703681543469429, -0.6201555728912354, 0.015094305388629436, -0.04860405623912811, 0.2481451779603958, 0.024060895666480064, -0.07571368664503098, -0.277711421251297, 0.11437765508890152, -0.00203993683680892, -0.218253031373024, 0.14545656740665436, 0.33044925332069397, 0.2799783945083618, 0.5930686593055725, -0.22301138937473297, -0.5034693479537964, -0.5029472708702087, -0.4450165033340454, -0.3099386394023895, -0.24802249670028687, -0.2524571716785431, -0.18776600062847137, -0.1285223662853241, 0.08342321962118149, 0.06852266192436218, 0.10591910034418106, 0.42342832684516907, 0.0874980092048645, 0.09343648701906204, -0.1314624696969986, -0.08262143284082413, 0.3106406331062317, -0.11573939025402069, -0.21496623754501343, 0.4144425392150879, -0.013422152027487755, -0.2484290450811386, 0.09894439578056335, 0.155443012714386, 0.585905909538269, -0.4316953718662262, -0.14426179230213165, -0.11982781440019608, 0.19759654998779297, -0.16471868753433228, 0.3785620629787445, -0.33675363659858704, 0.051528386771678925, 0.24957670271396637, -0.09318049997091293, 0.14865237474441528, 0.47121694684028625, -0.12550942599773407, 0.08445125818252563, -0.5428910851478577, -0.2279331386089325, 0.09676390141248703, 0.5320665240287781, 0.20366105437278748, 0.08969813585281372, -0.11271119117736816, -0.25086984038352966, 0.4083939790725708, 0.23180590569972992, -0.3874448239803314, 0.05362943187355995, -0.21072663366794586, 0.1845252513885498, 0.35476556420326233, 0.5821380019187927, -0.08150146901607513, 0.2285672426223755, 0.13176889717578888, 0.30839717388153076, -0.21316257119178772, -0.6050310730934143, -0.08676254004240036, -0.2556898295879364, 0.4930950403213501, 0.23175016045570374, -0.35515260696411133, -0.39178767800331116, -0.21474753320217133, 0.06710185110569, 0.10035036504268646, 0.11461912095546722, 0.329886257648468, -0.011044022627174854, 0.3568830192089081, 0.24435395002365112, -0.08211580663919449, 0.31115850806236267, -0.17076417803764343, -0.1822468340396881, 0.01075732335448265, 0.018411807715892792, 0.4317626953125, 0.42641088366508484, -0.2313062846660614, -0.7291851043701172, 0.2736382484436035, 0.28367725014686584, -0.15027475357055664, 0.3764508366584778, 0.2039785534143448, 0.15837709605693817, -0.11680486798286438, -0.28055763244628906, -0.29175621271133423, 0.058689363300800323, 0.09896060079336166, -0.13204100728034973, 0.00805741548538208, -0.09334436804056168, 0.045069631189107895, 0.1685507744550705, -0.21764551103115082, 0.3008480370044708, 0.38870978355407715, -0.27426716685295105, 0.25532177090644836, 0.17346817255020142, -0.058075569570064545, 0.193062886595726, 0.08109045773744583, -0.10532743483781815, 0.03405776619911194, 0.3126683831214905, -0.2402769774198532, 0.07246782630681992, -0.029327062889933586, 0.09179488569498062, 0.03858941048383713, 0.20759248733520508, 0.12534479796886444, 0.018872767686843872, 0.19170576333999634, 0.49816834926605225, -0.0007685095770284534, -0.02889518439769745, 0.09328670799732208, -0.36635637283325195, -0.932939350605011, -0.48807981610298157, 0.13689975440502167, 0.14163750410079956, 0.029258208349347115, 0.34725552797317505, -0.14774189889431, -0.054461318999528885, -0.04865400493144989, -0.060281842947006226, -0.2357831448316574, 0.225128635764122, 0.7739303708076477, 0.5622808933258057, -0.14248055219650269, -0.21796420216560364, 0.04879692196846008, 0.08535177260637283, -0.11223758012056351, -0.17579646408557892, -0.20324808359146118, -0.06744053214788437, 0.05493027716875076, 0.6768099665641785, -0.40446898341178894, -0.6241767406463623, 0.4840691089630127, -0.49637657403945923, -0.658503532409668, 1.257638692855835, 0.7291566133499146, -0.5346596240997314, -0.5325086116790771, 0.9204874038696289, 0.5171228647232056, -0.7091176509857178, 0.05142173916101456, 0.5783418416976929, 0.3332934081554413, 0.05786559358239174, -0.31872230768203735, -0.21941015124320984, 0.15049035847187042, -0.45765379071235657, 0.4211009442806244, 0.06758518517017365, -0.16704322397708893, -0.2556696832180023, 0.05553453043103218, -0.00614355131983757, 0.39696359634399414, -0.012418339028954506, -0.07143522053956985, 0.258407324552536, -0.007408605422824621, -0.18477705121040344, 0.22823120653629303, 0.037899989634752274, -0.0031777499243617058, -0.008951501920819283, -0.03298233076930046, 0.32605651021003723, 0.32909515500068665, 0.11117234081029892, -0.10336655378341675, -0.03386005014181137, 0.00962566863745451, 0.21003907918930054, 0.11933199316263199, 0.07637088000774384, 0.16843220591545105, 0.045021504163742065, 0.016545085236430168, 0.1912756711244583, -0.08053947985172272, 0.012004083953797817, 0.01119766291230917, -0.12212046980857849, 0.02272688038647175, -0.0009036158444359899, -0.06548245251178741, -0.14564044773578644, -0.15642742812633514, 0.11538472771644592, 0.22547473013401031, -0.250734806060791, -0.18109877407550812, -0.010102611035108566, 0.033268947154283524, 0.09488529711961746, -0.04142558202147484, 0.13068024814128876, 0.2714652419090271, 0.07150723785161972, -0.19499456882476807, -0.0563875213265419, -0.056609101593494415, -0.2329959273338318, -0.18603046238422394, -0.08693987876176834, 0.08248282968997955, -0.038104232400655746, 0.15434429049491882, 0.5129022598266602, -1.192957878112793, -0.6243301630020142, 0.08233998715877533, 1.3323172330856323, -0.26493775844573975, 0.2897115647792816, -0.19104108214378357, 0.1635507345199585, 0.5299553275108337, -0.86867356300354, 0.01709362305700779, 0.31248635053634644, -1.4718679189682007, -0.25764232873916626, -0.2080077975988388, 0.014610928483307362, -0.04800334572792053, -0.028536798432469368, -0.020132269710302353, -0.4056823253631592, -0.04433361440896988, 0.017793014645576477, 0.5896114706993103, 0.058295462280511856, 0.06912052631378174, 0.46556422114372253, 0.06038786843419075, -0.009345797821879387, 0.3861163556575775, 0.06805702298879623, 0.32361286878585815, 0.22636869549751282, -0.19444184005260468, 0.028194280341267586, 0.03790680319070816, 0.027470463886857033, 0.10731165111064911, 0.24076950550079346, 0.014433304779231548, 0.09590735286474228, 0.27587267756462097, 0.07533615827560425, -0.2751460671424866, -0.1556067317724228, -0.2833224833011627, 0.047510288655757904, 0.20278193056583405, -0.14082352817058563, -0.20723634958267212, 0.0044542825780808926, 0.05103936046361923, -0.29610922932624817, -0.18798229098320007, -0.13924342393875122, -0.05361517518758774, -0.08894935995340347, 0.3591899275779724, 0.21329091489315033, -0.307265967130661, 0.08029993623495102, 0.4308583438396454, -0.4741242825984955, -0.11998576670885086, 0.27974602580070496, -0.0018222733633592725, 0.06680740416049957, -0.028104793280363083, 0.02586401253938675, -0.011610706336796284, -0.16510717570781708, -0.693932294845581, 0.0006097270525060594, -0.028616834431886673, -0.046796418726444244, -0.3965587019920349, 0.262943297624588, 0.04364003986120224, -0.5035891532897949, 0.00448065809905529, -0.10815159976482391, 0.09892094880342484, -0.2927761673927307, -0.2197386771440506, 0.8063032627105713, 0.1822090446949005, -0.38625168800354004, -0.13911083340644836, 0.2589876353740692, 0.005130015779286623, -0.13423629105091095, -0.21649688482284546, 0.27229782938957214, -0.08777381479740143, -0.11250848323106766, 0.06908106803894043, -0.10591909289360046, -0.022098859772086143, 0.22148878872394562, -0.08803679049015045, 0.03171524405479431, -0.05440973863005638, 0.20389388501644135, 0.12765595316886902, -0.08314283192157745, 0.271328330039978, -0.07161443680524826, 0.1657448261976242, 0.1961611658334732, -0.08458897471427917, -0.42821165919303894, 0.27127084136009216, 0.03457760810852051, 0.0613393671810627, -0.22041437029838562, 0.11946919560432434, 0.35624027252197266, -0.5161111354827881, -0.03616572171449661, 0.06444274634122849, 0.01795254461467266, -0.05541398003697395, -0.2733924984931946, 0.076419897377491, 0.01565193012356758, 0.058048952370882034, 0.1106010153889656, 0.0529632493853569, 0.14785923063755035, -0.05763283744454384, 0.02750573493540287, 0.045805055648088455, -0.46643155813217163, 0.03562917187809944, 0.14507783949375153, -0.25160351395606995, -0.016932491213083267, -0.060091085731983185, -0.4594089686870575, -0.03985936939716339, -0.10864129662513733, -0.06805282831192017, -0.175985187292099, -0.011381465941667557, -0.2289131134748459, -0.030449096113443375, 0.03242448344826698, 0.14902693033218384, 0.5485817790031433, 0.19600878655910492, -0.7939885854721069, 0.32123836874961853, 0.23527875542640686, 0.10652649402618408, -0.19457083940505981, -0.48819097876548767, 0.32863378524780273, -0.30964717268943787, -0.5810384750366211, 0.5567187666893005, 0.059585586190223694, -0.1381807178258896, -0.6393802762031555, 0.40101781487464905, -0.0018781604012474418, 0.07456560432910919, 0.07591860741376877, 0.4396436810493469, 0.013185997493565083, -0.14336659014225006, -0.046754319220781326, 0.024429474025964737, -0.7343347072601318, -0.003979094792157412, -0.03378508985042572, 0.5078873634338379, -0.015996506437659264, 0.019151639193296432, 0.5342726707458496, 0.014605600386857986, 0.04674891382455826, 0.05147470161318779, 0.04181519150733948, -0.030420485883951187, 0.4063374102115631, -0.05422419309616089, -0.18295490741729736, 0.08216816931962967, -0.011275469325482845, 0.16489851474761963, -0.14889580011367798, 0.06978669762611389, 0.2937432527542114, -0.246478870511055, 0.08662741631269455, 0.2683737277984619, 0.9192710518836975, -0.025993769988417625, 0.08509073406457901, 0.3432981073856354, -0.0012281606905162334, -0.10467716306447983, 0.5859314203262329, 0.019072283059358597, -0.2401718944311142, -0.1177993044257164, 0.02206491492688656, -0.01927010528743267, -0.12774579226970673, 0.06712367385625839, 0.13270092010498047, -0.22574235498905182, -0.13655538856983185, -0.02571464329957962, -0.19779276847839355, -0.1753329634666443, -0.1260361522436142, 0.06613120436668396, 0.17480461299419403, -0.06143200024962425, 0.08250799775123596, -0.06446736305952072, -0.036944273859262466, 0.04956436529755592, 0.4885666072368622, 0.2082076072692871, 0.49198830127716064, -0.8564610481262207, -0.06578610837459564, 0.3610270619392395, 0.24086329340934753, -0.3322893977165222, -0.18406043946743011, -0.023476840928196907, -0.7123274207115173, 0.9744164347648621, -0.18230652809143066, 0.1413847655057907, 0.9955012202262878, 0.4859589636325836, -0.09573930501937866, -0.3620424270629883, -0.2737569808959961, 0.17472007870674133, -0.46244150400161743, -0.3419826626777649, -0.10996278375387192, -0.07725287228822708, 0.10957834124565125, -0.07904566824436188, -0.07623694837093353, 0.420047789812088, -0.018769606947898865, 0.08860117197036743, 0.370083749294281, 0.07862827926874161, 0.12643077969551086, -0.12143319100141525, 0.016500024124979973, 0.02768958918750286, -0.10111771523952484, 0.01690857857465744, 0.03620300814509392, 0.5676206946372986, -0.0056683639995753765, 0.024563070386648178, -0.46316370368003845, -0.02951901964843273, -0.030787866562604904, 0.7292547225952148, -0.2056887000799179, -0.4209294021129608, 0.3770748972892761, 0.033327821642160416, -0.14608314633369446, 0.09110439568758011, 0.07653504610061646, 0.18903061747550964, 0.0628398135304451, 0.053447138518095016, 0.301418274641037, -0.07505977898836136, 0.16138869524002075, 0.09448635578155518, -0.5599119663238525, 0.1571854203939438, 0.15477094054222107, -0.0763951987028122, 0.002813090570271015, -0.06844720244407654, 0.010614138096570969, -0.17284910380840302, -0.19318552315235138, 0.12238702178001404, 0.012640489265322685, -0.015164687298238277, 0.21907413005828857, 0.05831493064761162, 0.23690231144428253, -0.03785271942615509, 0.11051788926124573, -0.0257220808416605, -0.08186324685811996, -0.11305200308561325, -0.9307775497436523, 0.7079763412475586, 0.4987123906612396, -0.34626880288124084, -0.01326038222759962, 0.20994065701961517, -0.08891475945711136, 0.13353599607944489, 0.34465956687927246, -0.2216024249792099, 0.358560174703598, -0.5417357683181763, 0.18751811981201172, -0.1512802392244339, -0.07563476264476776, -0.06953591108322144, 0.25597161054611206, 0.23745296895503998, -0.16574183106422424, -0.17972517013549805, 0.05795086920261383, -0.0862930566072464, -0.056979674845933914, 1.028098464012146, -0.0031091561540961266, -0.015194007195532322, -0.756658136844635, 0.09256261587142944, 0.06283870339393616, 1.0660213232040405, -0.15517812967300415, -0.13061687350273132, 0.2908354103565216, -0.0832349956035614, -0.030291777104139328, 0.44106265902519226, 0.006627367343753576, 0.09668850153684616, 0.4414592385292053, 0.10566188395023346, 0.09421771764755249, -0.07526641339063644, -0.18017634749412537, -0.44629597663879395, 0.26654940843582153, -0.039942335337400436, -0.16512438654899597, 0.17145779728889465, 0.03211884945631027, 0.05386843904852867, 0.1263095587491989, 0.06644607335329056, 0.2092093974351883, -0.040523502975702286, 0.08065014332532883, -0.19551129639148712, -0.18668687343597412, 0.06996985524892807, -0.06043393537402153, -0.16913333535194397, -0.01976066455245018, -0.021640172228217125, -0.6948433518409729, -0.09113108366727829, 0.05141251161694527, -0.4014100134372711, 0.3222554922103882, -0.1449134796857834, -0.16745612025260925, -0.12109102308750153, -0.1553926169872284, -0.16867609322071075, 0.00936688482761383, 0.07304244488477707, 0.235469788312912, -0.17697188258171082, -1.3233708143234253, 0.0888020247220993, -0.4147140085697174, 0.3646099269390106, -0.28596922755241394, -0.13893593847751617, 0.09526105970144272, -0.4253910481929779, 0.49138712882995605, 0.7303496599197388, 0.013303573243319988, 0.29523906111717224, 0.74985671043396, 0.6138371825218201, 0.22816339135169983, -0.3614288568496704, 0.3678029775619507, -0.3320164382457733, -0.1916113793849945, -0.37269139289855957, 0.2757261395454407, -0.12215027958154678, -0.2123565524816513, 0.31636887788772583, -0.03663884475827217, -0.095944344997406, 0.22933131456375122, 0.07969722151756287, 0.1196853518486023, -0.10291164368391037, -0.010377650149166584, -0.13484327495098114, 0.16833290457725525, -0.029966644942760468, -0.05216332897543907, 0.5784228444099426, -0.08870569616556168, 0.04018113762140274, 0.3181678056716919, -0.03200719133019447, 0.05774303898215294, -0.0020603216253221035, -0.23665942251682281, -0.3083440959453583, 0.10481845587491989, -0.12310203164815903, -0.20360785722732544, 0.08146253973245621, 0.0006870460929349065, 0.002059929072856903, 0.3150610625743866, 0.11357150971889496, 0.18825438618659973, 0.1874287724494934, 0.04336240142583847, 0.013665396720170975, -0.04117504134774208, 0.016991356387734413, 0.0053922394290566444, -0.6680381298065186, -0.0024139368906617165, -0.005802180152386427, -0.11901849508285522, -0.02844957448542118, -0.0025737585965543985, 0.017996318638324738, -0.15498128533363342, 0.17258773744106293, 0.07965929061174393, -0.015432197600603104, -0.04508901759982109, -0.3927888870239258, 0.174102321267128, 0.35028380155563354, -1.3978742361068726, -0.12422135472297668, -0.7046023011207581, 0.4122571051120758, -0.3957631587982178, 0.08086967468261719, -0.46166089177131653, -0.4327482581138611, 0.11203115433454514, -0.21472947299480438, -0.12176653742790222, -0.13342547416687012, 0.7811107039451599, 0.3020859360694885, 0.19434864819049835, -0.016589000821113586, -0.16713128983974457, 0.08747635781764984, 0.042262740433216095, 0.2239983230829239, -0.09023141115903854, -0.15688595175743103, 0.178595632314682, -0.019265353679656982, -0.07511890679597855, 0.15832780301570892, -0.06240752339363098, -0.041726626455783844, 0.48936977982521057, -0.05583154037594795, -0.006563878618180752, 0.22926738858222961, -0.18247170746326447, -0.14021645486354828, 0.0043077715672552586, -0.18328721821308136, -0.16147077083587646, -0.005499069578945637, -0.15705478191375732, -0.16566744446754456, 0.27758029103279114, 0.04392533004283905, 0.023927202448248863, 0.17148253321647644, 0.016021762043237686, -0.05023690313100815, 0.17409181594848633, -0.02472640760242939, -0.07285372167825699, 0.1370261162519455, 0.0002551072393544018, -0.04347320646047592, 0.5314410328865051, 0.030696379020810127, 0.030907001346349716, 0.270053505897522, 0.017532315105199814, -0.011456151492893696, -0.11632751673460007, 0.02028738148510456, -0.011495077982544899, -0.542925238609314, 0.009241266176104546, -0.06227599084377289, 0.17252172529697418, -0.010757606476545334, -0.02409341000020504, -0.321638286113739, 0.05100024864077568, -0.03109501115977764, 0.24844783544540405, -0.12260467559099197, 0.4927099943161011, -0.24486051499843597, -0.035658854991197586, 0.06261452287435532, -0.12091034650802612, -0.04836457967758179, -0.23046547174453735, 0.3559243679046631, 0.2869518995285034, -0.44128191471099854, -0.050015389919281006, 0.1681065559387207, 0.4823986291885376, -0.11955636739730835, 0.3069649934768677, -0.028011441230773926, -0.1917715072631836, 0.30598050355911255, -0.4455450773239136, 0.41890019178390503, 0.4994143843650818, -0.1365121603012085, 0.1975109577178955, 0.49860215187072754, 0.7295023798942566, 0.9266872406005859, 1.0497199296951294, -0.7614230513572693, 0.28098011016845703, 0.019999999552965164]}