{"version": "0.5.1", "metadata": {"date": {"year": 2023, "month": 5, "day": 29, "hour": 15, "minute": 55, "second": 21}, "loudness": -11.380825996398926, "gain": 0.6450519594674613}, "architecture": "LSTM", "config": {"input_size": 1, "hidden_size": 16, "num_layers": 1}, "weights": [0.3484101891517639, 0.5105561017990112, -0.6521242260932922, 0.30968648195266724, 0.07760696113109589, 0.031766630709171295, 0.46922752261161804, 0.01946133002638817, -0.8320902585983276, -0.4131940007209778, -1.2141033411026, -0.11121901869773865, -0.21513739228248596, 0.8232176303863525, -1.442731499671936, 0.11033237725496292, -1.06989324092865, 0.5846874713897705, -0.055905766785144806, -0.04594077914953232, 0.4146239757537842, -0.07919736951589584, 0.0671318918466568, 0.5204212069511414, 0.2465922236442566, 0.2925594449043274, -0.21610428392887115, -0.889915406703949, 0.5810080766677856, 0.6259633898735046, 0.3383239805698395, 0.19544069468975067, 0.6782737970352173, -0.48647090792655945, -1.2707005739212036, 0.32085907459259033, 0.10060957819223404, 0.12363062798976898, 0.18008042871952057, 0.3501366972923279, -0.41351935267448425, -0.13002613186836243, 0.031206922605633736, -0.5309377908706665, -0.8361729979515076, 0.2917969226837158, -0.42454808950424194, -0.02615172043442726, 0.9115915894508362, -0.5479323863983154, 0.4358704388141632, -0.20025503635406494, -0.23401230573654175, -0.1953018307685852, 0.4519599974155426, 0.0789191722869873, 0.020969979465007782, -0.2558274269104004, 0.29931730031967163, 0.10711414366960526, -0.06631430983543396, 0.32983696460723877, -0.2542092204093933, -0.4838678240776062, -0.3884270489215851, 0.2051224559545517, 0.03540785238146782, -0.5886015892028809, -0.4006824195384979, -0.35506671667099, -0.1321190446615219, -0.519497811794281, 0.31297799944877625, 0.30327171087265015, 0.54744553565979, 0.500339150428772, 0.49252641201019287, 0.632925808429718, -0.25719523429870605, -0.3542245328426361, 0.3113436698913574, 0.31936001777648926, 0.7130799293518066, -0.004324308130890131, -0.33766278624534607, -1.5350875854492188, 0.1755293756723404, 0.0822896882891655, -0.006909198593348265, -0.46510598063468933, 0.2623039484024048, -0.07669112086296082, -1.23306405544281, 0.20335803925991058, 0.019195305183529854, 0.6944811940193176, -1.0629544258117676, 0.22606448829174042, -0.02629987522959709, -0.025560660287737846, 0.6602290272712708, 0.16847677528858185, -3.2035398483276367, -1.0918532609939575, -0.6270332932472229, -0.35456278920173645, 0.6762378215789795, 0.44779038429260254, -0.2187943458557129, -0.4552685022354126, 1.080268383026123, -0.3432568907737732, -0.8007712364196777, 0.4868764877319336, 0.3350440263748169, 0.9767473936080933, 1.1106479167938232, -0.7540839314460754, -0.04689498618245125, -0.12816208600997925, -0.8366533517837524, 0.007669738959521055, -0.28936412930488586, -0.8607317209243774, 0.6463227272033691, 0.5038443803787231, 0.18344883620738983, -0.13467222452163696, 0.5436795949935913, 0.3782884180545807, -0.3699902892112732, -1.0062496662139893, -0.8655653595924377, 1.1568375825881958, -1.000720739364624, 0.2724042534828186, 0.7657566070556641, -0.4358727037906647, -0.0345037505030632, -0.33781975507736206, -0.061009444296360016, -0.09751921892166138, 0.3515334725379944, 0.18251343071460724, -0.07576733827590942, 0.14787907898426056, -0.1470373570919037, -0.4499521553516388, -1.6152757406234741, -0.4345138370990753, 0.8529583215713501, -0.29912084341049194, -0.05639272555708885, 2.236205577850342, -0.7458056211471558, 0.21005675196647644, 0.3468616306781769, 0.12850618362426758, 0.484259694814682, -0.07051467150449753, 0.9897544384002686, -0.47394439578056335, -0.7372322082519531, -0.621234655380249, -0.6879029273986816, 0.7154707312583923, 0.8771488666534424, 3.2394185066223145, -0.015461958944797516, -0.865206241607666, 0.5257376432418823, -0.8410098552703857, 0.39018604159355164, -0.618260383605957, 0.019843513146042824, 0.6603925824165344, 0.11968820542097092, 0.0214220080524683, 0.40068140625953674, 0.47566699981689453, 0.49927574396133423, 0.0573393777012825, -0.15025973320007324, -0.053776681423187256, 0.6139369010925293, -1.0407142639160156, 0.15197673439979553, -2.782865524291992, -1.036817193031311, 0.9426116943359375, -1.3743937015533447, -1.1407605409622192, 1.6845570802688599, 0.31216567754745483, 0.5851746797561646, -0.462094783782959, 0.8566258549690247, -2.0312023162841797, -3.794018268585205, 2.2540805339813232, -0.32639414072036743, -1.7209911346435547, -1.517181396484375, -0.16192907094955444, -0.43750301003456116, -0.25652748346328735, -0.04787857457995415, -0.17757143080234528, -0.32068929076194763, 0.2660008668899536, -0.10636503994464874, -0.048313792794942856, 0.42886224389076233, 0.06081067770719528, -1.115899682044983, -0.6797705292701721, 0.4345826208591461, 0.31719470024108887, -0.29284152388572693, -0.024734413251280785, -0.2437664270401001, -1.7490227222442627, -0.7890762686729431, 0.7533875703811646, -1.1643023490905762, -0.4343752861022949, 0.4412716329097748, -0.27478092908859253, 0.7059522271156311, -0.6866459846496582, 2.1067137718200684, -2.021009922027588, -2.2475779056549072, -1.0485968589782715, -0.2149520069360733, -1.797800898551941, -3.4409029483795166, -1.0181246995925903, -0.341795414686203, -0.15428699553012848, -0.2717163860797882, -0.34784236550331116, 0.24583813548088074, 0.48595622181892395, -0.3607828617095947, 0.01780891604721546, 0.3571164608001709, 0.07089874893426895, -1.7436738014221191, -0.24690701067447662, -0.39677372574806213, -0.013971129432320595, -0.45923176407814026, 0.1289873719215393, -0.2457243949174881, 0.26570361852645874, -0.0466175302863121, 0.22383083403110504, -0.20677465200424194, 0.07228552550077438, 0.1696920096874237, 0.26821598410606384, -0.30798307061195374, -0.16338808834552765, 0.027609657496213913, 0.11075711250305176, 0.13545653223991394, -0.35940271615982056, -0.4258361756801605, -0.5171549320220947, 0.09750813245773315, 0.31824618577957153, 0.5045159459114075, 0.6275054216384888, 0.2106163054704666, -0.24053016304969788, 0.5640103220939636, -0.08919933438301086, 0.6487302184104919, 0.08515439182519913, -0.2220970094203949, -0.21823206543922424, -0.25408250093460083, -0.2149268090724945, 0.32826292514801025, 0.3722354471683502, -1.6476309299468994, -0.09036318957805634, 0.4350115656852722, -0.062185801565647125, -0.22082778811454773, 0.919455885887146, 0.02105332911014557, 0.6021004915237427, 0.6078506708145142, 0.806546151638031, 0.49559783935546875, 1.1790599822998047, 0.15803003311157227, -0.10836096853017807, -0.10140001028776169, 0.6953121423721313, -0.42874330282211304, -0.8262129426002502, -0.013267423026263714, 0.5906112790107727, -1.3367141485214233, 1.003528356552124, 0.45286428928375244, 1.0427281856536865, -0.05124735087156296, -0.7838799357414246, -0.6752508878707886, -1.0096429586410522, -0.513310968875885, 0.022394808009266853, -0.30734559893608093, 0.9263051152229309, -0.4619794189929962, -0.3661165237426758, 0.752799928188324, 0.5964374542236328, 0.40083593130111694, 0.29837676882743835, -0.7297117114067078, 0.16390562057495117, -0.12580934166908264, -0.06521683186292648, -0.22813363373279572, -0.2989250123500824, -0.11750964820384979, 0.09728730469942093, 0.39848992228507996, 0.2371625453233719, 0.40957456827163696, 0.09119249880313873, -0.20820967853069305, 0.929527997970581, -0.22928529977798462, 0.07671676576137543, 0.08486473560333252, -0.24519743025302887, 0.464581161737442, -0.5921655893325806, 0.44574788212776184, 0.43975070118904114, 0.5128680467605591, 0.1855873465538025, 0.4626040458679199, 0.7678274512290955, -0.34667932987213135, -0.6710116267204285, 0.14385299384593964, 0.2565489709377289, 0.23326361179351807, -0.4831509590148926, 0.048631247133016586, -0.6045595407485962, -0.35670241713523865, -0.17724992334842682, -0.7454608678817749, 1.4692069292068481, 0.9896391034126282, -0.3446374237537384, 1.192663311958313, 0.983710765838623, -0.2022216022014618, -0.7123183012008667, -1.4267388582229614, 0.8582916855812073, 0.6709529161453247, 0.3025072515010834, -0.8719998598098755, -0.34138527512550354, -2.3003311157226562, -0.5322820544242859, 0.17552484571933746, -0.3729799687862396, 0.6177693009376526, -0.20992740988731384, -0.9144709706306458, -0.2904992699623108, 0.21337582170963287, 0.18019132316112518, -0.20214614272117615, 0.36435666680336, -0.5947766304016113, -0.12046311050653458, 0.3922857344150543, -0.7724848985671997, -0.2734171748161316, 0.023984385654330254, 0.12223757803440094, 0.32681411504745483, -0.06670500338077545, -1.6912355422973633, 0.23424826562404633, -0.25958800315856934, 0.011359703727066517, -1.0205427408218384, -0.040664415806531906, 0.06530975550413132, -0.2666968107223511, -0.41173404455184937, -0.7551572322845459, -0.7241592407226562, -0.5417535305023193, 0.44803646206855774, 0.6507446765899658, -0.14291912317276, -0.5038678050041199, 0.09449898451566696, 0.5026273727416992, 0.5418733954429626, 0.5172584056854248, 0.685240626335144, 0.47220051288604736, -0.3522146940231323, -0.010143669322133064, -0.2222520411014557, -0.5588194131851196, -0.09010699391365051, 0.21122398972511292, -0.309023380279541, -0.6213817000389099, -1.0601882934570312, -0.8581415414810181, 0.7623887062072754, -0.32268375158309937, -0.40407440066337585, 0.09809516370296478, 0.05833250284194946, -0.048834413290023804, 0.7548672556877136, 0.2125454694032669, 0.17291153967380524, 1.6962428092956543, -1.2464808225631714, -0.542583167552948, 2.5496582984924316, -0.8038309812545776, 0.48572900891304016, 0.13413482904434204, -0.2240782082080841, 0.2973800003528595, -0.335083931684494, 0.28029948472976685, -0.047644201666116714, 0.6303945779800415, 0.5256865620613098, -0.6639432907104492, 0.5800981521606445, 0.31045207381248474, 0.4168247878551483, -0.8239734768867493, 0.024535691365599632, 0.9570388197898865, -0.7934459447860718, -0.07921166718006134, -0.06346268206834793, 0.5305784344673157, -0.13116371631622314, 1.0497785806655884, -0.15281739830970764, -0.1031624972820282, -0.2345322221517563, -0.521263599395752, -0.1943845897912979, -0.03477266803383827, -0.2934368848800659, -0.003527236171066761, -1.4024587869644165, -0.13608905673027039, 0.030916579067707062, 1.1045936346054077, 0.811694860458374, 0.8795294165611267, -0.38496941328048706, -0.26913028955459595, 0.23571565747261047, -0.11107571423053741, -0.015605548396706581, -0.20399963855743408, 0.018911516293883324, 0.13160692155361176, 0.144415020942688, -1.288705825805664, -0.1605357527732849, -0.34907352924346924, -0.04457477852702141, -0.1336873173713684, -0.007835940457880497, -0.5216212272644043, 0.2962411642074585, 0.5039039850234985, -0.2360582798719406, 1.1781039237976074, 0.9765028357505798, 0.020647818222641945, -1.0598257780075073, -1.2073107957839966, -0.4772663712501526, -0.3551301658153534, -2.026804208755493, 2.1395814418792725, 0.2957276701927185, -0.03691912814974785, -1.7144207954406738, 0.9648077487945557, -0.44562721252441406, -0.611819326877594, -0.025608310475945473, -0.39007675647735596, 0.16507647931575775, 0.6693673729896545, -0.008243946358561516, 0.1303592026233673, -0.08831558376550674, -0.007839898578822613, -0.24994131922721863, -1.7465392351150513, 0.2013043761253357, 0.01598738506436348, 0.37914779782295227, 0.27225783467292786, 0.8186196088790894, -0.7261500358581543, 0.6145806312561035, -0.4254467487335205, 0.4337250888347626, -0.8242762684822083, 0.44179990887641907, 0.38344982266426086, 0.664584755897522, -0.07223410904407501, 0.5293589234352112, 0.2518945634365082, 0.4748225510120392, -0.33975130319595337, 1.1354594230651855, -0.2011827975511551, -1.0464190244674683, -0.058005087077617645, 0.580771267414093, -0.8032784461975098, 0.33893853425979614, 0.07544441521167755, 0.1817418783903122, -0.5579062700271606, -0.24658891558647156, -0.2541451156139374, 0.36824509501457214, -0.6835192441940308, 0.5489999055862427, 0.5045948028564453, -0.06515420973300934, -0.04684234410524368, 0.21707846224308014, 0.28008756041526794, 0.3886902332305908, -0.025680797174572945, -0.39549756050109863, 0.19350533187389374, -0.030667399987578392, -0.19091258943080902, 0.4446330964565277, -0.3004043996334076, -0.42571452260017395, 0.4006305932998657, 0.3657592833042145, 0.30400481820106506, -1.3490444421768188, -0.2528427243232727, 0.5289279222488403, 0.11808022111654282, -0.1150927022099495, 0.1557602882385254, -0.5254167914390564, -0.6832166314125061, -0.7406245470046997, -0.12991639971733093, 0.04909475892782211, -0.6862548589706421, -0.0038719559088349342, 0.09396084398031235, 0.0612819530069828, -0.044938813894987106, -0.27086445689201355, 0.9525604248046875, 0.525234043598175, -0.5187637209892273, -0.4275374412536621, 0.3469579219818115, 0.09768369793891907, -0.11407745629549026, -0.4388177990913391, -0.2547149956226349, -0.06746823340654373, 0.26001355051994324, -0.1437559872865677, -0.2126949280500412, -0.16988298296928406, 0.34486323595046997, 0.26343220472335815, 0.4200194180011749, 1.0809385776519775, -0.005217230413109064, -0.17216333746910095, -0.1625595986843109, 0.5847181081771851, -0.31848230957984924, -0.051062989979982376, -0.31494495272636414, -0.46072593331336975, 0.0627337396144867, -0.2497982680797577, 0.26895397901535034, 0.13416577875614166, 0.289431631565094, -0.08173184096813202, 0.4522799551486969, 0.41211581230163574, -0.210021510720253, -0.24596184492111206, -0.05822106823325157, 0.2576873004436493, -0.06651349365711212, -0.6510061621665955, -0.3238816559314728, -0.6850706338882446, -0.000605949608143419, 0.33755213022232056, -0.2350059151649475, 0.21026791632175446, 0.32810500264167786, -0.1495385617017746, -0.08937587589025497, 0.1433408558368683, -0.12192850559949875, -0.03776302561163902, -0.8834924697875977, 0.4382033348083496, 0.2355625331401825, -0.6335943341255188, -0.06538235396146774, 0.05474463105201721, -0.03185056895017624, -0.2442368119955063, -0.5362632274627686, 0.009637979790568352, -0.08096521347761154, -0.34606704115867615, 0.2253091186285019, -0.5593509674072266, 0.22097612917423248, -0.12439977377653122, -1.9678764343261719, -0.06674421578645706, -0.9324021339416504, 0.47746095061302185, 1.7182501554489136, -0.30800288915634155, -0.5831891894340515, -0.2795625627040863, -0.09181080013513565, 0.5716556906700134, -0.6625648736953735, 0.20668049156665802, 0.9577779173851013, 1.0589600801467896, 0.054692015051841736, 0.08959466218948364, 0.8149865865707397, 0.30602046847343445, -0.3771093785762787, 0.37860947847366333, -0.3536452353000641, 0.28691020607948303, -0.6528683304786682, 0.5587955117225647, 0.25675156712532043, -0.6186860799789429, -0.07527332007884979, -0.13356897234916687, 0.2073056548833847, 0.08899589627981186, 0.054006628692150116, 0.21533510088920593, 0.49456027150154114, -0.40044060349464417, -0.27841252088546753, 0.32352215051651, 0.6645329594612122, -0.24496948719024658, 0.9175650477409363, 0.03604792430996895, 0.16764657199382782, 0.8106833100318909, 0.0038818062748759985, 0.10773982107639313, -0.047013379633426666, 0.23468904197216034, -0.19034215807914734, -0.46199044585227966, -0.09266763925552368, 0.1571083515882492, 0.6416624188423157, 0.5184416770935059, 0.6606107950210571, -0.05101492255926132, -0.3301143944263458, 1.8640493154525757, 0.09486143290996552, 0.31083032488822937, -0.0006054283585399389, 0.30347028374671936, -0.30168816447257996, 0.4842640459537506, -0.4156872034072876, -0.8743526339530945, 0.001053522457368672, 0.2101888358592987, -0.331723153591156, -0.47353383898735046, 0.3284011483192444, 0.4647556245326996, 0.21869483590126038, 0.04563869535923004, -0.1709585338830948, 0.5408281087875366, -0.08222388476133347, -1.2381298542022705, 0.17388394474983215, 0.05977876856923103, 0.08318638056516647, 0.3979809582233429, 0.19421112537384033, -0.2023194581270218, -0.022978588938713074, -0.6946120858192444, 0.006002658512443304, 1.229379653930664, -1.448732852935791, 0.9329668283462524, 0.760308027267456, -1.9785784482955933, 0.09389811754226685, 0.315694123506546, -0.01784209907054901, -0.13536302745342255, -0.31269899010658264, 0.692367672920227, -0.40249302983283997, -0.15520179271697998, -0.4296306073665619, 0.32894474267959595, -0.3596150875091553, -0.03743670880794525, 0.18019899725914001, 0.6215844750404358, 0.012529981322586536, -0.07099387794733047, 0.38912880420684814, 0.10896217077970505, -0.20927947759628296, -0.4533209800720215, -2.516922950744629, 0.18414390087127686, 0.7887603640556335, -2.9203414916992188, 0.11358073353767395, 0.5522065758705139, -0.33829453587532043, 0.12295270711183548, 0.3820125162601471, -1.086085557937622, -0.519496500492096, 0.20825374126434326, -0.699958324432373, 0.12282107025384903, 0.28133028745651245, -0.3767646551132202, -0.3138076066970825, 0.5444003343582153, 0.23476797342300415, 0.40847158432006836, -1.1250767707824707, -0.3526707887649536, 0.07255128026008606, 0.38003432750701904, -0.6293864250183105, 0.24509695172309875, 1.6824381351470947, 0.18970659375190735, -1.284271478652954, -0.13794735074043274, -0.3288949131965637, -0.36221131682395935, 0.28749164938926697, -0.3070486783981323, 0.11701855063438416, 0.4242471158504486, -0.4291515648365021, -0.08676398545503616, 0.33913472294807434, -0.422503799200058, 0.004717565607279539, 0.12154427915811539, 0.3967929780483246, 0.10630839318037033, -0.10952626168727875, -0.1977434605360031, -0.3926035463809967, 0.21922971308231354, 0.009846360422670841, 0.3461408317089081, -2.7053778171539307, -1.190564513206482, -0.11063037067651749, 0.017811816185712814, -2.435145139694214, 0.024653617292642593, 0.7098836898803711, 0.42952150106430054, 0.03096058778464794, -0.06678041815757751, -0.9430890679359436, 0.36104342341423035, -0.11457698047161102, 0.09450740367174149, -0.5555627346038818, -0.15444257855415344, -0.4672451317310333, 0.5026847124099731, -0.2079974114894867, 0.31923091411590576, 0.45930519700050354, 0.9817993640899658, -2.4672229290008545, 0.058138567954301834, 0.6087337136268616, -1.7597992420196533, 0.13004305958747864, -0.8534761667251587, 0.8576120138168335, -1.7484086751937866, -0.18950098752975464, -0.020518817007541656, -0.7481975555419922, -0.8196483254432678, 2.2756314277648926, 1.5338728427886963, 0.34635934233665466, -0.39038926362991333, 2.3130462169647217, -0.8106920123100281, -0.775137186050415, 1.1438539028167725, -0.6875633597373962, -0.5610420107841492, -1.2449578046798706, 0.49831604957580566, 0.018036263063549995, 0.7593830227851868, 0.6135480999946594, -0.1732514351606369, -0.34126055240631104, 3.158505439758301, -0.00922243669629097, 0.10119210928678513, -0.2999863922595978, 1.4278212785720825, 0.8167422413825989, 0.25187864899635315, 0.4336368143558502, 0.5061838626861572, 0.9248441457748413, 1.5239286422729492, -0.10742964595556259, 0.16892796754837036, -0.13104203343391418, 0.006745859049260616, -0.2589905261993408, 1.1919440031051636, 0.19814372062683105, 0.3521653413772583, -0.4560179114341736, -0.2585756480693817, -0.5949417352676392, 1.1060432195663452, -0.45483970642089844, -0.13043378293514252, 0.8851266503334045, -0.29998695850372314, 0.6035560369491577, -0.338365375995636, 0.9351630806922913, 0.7029162049293518, 0.5546512603759766, 1.7496304512023926, 0.8888721466064453, 0.26760557293891907, -0.5850768685340881, 0.6944006085395813, 0.1488923877477646, 0.17499515414237976, 0.6781788468360901, 1.1193474531173706, 0.7972050309181213, 0.46191757917404175, 0.8947229981422424, -0.2691316306591034, -0.40006014704704285, -0.1961064338684082, -0.4772369861602783, -0.14214454591274261, -1.077415943145752, -0.015200993046164513, -0.06819498538970947, 1.5106602907180786, -0.0718601644039154, -0.05608192831277847, 1.693564772605896, -0.6604170799255371, -0.8320456147193909, 1.3691766262054443, -0.7086248397827148, -0.29536014795303345, -0.6574450731277466, 1.2251054048538208, -1.957575798034668, 1.184716820716858, 0.17844368517398834, -0.09682560712099075, 0.37822389602661133, 0.8366237878799438, -0.9581413269042969, -0.6485810875892639, -0.5565148591995239, -1.567938208580017, 2.261594772338867, 0.4589138925075531, -1.5633482933044434, 1.6096752882003784, -0.4456193149089813, 0.43363091349601746, -0.48328959941864014, 1.3339282274246216, -0.019816242158412933, 0.935255229473114, 1.7788536548614502, 0.1902131736278534, 0.2751774787902832, -0.7057653665542603, 0.537734866142273, 0.6110764741897583, 0.6683136820793152, 0.10535459220409393, 1.3178225755691528, 1.3828535079956055, 0.33679714798927307, 1.3444691896438599, 0.1386357694864273, -1.0135831832885742, 1.2135610580444336, -0.8433626294136047, -0.03872787952423096, -1.433955430984497, -0.6282625794410706, 2.5873937606811523, 0.10824958235025406, 0.5094051957130432, -1.0547176599502563, 0.36293160915374756, -1.146419882774353, -0.46619826555252075, -0.760664165019989, 0.12042198330163956, 0.40440723299980164, 0.2809875011444092, -0.40208789706230164, 0.16985556483268738, -1.2774138450622559, 0.8596258163452148, -0.09108488261699677, 0.16485801339149475, -0.5176597237586975, 1.5061253309249878, -0.4615687429904938, 0.21223770081996918, 0.39008575677871704, 0.8964657187461853, -0.43366897106170654, 0.1698785126209259, -0.4728669226169586, -0.04495374113321304, 0.33647266030311584, -0.9282230734825134, 0.4094870686531067, 0.7590768337249756, -3.225501537322998, 0.7126359343528748, 0.6587256789207458, 0.4215548038482666, 0.055544979870319366, -0.5057477355003357, -0.18813075125217438, -0.13369403779506683, 1.243740439414978, 0.01611297018826008, 0.42144539952278137, 0.13899630308151245, -0.006558433175086975, -2.4236738681793213, -1.5537266731262207, -0.3140948414802551, 0.5486692786216736, 1.4590293169021606, -1.1421284675598145, -1.0449634790420532, 0.9125984907150269, 0.2183346003293991, 0.3874940574169159, -0.22984308004379272, 0.13040561974048615, -0.48631757497787476, -0.22091498970985413, 0.7827465534210205, -0.8134075403213501, 0.5521605014801025, -1.273236870765686, 0.40134698152542114, -0.31557121872901917, -0.1913883090019226, 1.0071377754211426, -0.3538486957550049, 0.06333928555250168, 0.20849919319152832, -1.16081702709198, 1.3668427467346191, -1.7283233404159546, 0.49973270297050476, 1.0298717021942139, 0.8657426238059998, 1.2357615232467651, 0.929039716720581, 2.0519943237304688, -0.764573335647583, -1.0617293119430542, -0.26160576939582825, -0.30174344778060913, 0.07751428335905075, -4.278489112854004, 0.19638097286224365, 0.08805806189775467, 0.8478558659553528, 0.7250784039497375, 0.39159801602363586, 0.5441452264785767, -1.4579510688781738, -0.2949789762496948, 1.3015276193618774, -1.2954819202423096, 0.07039386034011841, -1.1653711795806885, 0.2938552796840668, -0.40639743208885193, -0.25175851583480835, -0.2298138588666916, -1.6715145111083984, 0.17504312098026276, -0.9852495193481445, 0.2957437336444855, -0.09149981290102005, -0.2906808853149414, -0.4610590934753418, -1.202615737915039, -1.5308105945587158, -0.19344262778759003, -0.8481433987617493, -0.6274411082267761, 0.48310795426368713, 0.3838958740234375, -0.6878030300140381, -0.01113041676580906, -0.03763768821954727, -0.08085386455059052, -0.23858410120010376, -4.052666664123535, -5.419669151306152, -3.340925693511963, -4.174272060394287, -3.4418210983276367, -4.647164344787598, -3.307584762573242, -2.2166049480438232, -4.119994163513184, -5.028444766998291, -2.9114348888397217, -0.6923954486846924, -3.9491891860961914, -0.5002360343933105, -3.3893370628356934, -3.8889379501342773, 3.875833511352539, 4.052119255065918, 2.941344738006592, 4.603815078735352, 4.882518291473389, 4.852052688598633, 3.9608144760131836, 3.949268341064453, 3.977647304534912, 5.037757873535156, 4.487565040588379, 2.185215473175049, 4.166187286376953, 2.0988211631774902, 3.5249228477478027, 4.033005714416504, -0.7432068586349487, 0.13463380932807922, -0.8519880771636963, 0.7828671932220459, 0.4705842137336731, 0.013415291905403137, -0.030551377683877945, 1.155907154083252, 0.5723925828933716, 0.005291074514389038, -0.6657510995864868, -0.2913699746131897, -0.2871006727218628, 0.3975200951099396, -0.2748500108718872, 0.33762943744659424, 0.9164924025535583, -0.29365769028663635, -0.4134483337402344, 0.6103003025054932, -1.0854606628417969, 1.3828438520431519, -1.5559470653533936, 1.0911431312561035, 1.4037458896636963, 0.6099805235862732, -1.3021076917648315, -0.5477231740951538, -0.2590363621711731, 3.169711112976074, -0.26377707719802856, -0.8378516435623169, -0.35707026720046997, 0.4847942888736725, -0.024858687072992325, 0.8631450533866882, 0.04117744415998459, 0.8672158718109131, -0.06651894003152847, 0.453453004360199, 0.9259830713272095, 0.0019477881724014878, -0.13770022988319397, -0.04903797805309296, -0.3512464165687561, -0.27797821164131165, -0.3510986268520355, 0.024373479187488556, -1.0312258005142212, 1.2563472986221313, -0.08360517024993896, 1.433483362197876, 120.96049499511719, 1.3541803359985352, -1.9520033597946167, 3.098644971847534, 1.6493511199951172, 0.002391512505710125, -56.482723236083984, -0.1626344472169876, -1.1465449333190918, -0.28551214933395386, -0.8443914651870728, 10.978757858276367, 0.34756264090538025, -1.0233991146087646, 0.3987221121788025, 1.6070929765701294, -0.4243023097515106, -0.06921444088220596, 0.4616783559322357, 0.13539570569992065, 0.202493816614151, -2.470529556274414, 0.05458962917327881, 0.05335228145122528, 0.26100459694862366, 0.05413813143968582, 0.3592208921909332, -0.5942432880401611, -0.6352035999298096]}