{"version": "0.5.1", "metadata": {"date": {"year": 2023, "month": 5, "day": 29, "hour": 16, "minute": 15, "second": 38}, "loudness": -11.83329963684082, "gain": 0.6309808775852367}, "architecture": "LSTM", "config": {"input_size": 1, "hidden_size": 8, "num_layers": 2}, "weights": [1.8648439645767212, -0.6668469309806824, 0.2644658088684082, -0.3754681348800659, -0.6394230723381042, 2.021033525466919, -0.1595885306596756, -0.47707733511924744, 0.2950441837310791, -0.4682726263999939, 1.130904197692871, 0.3165973424911499, 0.922857940196991, -0.3089096248149872, 0.25102564692497253, -0.1949017196893692, -0.2974202632904053, 1.037063479423523, -0.33907490968704224, 0.3404989242553711, -0.8310563564300537, -0.06745976954698563, 1.0016100406646729, -2.496894598007202, -0.5270388126373291, 0.6893699765205383, -1.2391586303710938, -0.35156455636024475, -0.20651322603225708, -0.36748120188713074, -0.5582135319709778, -0.8531280159950256, 1.8267875909805298, 0.2753162086009979, -1.095866084098816, 0.3970065712928772, -1.3625047206878662, -0.18541520833969116, -1.6942859888076782, 2.2006001472473145, 0.7252543568611145, -1.4984451532363892, 3.4595468044281006, 1.702416181564331, 1.7230844497680664, 0.09389885514974594, 1.028800368309021, -0.25958284735679626, 0.17670930922031403, 0.7363085150718689, -1.545017957687378, -1.2144514322280884, -0.4041344225406647, -0.5958771109580994, -0.7102939486503601, 1.0303635597229004, -0.15047112107276917, 0.04767276719212532, 0.9273569583892822, -1.1349189281463623, -0.8652652502059937, 0.2640848755836487, -0.6902044415473938, 0.43939805030822754, 0.4205797612667084, -0.42440065741539, 0.7092759013175964, 1.3187533617019653, -0.4763464331626892, 0.1160372793674469, -0.6031532883644104, -0.11067087948322296, 1.7829817533493042, -0.6178053617477417, 0.44788047671318054, -0.3765927255153656, -0.9549731612205505, 2.015951156616211, 0.3933156132698059, 0.8567903637886047, 0.4857635498046875, -0.8066356778144836, -0.021968383342027664, -0.36829039454460144, -0.4181884229183197, -0.5796788334846497, 1.8996447324752808, -0.792843222618103, 0.44403356313705444, -0.0736226812005043, -0.5488572716712952, 0.4932778775691986, -0.9518990516662598, 0.200552299618721, 0.5674852132797241, -2.3889453411102295, 0.17950591444969177, 1.9712530374526978, 0.1578921377658844, 1.5872585773468018, 0.4039193391799927, -0.4496268332004547, -0.2933633327484131, -0.23565641045570374, 0.5942560434341431, 0.47517895698547363, 0.18996396660804749, 0.33830735087394714, 1.5671701431274414, -2.3622283935546875, -0.0012124796630814672, -1.5980676412582397, -2.0982344150543213, -1.280077576637268, 0.456068217754364, 1.2504503726959229, 0.8160809278488159, -1.5473157167434692, 0.06300471723079681, -0.6305593252182007, 0.529211163520813, 0.21013407409191132, -1.3719208240509033, 0.28986015915870667, 2.010038137435913, 0.31768661737442017, -0.19986818730831146, 0.0005515797529369593, 0.36685118079185486, -0.1298786997795105, -0.5217580795288086, -2.3785879611968994, 0.5820344090461731, -0.09890207648277283, 0.34773167967796326, -0.06968549638986588, -0.4246828556060791, 0.5644348859786987, 0.18237268924713135, 0.336167573928833, -2.1546268463134766, -0.5214061141014099, 0.5491580367088318, -0.4172191023826599, 1.0512969493865967, -0.2518041133880615, 0.028592564165592194, -0.4801647663116455, -0.42811915278434753, 0.955746054649353, -0.09239548444747925, 0.4431132376194, 0.4683121144771576, 0.1705458164215088, -0.6462693810462952, 0.3800564110279083, 0.5755850672721863, -0.35051846504211426, 1.731235384941101, 0.22897250950336456, -0.6918977499008179, 0.7259852886199951, -0.7530871033668518, 0.3094862103462219, -0.5027346014976501, 0.35912173986434937, 0.07219474017620087, 0.0588245615363121, -0.17736218869686127, 0.6268575191497803, -0.09569849818944931, 0.708895206451416, 0.6207911372184753, 0.41654372215270996, 0.2697015702724457, 0.31323057413101196, 0.9784327745437622, 0.3784242570400238, 0.41055411100387573, 0.21371522545814514, 2.538975477218628, -1.4131073951721191, -0.1564459502696991, 1.6552748680114746, -1.6882630586624146, 0.31663140654563904, 1.2821286916732788, -1.673366904258728, -0.1358180195093155, -0.8955349326133728, -0.04216266795992851, -0.3240540623664856, 0.7799767255783081, 0.18231329321861267, -1.2278560400009155, 0.4076506495475769, -0.2756814956665039, 0.2743190824985504, 0.4718535244464874, 0.6725401282310486, 0.15448930859565735, -0.3783546984195709, -0.20007812976837158, 0.9611263275146484, 0.20170824229717255, -0.5194767713546753, 0.2076149582862854, 0.23408354818820953, -0.49244895577430725, -0.7926983833312988, 0.9367784261703491, 0.08724024891853333, -0.28257685899734497, 0.7112628817558289, -0.5478704571723938, 0.25083309412002563, -0.005601968616247177, 2.0321109294891357, 1.8984184265136719, -0.45928043127059937, 1.3431888818740845, 0.2520248293876648, -0.12917689979076385, 0.6387333869934082, 1.3105547428131104, 1.8882911205291748, 0.9392710328102112, 2.3873989582061768, 1.1352965831756592, 1.6303826570510864, -2.876652240753174, 1.4445621967315674, -1.7062193155288696, 1.4193100929260254, 2.1586155891418457, 0.545200526714325, -0.4464227259159088, 0.6645137667655945, 0.19377002120018005, -0.09962493181228638, -0.8419400453567505, -0.3365504741668701, 0.18399205803871155, -3.232921600341797, 2.2872471809387207, 0.40691491961479187, -1.0251842737197876, 1.0560842752456665, 0.49132946133613586, 0.06464450806379318, -0.6870937347412109, -0.34022316336631775, -2.558274507522583, 0.08860107511281967, 1.9926987886428833, 0.0333099327981472, 0.2535146474838257, 3.60964298248291, 0.08052612096071243, 0.5101994872093201, 3.2700304985046387, 4.317213535308838, -0.37981748580932617, 0.6036303043365479, 0.14649692177772522, -0.480960875749588, -1.7782959938049316, -0.27247506380081177, -0.3585968613624573, 0.16898266971111298, -1.625291109085083, 0.6021807789802551, -0.8715996742248535, -1.1656246185302734, 0.15889038145542145, -1.4016027450561523, 0.357891708612442, -1.6053792238235474, 0.4227260649204254, 1.2305521965026855, -0.6439307928085327, 3.296323299407959, -0.18836021423339844, -0.01157744973897934, 4.697570323944092, 0.8499528765678406, -1.1436734199523926, 1.0081297159194946, -4.423055648803711, -2.3332765102386475, -5.334491729736328, -4.270193099975586, -0.012120120227336884, -4.154788017272949, -4.194795608520508, -3.2572519779205322, 4.636308670043945, 2.24702787399292, 4.131824970245361, 4.5251312255859375, 0.5926218032836914, 4.102479934692383, 4.203471660614014, 4.190258026123047, 0.6309705972671509, -0.1638263761997223, 0.072424978017807, 0.10758940130472183, 1.1285423040390015, 0.2760865390300751, 0.16830229759216309, 0.8101726770401001, 0.4371658265590668, 1.3949415683746338, 0.6892248392105103, 0.16597791016101837, 0.6938350200653076, 0.10576660186052322, 0.2812722623348236, 0.4228611886501312, 0.33350327610969543, -0.0561603307723999, 0.15003111958503723, 0.5272149443626404, 0.01705455593764782, 0.35458680987358093, 0.2266756296157837, 0.6877692341804504, 0.3734608590602875, -0.057674307376146317, 0.21765866875648499, 0.9309065341949463, 0.017748190090060234, 1.3424781560897827, 0.386547327041626, 3.0469870567321777, 0.053429074585437775, 0.03278467804193497, 0.1894494742155075, 0.5184465646743774, 0.953521728515625, 0.3229198455810547, -0.03618964925408363, 0.45118358731269836, -0.06846053898334503, -0.20109573006629944, -0.057737600058317184, -0.31235837936401367, 0.803296685218811, 0.018858717754483223, 0.1931949257850647, 0.1751149445772171, -0.5113680362701416, 0.10717026144266129, -0.47528573870658875, -0.1736091822385788, 0.7969585061073303, 0.05204636976122856, 0.35128048062324524, -0.6574519276618958, -0.20445817708969116, 0.420430988073349, -0.12121571600437164, -0.6084310412406921, -1.11895751953125, -0.07008464634418488, -0.23549316823482513, 0.2985723912715912, 0.13709159195423126, -0.07713168859481812, 0.351309210062027, 0.36113879084587097, 0.7306649684906006, -0.16497831046581268, -1.1260348558425903, 0.33014246821403503, -0.3024277091026306, 0.19849789142608643, -0.2484973669052124, 1.0083262920379639, 0.6576657891273499, 0.05516086891293526, 0.20653779804706573, -1.0252189636230469, 0.47309234738349915, -0.35570037364959717, 0.02286558970808983, 0.1113787293434143, 0.6847624182701111, -0.21054866909980774, 0.04622412845492363, -0.05413564294576645, -0.16807201504707336, -0.4470297396183014, 0.774494469165802, -0.33795323967933655, 0.09969249367713928, 0.28709790110588074, -0.8063397407531738, -0.0017324956133961678, 0.10431205481290817, -0.18168745934963226, 0.29668936133384705, 0.22316469252109528, -0.046874210238456726, 0.5483455061912537, -0.5397562980651855, 0.14923037588596344, -0.07543288916349411, 0.1433258354663849, 0.30762308835983276, 0.03807986527681351, -0.09851518273353577, 0.08935370296239853, -0.011364771053195, 0.3461921513080597, -0.10408107936382294, -1.658042550086975, -0.5800697803497314, 0.29757896065711975, 0.5144466757774353, 0.2155575454235077, -0.20143942534923553, 0.5321375727653503, 0.5188344120979309, -0.485002338886261, -0.006649874150753021, -0.24534489214420319, 1.3750696182250977, 0.11334188282489777, 0.09937708079814911, -0.8900991678237915, 0.2861447334289551, -1.2070108652114868, -0.013809475116431713, 0.44310638308525085, 0.4666241407394409, -0.17128205299377441, 0.7762314677238464, 0.44050079584121704, -0.07643231749534607, 0.25986844301223755, -0.11693868786096573, 0.15957501530647278, 0.3210853040218353, -0.09051859378814697, 0.216880664229393, -0.28490734100341797, 0.6873801946640015, 0.08943341672420502, 0.16758444905281067, 0.3113383650779724, -0.1894620805978775, 0.17917589843273163, 1.3295637369155884, 0.21361742913722992, 0.4758121967315674, 0.9290781617164612, 0.5637774467468262, -0.9601523280143738, -0.22803473472595215, 0.637772798538208, 0.022202126681804657, -0.07128117233514786, 0.06832255423069, 0.24109885096549988, 0.20298784971237183, 0.825681746006012, 0.7352378964424133, -0.04136034846305847, 0.6252924799919128, 0.485332727432251, 0.026674503460526466, -0.007261235266923904, 0.01627514325082302, 0.2380923628807068, 0.24506422877311707, 0.04591299593448639, 0.3215133547782898, 0.03264667093753815, 0.09461560100317001, 0.09994446486234665, 0.34760144352912903, 0.03855278715491295, 0.4140065014362335, 0.48846080899238586, -0.39286813139915466, 0.465954065322876, 1.047282338142395, -0.1388331949710846, 0.4601118266582489, 0.02506067231297493, 0.17872105538845062, 0.5218371152877808, 0.5065124034881592, -0.2260442078113556, 0.49813616275787354, -0.26103267073631287, -0.19330446422100067, -0.2705744504928589, 1.4495429992675781, -0.7748972177505493, 0.3660780191421509, -0.32232144474983215, -0.09467878937721252, 1.3964040279388428, -0.26992693543434143, 0.001219038269482553, 0.38226205110549927, -0.09159369766712189, -0.12148729711771011, -0.37192922830581665, -0.7021755576133728, 0.2635011076927185, -0.3211950361728668, 0.04772944003343582, 0.11251407116651535, 0.42348650097846985, 0.5597426295280457, -0.09540707617998123, -0.24654747545719147, 0.017609430477023125, 0.5415802597999573, -0.2510429620742798, -0.6430020332336426, 0.25468093156814575, -0.715648889541626, 0.22561544179916382, 0.21217381954193115, -0.9465939402580261, 0.3484037220478058, 0.29437458515167236, 0.2956562936306, 0.4405251443386078, -0.4616852104663849, 0.3623717725276947, -0.29666417837142944, -0.22637444734573364, -0.14194943010807037, 0.3694900870323181, 0.2181738168001175, 0.20552943646907806, 0.11238432675600052, -0.48532402515411377, -0.03177540749311447, 0.08720125257968903, -1.0634894371032715, -0.4459187984466553, -0.7858465909957886, -0.1962439864873886, -0.2586994171142578, -0.4919901192188263, -0.42885351181030273, -0.35712236166000366, -0.7237943410873413, -0.621320903301239, 0.6514418125152588, 0.2236916422843933, -0.04443516209721565, -0.0507766455411911, 0.23462681472301483, -0.31331953406333923, 0.21435372531414032, -0.021412018686532974, 0.10089347511529922, 0.052152711898088455, 0.4797101318836212, 0.5949156284332275, 0.3569996953010559, -0.3568144142627716, 0.11108875274658203, -0.15833868086338043, 0.1716674417257309, -0.028823979198932648, 0.40088632702827454, -0.21420198678970337, 0.021234286949038506, 0.7806640863418579, 0.4178054928779602, -0.41007399559020996, -0.7545096278190613, -0.1616469770669937, -0.5325844287872314, 0.13859733939170837, 0.1779581904411316, 0.8360463380813599, 0.12384699285030365, -0.985977053642273, -0.5265359878540039, 0.4738330543041229, -0.4858672320842743, 0.7536311745643616, -0.10895966738462448, -0.4348907172679901, -0.17143559455871582, 0.4133155643939972, 0.5534799098968506, 0.39952781796455383, 0.29157939553260803, 0.33432528376579285, -0.03800761327147484, -0.335641086101532, -0.016093784943223, -0.21663549542427063, 0.02955702133476734, -0.04804649204015732, 0.3204461634159088, -0.10283633321523666, -0.16470353305339813, -0.7553263902664185, -0.1102384477853775, -0.028976479545235634, -0.37584805488586426, -0.17569120228290558, 0.3171806335449219, -0.12495873123407364, -0.12798912823200226, -0.10913816839456558, 0.001881069503724575, -0.32313042879104614, 0.39806538820266724, -0.024187946692109108, -0.49395909905433655, -0.3744489848613739, -0.086061991751194, -0.03133168816566467, 0.5276206135749817, 0.19843141734600067, 1.655329942703247, 0.10769341886043549, -0.7994576096534729, 0.3652896583080292, 0.26385968923568726, 0.8088082075119019, -0.26134636998176575, 0.3614804744720459, 0.0026642854791134596, -0.022877106443047523, 0.08561666309833527, -0.455078125, 0.11680550873279572, -0.3833141326904297, 0.03735514357686043, 0.14713193476200104, -0.8560016751289368, -0.06053502857685089, 0.20557580888271332, -0.1208224967122078, 0.42280855774879456, 0.700893223285675, 0.3942282795906067, -0.08091989904642105, -0.818788468837738, 0.03674992173910141, -0.040003612637519836, 0.6681044697761536, 0.0018703602254390717, -0.19888471066951752, 0.17389798164367676, 0.1903211772441864, -0.2288874089717865, 0.030447034165263176, 0.14301829040050507, 0.34910064935684204, -0.17166449129581451, -0.157138392329216, 0.23043416440486908, -0.2695419192314148, 0.25305673480033875, 0.19429081678390503, 0.3409810960292816, -0.29869598150253296, 0.22756171226501465, -0.7482315301895142, 0.2061992734670639, -0.09394602477550507, 0.19422540068626404, 0.08706046640872955, -0.23273253440856934, 0.168768048286438, 0.8546248078346252, -0.31819671392440796, 0.30452489852905273, -0.3264661431312561, 0.17713795602321625, 0.21495342254638672, 0.27918484807014465, -0.2703573703765869, 0.15500064194202423, -0.7909595966339111, 0.48447805643081665, 0.5127758979797363, 0.04024636000394821, -0.1494978666305542, 0.08700307458639145, 0.04309271648526192, -0.2468118667602539, -0.24065440893173218, -0.0691058486700058, -0.2756150960922241, 0.30191537737846375, -0.050963059067726135, 0.017425348982214928, 0.07124324887990952, -0.7836359143257141, -1.0958093404769897, -0.12265366315841675, -0.1585550457239151, 0.7360341548919678, 0.14176349341869354, -0.10647843033075333, -0.8339970111846924, 0.12965865433216095, -0.2447720617055893, -0.4799516499042511, 0.5307968258857727, -0.1548018604516983, -0.15722432732582092, -0.2731895446777344, -0.18699178099632263, 0.06258853524923325, -0.8415037989616394, -0.5976868271827698, -0.0829162746667862, 0.3899247646331787, 0.10498609393835068, 0.9713709950447083, -0.9903234839439392, 1.4983406066894531, -0.2185114622116089, 1.4387505054473877, -0.8319363594055176, -1.1281460523605347, 0.18039099872112274, 1.1697182655334473, 0.9996577501296997, -0.07170785963535309, 0.5880172252655029, 0.05810795724391937, 0.028376346454024315, -0.090826116502285, 0.7738207578659058, 0.3737747073173523, -0.08811156451702118, -1.2314265966415405, -1.0370457172393799, -1.1881372928619385, 0.058977000415325165, 0.8118703365325928, -0.42228105664253235, -0.2895980477333069, -0.49769818782806396, -0.15249398350715637, 0.6172648072242737, -0.09662850946187973, 0.0029938139487057924, -0.41837629675865173, 0.38079512119293213, -0.18547974526882172, -0.7603414058685303, 0.4595540165901184, 1.752930998802185, 2.4201533794403076, -0.7176987528800964, -0.4706166982650757, -0.4609907865524292, 0.3883000910282135, 1.2364901304244995, 0.5420698523521423, -0.14601901173591614, -0.3261716067790985, 0.038190800696611404, -0.0291155893355608, -0.11360963433980942, -0.5089297294616699, -0.26733145117759705, -0.2673296332359314, -0.19497530162334442, 1.2172951698303223, -0.5172461867332458, -0.8472481966018677, 0.08697324246168137, 0.20421797037124634, 0.11309251189231873, -0.5381184220314026, -0.9362198114395142, -0.05213046073913574, -0.044631049036979675, 0.22288788855075836, -0.4126744270324707, -0.12188591063022614, -0.2458852082490921, -0.7388745546340942, -0.18608394265174866, -1.0377542972564697, 0.24955807626247406, 1.410009503364563, 0.44049543142318726, -1.2454246282577515, -0.5515555739402771, -0.5101764798164368, -5.38986349105835, 0.04719949886202812, -0.18384245038032532, 4.804245471954346, -0.17618481814861298, -0.5978720784187317, -1.3073124885559082, 1.4111433029174805, 0.09480690956115723, 1.0380247831344604, -0.8112629652023315, -0.17253132164478302, 1.2562475204467773, 0.3821713924407959, 0.6278160214424133, -0.3068072497844696, 0.97926265001297, 0.08912307024002075, 0.27225223183631897, -0.4522526264190674, 0.511178195476532, 0.34766191244125366, 0.3586307466030121, 0.6134337782859802, -0.23834294080734253, 0.5413486957550049, 0.008972925134003162, -1.0473653078079224, -1.0432108640670776, 0.8404743075370789, 0.49255192279815674, -0.6988464593887329, -1.1627403497695923, -0.1356705129146576, 0.5303474068641663, 0.26340991258621216, -0.1295272558927536, -0.11509327590465546, 0.005420875735580921, -0.8896020650863647, -1.2240897417068481, -1.2903869152069092, -0.5904495716094971, 2.2226076126098633, 1.6679325103759766, -0.7417917251586914, -2.1582281589508057, -3.8084969520568848, -5.291167259216309, -3.2410202026367188, -4.38557243347168, -3.5651650428771973, -2.8222856521606445, -3.6189351081848145, -3.558319568634033, 3.9501848220825195, 4.535614967346191, 3.346848964691162, 3.410242795944214, 4.544981002807617, 4.169620990753174, 4.017064094543457, 3.556389331817627, -0.019580818712711334, -0.23802310228347778, 0.2730100750923157, 0.020784109830856323, 0.05912703275680542, 0.27372169494628906, 0.4105243682861328, -0.34628623723983765, 0.30541545152664185, -0.16762986779212952, -1.128360390663147, -0.028728831559419632, -0.29101645946502686, 0.09743201732635498, 0.09877655655145645, 0.08101104199886322, 0.5818601846694946, -0.06806988269090652, 0.06680646538734436, -0.031195519492030144, 0.3234189748764038, 0.5971579551696777, 0.5150923728942871, -0.8471162915229797, 6.5225749015808105, -0.16600246727466583, 2.132788896560669, -0.08108922094106674, 6.630303382873535, 9.791550636291504, 10.29746150970459, -1.4739247560501099, 0.10277115553617477, 1.4780832529067993, -0.06944442540407181, -3.0032923221588135, -0.620707094669342, 0.01722274161875248, 0.13400065898895264, 0.20198601484298706, 0.24550239741802216]}