{"version": "0.5.1", "metadata": {"date": {"year": 2023, "month": 5, "day": 29, "hour": 18, "minute": 41, "second": 8}, "loudness": -11.988401412963867, "gain": 0.6367462526244164}, "architecture": "LSTM", "config": {"input_size": 1, "hidden_size": 16, "num_layers": 2}, "weights": [-0.5905546545982361, 0.28431272506713867, -0.2981577515602112, -0.06799454241991043, 0.5101840496063232, -0.38509315252304077, 0.4852169156074524, -0.08054649829864502, -0.3352550268173218, -0.23019109666347504, -0.3507858216762543, 0.028635293245315552, -0.06997394561767578, 0.12922409176826477, 0.23223167657852173, -0.0007493069279007614, -0.360653817653656, 0.8418167233467102, 0.3046749234199524, 0.08034999668598175, -0.21497894823551178, 0.16375982761383057, -0.24995510280132294, 0.2653151750564575, -0.05852127820253372, -0.19006088376045227, -0.6157854795455933, 0.0007332891109399498, -0.6685656309127808, 1.096710443496704, 0.43808504939079285, 0.6053178310394287, -0.6838836073875427, 0.3016626238822937, -0.6383821368217468, 0.3981962502002716, -0.11886408925056458, -0.42696309089660645, 0.03915715962648392, 0.019058741629123688, 0.18109819293022156, -0.29647672176361084, -0.7010830044746399, -0.15269170701503754, -0.2815905213356018, -0.18460051715373993, 0.009235256351530552, 0.2728562355041504, 0.34628763794898987, -0.3347241282463074, -0.29492470622062683, 0.2276243418455124, -0.17899160087108612, 0.6603297591209412, 0.24940553307533264, -0.7717562913894653, 0.26026031374931335, 0.2758682668209076, 0.14065678417682648, 0.6680103540420532, -1.4321911334991455, 1.1813949346542358, -0.7058907747268677, 0.06306300312280655, -0.09176738560199738, -0.33009353280067444, 0.30820709466934204, 0.20195706188678741, 0.10864508897066116, -0.1813778579235077, -0.07220374792814255, 0.09077128767967224, -0.29548507928848267, 0.5231968760490417, 0.13561928272247314, 0.4766044616699219, 0.41703709959983826, -0.4854847192764282, 0.026866940781474113, -0.6382243633270264, -0.02314119227230549, -0.12445610016584396, 0.4013339579105377, 0.7207648158073425, 0.1740323305130005, -0.6785855293273926, 0.037381477653980255, 0.4889422357082367, -0.13976871967315674, -0.6086455583572388, 0.4842279255390167, -0.8414074778556824, -0.1923549324274063, 0.553114652633667, -1.2203691005706787, 1.2022647857666016, -0.6977031230926514, -0.0028905230574309826, 0.6845153570175171, -0.4122639000415802, -0.28708356618881226, 1.821702003479004, 1.8258118629455566, -0.41410982608795166, -0.018511200323700905, 0.36389487981796265, -0.645392656326294, -1.3314437866210938, 0.8545656204223633, -0.31399303674697876, 0.01418946124613285, -0.7702834606170654, -1.8789132833480835, 0.04715412110090256, -0.02664770372211933, -0.5838876962661743, 0.28656232357025146, 0.32701316475868225, 0.026665495708584785, 0.20087938010692596, 0.5096940398216248, -0.4271441698074341, -0.15635575354099274, -0.1309480220079422, -0.05258858948945999, -0.4303607642650604, -0.8703634142875671, -0.06760120391845703, -0.1123897060751915, 0.9837528467178345, -1.379415512084961, 0.44453394412994385, -0.09571899473667145, 0.23102332651615143, -0.2764878273010254, -0.45524662733078003, 0.4753129482269287, 0.9607545137405396, -0.3106546401977539, -1.018576979637146, -0.9638004302978516, 0.9409376978874207, -1.9570033550262451, 1.0360827445983887, -0.4655168950557709, 0.39391398429870605, 3.7537238597869873, -0.47640687227249146, 0.8779117465019226, 1.679450273513794, 0.4013310670852661, -0.926215410232544, 1.3074754476547241, 0.8065130710601807, 2.0615453720092773, -1.516261100769043, -1.428706169128418, 0.16535788774490356, 0.0777837336063385, -2.19058895111084, -0.509402871131897, -1.1874403953552246, 1.0389518737792969, 0.4163482189178467, -2.562368869781494, -0.25407516956329346, 1.33809232711792, 2.1313703060150146, 0.1694445163011551, -2.547708511352539, -1.9039937257766724, -0.5397619605064392, 0.05678379163146019, -0.09843669086694717, -0.1995827704668045, 0.7763044834136963, -0.1878983974456787, 0.1600554883480072, -0.21092747151851654, 0.06720802932977676, 0.4260338246822357, 0.24103502929210663, -0.10563059151172638, 0.20374487340450287, 0.08037905395030975, -0.43261346220970154, -0.23930160701274872, -0.1542840451002121, 0.3881954550743103, -0.4228079915046692, -0.4151056706905365, -0.20735464990139008, 0.136724054813385, -0.22345292568206787, 0.6960582137107849, -0.4316927194595337, 0.16337573528289795, 0.04262777790427208, -0.7630294561386108, 0.17116956412792206, 0.33465802669525146, 0.4271359145641327, -0.20080558955669403, 0.19460774958133698, -1.1592742204666138, -0.38358548283576965, -0.40807098150253296, 0.05803508684039116, 0.23064228892326355, -1.2508652210235596, 0.7742538452148438, 0.26955515146255493, -0.33088889718055725, -0.805083692073822, -0.7782005071640015, -1.223429560661316, 0.3439714312553406, -0.09385021030902863, 0.5841160416603088, -0.12444360554218292, -0.9917762279510498, 0.3871545195579529, 0.3375391960144043, -0.09799661487340927, -0.6269086003303528, 0.12312142550945282, 0.00817758496850729, -0.026615174487233162, -0.40997314453125, -0.2669200301170349, -0.12282682955265045, 0.5680375695228577, -0.5695398449897766, 1.0191597938537598, 0.5257402062416077, 0.43620726466178894, -0.6929687857627869, -0.17110325396060944, -2.3935811519622803, 1.2174464464187622, -0.10015775263309479, -1.3344920873641968, -0.8764546513557434, 1.4593634605407715, -1.199386477470398, -0.40665915608406067, -0.25355103611946106, 1.2889201641082764, -0.1764601767063141, -0.24092765152454376, 0.22613410651683807, 1.0857319831848145, 0.4861311912536621, 0.3044416308403015, -0.6826951503753662, 1.0949572324752808, 0.2548764944076538, -0.39121803641319275, -0.12684579193592072, 0.49276939034461975, -0.13293883204460144, 0.6161187887191772, 0.6122353672981262, -0.13702210783958435, -0.46913373470306396, 0.12986749410629272, -0.6703816652297974, 0.6227386593818665, -0.2024797797203064, 0.6125422120094299, -0.13388419151306152, 0.25266769528388977, -0.7499678730964661, -0.07814481109380722, 0.05978972092270851, -0.32897812128067017, -0.1542746126651764, -0.028989560902118683, -0.39740726351737976, 0.25794339179992676, -0.04665907099843025, -0.042725421488285065, 0.4515778720378876, -0.7269959449768066, -0.34077200293540955, 0.3937727212905884, 0.029140716418623924, -0.25512245297431946, -0.24947580695152283, 0.9010970592498779, 0.5888988375663757, 0.09301955997943878, -0.0015885678585618734, 0.8088909983634949, -0.4824569523334503, 0.3896127939224243, 0.6429924368858337, -0.053656503558158875, -0.7179624438285828, -0.4155924320220947, -0.7610031366348267, 0.10655701160430908, -0.07660336047410965, 0.6115862131118774, -0.44244515895843506, 0.9024123549461365, -0.4966483414173126, 0.14585432410240173, -0.04017458111047745, -0.13908995687961578, 0.1067475825548172, -0.12592077255249023, 0.1411101371049881, -0.14097562432289124, -0.5812274217605591, -0.025662630796432495, -0.6155950427055359, -0.08682941645383835, 0.33064913749694824, 0.3682267665863037, 0.4716441035270691, 0.15275633335113525, -0.5470675826072693, -0.845916211605072, 0.34231626987457275, 0.07399517297744751, -0.46277013421058655, 0.3269615173339844, 0.4817521572113037, -0.7087163925170898, 0.5653154850006104, 0.19889096915721893, 1.1669299602508545, 2.257600784301758, -0.6482501029968262, 0.16621777415275574, 0.9832932949066162, -0.12776318192481995, -0.24004605412483215, 0.5754892230033875, 0.507146954536438, 0.6587876081466675, 0.11364274471998215, -0.30595022439956665, -0.3149798810482025, -0.5262990593910217, -0.9094926118850708, 0.11211737990379333, -0.174930140376091, 0.37950757145881653, -0.7493269443511963, -0.11425802856683731, -0.21821239590644836, 0.4399898946285248, 0.5279484391212463, -0.07619573920965195, -0.1423557549715042, -1.558851718902588, 0.41464048624038696, 0.12808570265769958, -0.48265713453292847, -0.7890902161598206, -0.023106982931494713, -0.66944420337677, -0.524124026298523, 0.021676067262887955, 0.2794519066810608, 1.6838747262954712, 0.34549811482429504, 0.4658731520175934, 0.6501355171203613, -0.4515535831451416, -0.647010087966919, 1.1945719718933105, 0.9974495768547058, 0.708939790725708, -0.5106431841850281, -0.242837592959404, 0.11567680537700653, -0.26209044456481934, -1.4820184707641602, -0.6229288578033447, -0.27636778354644775, 2.0093047618865967, -0.9775285124778748, -0.06199527159333229, -0.5579685568809509, 0.3632048964500427, 0.478899747133255, -0.1988912671804428, -0.32086363434791565, 1.0276641845703125, 0.5158119797706604, -0.15367606282234192, -0.31752169132232666, -0.3414556086063385, -0.330495685338974, -0.5406383872032166, -1.053597331047058, -0.13042570650577545, -0.9889636635780334, -1.288945198059082, -0.9930329322814941, 0.9465770721435547, -0.3883545696735382, 0.17642027139663696, 0.16315476596355438, -0.82917320728302, -1.7744091749191284, -0.547481894493103, 0.6208787560462952, 1.2422152757644653, -1.0496090650558472, 0.4940171241760254, -0.8553329706192017, 1.633515477180481, 1.4363763332366943, 0.41058677434921265, 0.43822959065437317, -0.5881239175796509, -0.10615212470293045, -1.5318342447280884, -0.7846763134002686, 1.2831416130065918, 0.9241856336593628, -0.9675783514976501, -0.11896983534097672, 1.3631666898727417, 0.40830785036087036, -1.4185725450515747, 0.44014590978622437, -1.016682744026184, -0.3158065378665924, 1.9266561269760132, 2.414552688598633, 0.4647677540779114, -0.9825924634933472, -0.3390159606933594, -0.4592704772949219, -0.8714019060134888, 0.4964139759540558, 0.35104864835739136, -1.6301995515823364, -0.5464590787887573, -0.03710821270942688, 0.2267783284187317, -0.21161894500255585, 0.9723917245864868, -0.2895694673061371, -0.10841608792543411, 0.04168032109737396, 0.20897065103054047, 0.24862059950828552, 0.2708054184913635, -0.11862949281930923, 0.10446760803461075, -0.6340941190719604, -0.11610417068004608, 0.10979415476322174, -1.7674251794815063, -0.1864563524723053, 0.5278212428092957, 0.29451999068260193, -0.6881066560745239, 0.40075433254241943, 0.28727221488952637, 0.12156659364700317, 0.867130696773529, -0.5087292790412903, -0.39968055486679077, 1.0069864988327026, -0.1491524875164032, -0.16697366535663605, -0.2512630522251129, 1.192999005317688, -0.35536205768585205, -0.8267519474029541, 0.09864599257707596, -0.3955618739128113, -0.10550794005393982, -0.26410698890686035, -0.20856879651546478, -0.2262936681509018, 0.35615983605384827, -0.3342534303665161, 0.880774974822998, 0.014798777177929878, 0.7600775957107544, -0.2217542827129364, 0.08993062376976013, 0.14241936802864075, 0.1488836407661438, -0.2215941846370697, 0.3127184510231018, 0.4439486265182495, -0.2536735236644745, -0.0975327119231224, 0.520447313785553, -0.3653593957424164, -0.009348239749670029, -0.3766631782054901, -0.22779200971126556, -0.09205009043216705, 0.297863245010376, -0.3877733647823334, 0.5822017788887024, 0.2221001535654068, 0.21604493260383606, -0.5381600856781006, -0.2745344340801239, -2.3386545181274414, -0.8860543966293335, 0.5456678867340088, 0.7131409049034119, -1.1176737546920776, 1.334957480430603, 0.43591728806495667, -0.2764658033847809, 0.2758558690547943, -0.4864477813243866, -0.9215196371078491, 1.0430574417114258, -0.9650205969810486, -0.6186337471008301, -0.699458658695221, 1.7283793687820435, -0.08448748290538788, 0.8775597214698792, -0.26428303122520447, -0.07758553326129913, 0.08857525140047073, -0.10567529499530792, -0.3831222653388977, 0.18201181292533875, -0.22364968061447144, 0.1869254857301712, 0.0498213917016983, 0.13752855360507965, -0.4759693741798401, -0.1551997810602188, -0.34909388422966003, -0.3296000063419342, -0.6818962097167969, 0.41351601481437683, -0.5968030095100403, 0.17425434291362762, -0.6140679717063904, -0.28879791498184204, 0.6659159064292908, -0.7663423418998718, -0.833344042301178, 0.09511667490005493, -0.7499064803123474, 0.6281315088272095, -0.5130113363265991, -0.5663636326789856, -0.11373142898082733, 0.7174680829048157, 0.9732744693756104, 0.13442164659500122, -1.0017907619476318, -0.6576045751571655, -0.8309710621833801, 0.6292480826377869, 0.4948764443397522, -0.26391667127609253, -0.1821868121623993, 0.2376432567834854, 0.2694976329803467, 0.6128320097923279, -0.1550094336271286, -0.2431526929140091, 0.3817030191421509, -0.13590101897716522, -0.4159714877605438, -0.5709590911865234, 0.573546826839447, -0.15257789194583893, 0.3815026581287384, -0.3659849762916565, 0.1301441788673401, 0.21042755246162415, -0.33387911319732666, 0.30384811758995056, -0.06654416024684906, 0.17754147946834564, 0.7025991082191467, 0.009040064178407192, 0.1966540664434433, 0.18306243419647217, -0.15401899814605713, -0.39661461114883423, -0.05184487625956535, 0.20164330303668976, 0.13942770659923553, -0.006969968322664499, 0.20263859629631042, 0.029265625402331352, 0.051584307104349136, -0.1551297903060913, 0.2762848734855652, -0.20550136268138885, -0.6198383569717407, 0.4541582763195038, -0.6124638915061951, 0.9323527216911316, -0.4195204973220825, -0.09208511561155319, 0.07730616629123688, -0.3366418778896332, -0.3267880380153656, 0.4069049060344696, 1.3053100109100342, -0.018780158832669258, -0.09327687323093414, -0.09297959506511688, -0.3034762442111969, -0.8301026821136475, 0.40345072746276855, 0.37815383076667786, -0.1519690603017807, 0.16982348263263702, -0.6261146068572998, 0.7894283533096313, 0.10473494976758957, 0.2604450583457947, 0.03190726786851883, 0.1508050262928009, -0.3848123848438263, 0.49670907855033875, 0.10408636182546616, 0.24332372844219208, -0.22377362847328186, 0.66971755027771, -0.16480399668216705, -0.5908151268959045, 0.5864388942718506, -0.08547516912221909, -0.4209550619125366, 0.7636095881462097, -0.5684476494789124, -0.2515740692615509, 0.04671833664178848, 0.13484227657318115, -0.6578804850578308, 0.8956560492515564, 0.05923744663596153, -0.2242286205291748, -0.2996198534965515, 0.10713183879852295, -0.11249028891324997, -0.27323538064956665, 0.189683198928833, 0.18761228024959564, -0.5622630715370178, -0.10482186079025269, -0.8457782864570618, 0.5739443898200989, -0.39319518208503723, 0.1109730526804924, 0.4034283757209778, 0.16204038262367249, -0.8511657118797302, 0.3648265600204468, -0.4478297233581543, 0.3937784433364868, 0.5814803838729858, -0.11337801069021225, 0.7288942337036133, 0.3417249321937561, 0.812458336353302, -0.023236531764268875, 0.32225170731544495, 0.5040404200553894, 1.2961695194244385, -0.7900956869125366, -0.3351060748100281, -0.22902971506118774, -0.02720481902360916, 0.4425387978553772, -1.9261279106140137, -0.08213278651237488, -0.0763130709528923, -0.1944265067577362, 0.04661142826080322, 0.5768390893936157, 0.007206016685813665, 0.2364785373210907, -0.4684578776359558, -1.1426866054534912, -1.6024724245071411, 1.1310017108917236, -0.5241827368736267, 0.1780967265367508, 0.7095608711242676, 0.4661704897880554, -0.28437796235084534, -0.2455262839794159, -0.5941378474235535, -0.04849626123905182, 0.434490442276001, -0.9723120927810669, 0.8575928211212158, 0.17584797739982605, 1.6340323686599731, -0.46796485781669617, 0.8025986552238464, 0.3844347894191742, -0.2510095536708832, 0.3742833435535431, -0.0009710681042633951, -0.2238929122686386, -1.3440300226211548, 0.25256437063217163, 1.9288593530654907, 0.2655127942562103, 0.03473592922091484, -0.023966176435351372, -0.14457547664642334, -0.8785448670387268, 0.3773367404937744, 0.6983043551445007, 0.38109031319618225, -0.1361091136932373, 0.2525077760219574, -0.7181354761123657, -0.1333337277173996, -0.15483993291854858, -0.09898131340742111, 0.24805201590061188, -0.09061584621667862, -1.154603123664856, 0.5046374797821045, 0.8955854773521423, -0.5637373924255371, -0.7135193347930908, 0.296817421913147, -0.1666719615459442, 0.7748764753341675, 0.3759063184261322, -0.4118480980396271, 1.3799463510513306, 0.2392951101064682, -0.354261189699173, 0.6192712187767029, -0.2100803554058075, 0.6815229058265686, 0.33179381489753723, -0.04186152294278145, -0.16583897173404694, -0.2552201449871063, 0.019912995398044586, -0.4152698218822479, 0.2979949414730072, 0.0036599060986191034, 0.5854163765907288, -0.3857020437717438, 0.23286175727844238, -0.24781814217567444, 0.9577050805091858, -0.18624171614646912, -0.1410190612077713, 0.38844943046569824, 0.084613136947155, -0.13967348635196686, 0.15855573117733002, 0.31549814343452454, -0.2717055678367615, -0.3647165298461914, 0.03722471371293068, -0.21908169984817505, 0.18535855412483215, -0.21991702914237976, -0.12584465742111206, 0.08864321559667587, 0.6573374271392822, -0.3581102192401886, 0.3851849436759949, 0.07384459674358368, 0.023800263181328773, -0.49477311968803406, -0.17133252322673798, 2.949418544769287, 0.4563167095184326, -0.16020467877388, 0.2605101764202118, 0.6983426809310913, -1.185619831085205, 0.20826838910579681, -1.0127209424972534, 0.05274529755115509, 0.6606342792510986, 0.2858251929283142, -0.6854767799377441, 0.368119478225708, -0.3518083691596985, -0.44330301880836487, -0.9441909193992615, 0.2863571047782898, -0.7754442691802979, -0.2442418336868286, 0.2016877830028534, -0.08797606080770493, -0.21836884319782257, 0.7021918296813965, -0.4374070465564728, 0.3806542456150055, -0.42235067486763, -0.41437870264053345, 0.1293438971042633, 1.0342631340026855, -0.8992664813995361, 0.08746196329593658, 0.20166265964508057, 0.5343781113624573, -0.777186930179596, 4.733601093292236, -0.008543431758880615, 0.03392244502902031, 0.11982034891843796, 0.687857449054718, -1.0396766662597656, -0.4480724334716797, -1.17463219165802, 0.0301511287689209, 1.2976443767547607, 0.6924227476119995, -2.5102381706237793, -0.06334945559501648, 0.06694214791059494, 0.5851963758468628, -0.8104013204574585, 0.4473302364349365, -2.306195020675659, -0.5008527636528015, -1.0660614967346191, 0.55368572473526, -0.5907225012779236, 0.882606565952301, -0.18775492906570435, 0.32086122035980225, -1.4143909215927124, 2.1259517669677734, -5.095024108886719, 0.7350908517837524, -1.531136393547058, -0.7982928156852722, 0.7150592803955078, 0.30706149339675903, -0.54604572057724, 1.3555777072906494, 0.20091281831264496, 0.899530827999115, 0.19172774255275726, -0.47514477372169495, -0.13429373502731323, 0.09966329485177994, -0.14307036995887756, 1.1126556396484375, -0.004138361196964979, 1.5475387573242188, -0.40052473545074463, 0.1705307811498642, 0.17401057481765747, -0.2848373353481293, 0.05858578160405159, 0.16224996745586395, 1.2350244522094727, 0.8367881774902344, -0.6194639801979065, -0.9257674813270569, 0.8110756278038025, -1.0446219444274902, 0.261787086725235, 0.3854089379310608, -0.4711538255214691, 0.3704549968242645, -0.3625352382659912, -0.31426873803138733, 0.45425063371658325, 0.4810529947280884, 0.590440034866333, 0.136031374335289, 0.3090778887271881, 0.016804976388812065, 0.14359760284423828, -0.3233848214149475, -0.31477805972099304, -0.2897475063800812, -0.35328301787376404, -0.14636112749576569, 1.1389702558517456, 0.18406927585601807, 0.6345088481903076, -0.21567007899284363, -0.6648924350738525, 0.1391017585992813, 0.36564600467681885, 0.42342689633369446, 0.049500759690999985, -0.03679332137107849, 0.4429948925971985, 0.4346161186695099, 0.5599039793014526, 0.0011042713886126876, 0.524523913860321, 0.042219698429107666, 1.5506584644317627, 0.3553682863712311, 1.3112304210662842, -0.7509927153587341, 1.214615821838379, -0.24284526705741882, 0.21062494814395905, -0.2909981906414032, -0.9458543062210083, 1.649343490600586, 0.2921200692653656, 1.734046459197998, 0.9068619608879089, -0.37096497416496277, -0.49175602197647095, 0.24256518483161926, -0.3342760503292084, -0.8027777671813965, -0.018077567219734192, -0.6959521174430847, 0.70364910364151, 0.10455718636512756, -0.8271055817604065, -0.636638879776001, 0.5824940800666809, -0.07913275063037872, -0.2316407710313797, -0.22298477590084076, -5.5570244789123535, -0.6733262538909912, -0.2347024381160736, 0.033647287636995316, -1.7017848491668701, 1.9148046970367432, -0.2862456738948822, 1.6139429807662964, -0.3874065577983856, 0.41162991523742676, -1.9753222465515137, 2.659477710723877, -0.5928930640220642, -0.5714519023895264, -0.4981120824813843, 1.1314791440963745, -0.07698363065719604, -0.8069601655006409, -0.8324945569038391, -0.3324631154537201, 0.46098488569259644, -1.8582100868225098, 0.4969117045402527, -0.6481762528419495, 1.243030071258545, -1.085803508758545, -0.38906070590019226, 2.9114484786987305, 0.38812652230262756, -0.19273002445697784, 0.42199909687042236, 0.8755518794059753, -1.5545753240585327, -0.6273548603057861, 0.7157412171363831, 2.2331557273864746, -0.8965356349945068, -2.261960506439209, 0.6100027561187744, -0.681063175201416, -0.8803186416625977, -0.13970276713371277, -1.2615675926208496, 1.666443109512329, 0.40879103541374207, -1.5344995260238647, 1.297636866569519, 2.1144254207611084, 1.6806604862213135, -1.0111513137817383, -0.33520641922950745, -0.49481210112571716, 0.5686059594154358, -0.8451144695281982, -0.5142214894294739, 0.09171328693628311, 1.0247759819030762, -0.8504915237426758, -0.0994282066822052, -0.9282810688018799, 0.33558201789855957, 1.3528977632522583, -0.15214219689369202, 0.796209990978241, 1.1861813068389893, 0.46889379620552063, -2.6238231658935547, 1.334993839263916, 2.5807571411132812, 1.0165029764175415, -0.09211133420467377, -0.5431056618690491, 0.2837163507938385, 0.7909830808639526, -0.6690598726272583, 2.134225845336914, 0.0996323972940445, 0.8523584604263306, -0.2769440710544586, -1.4026854038238525, 0.276983380317688, 0.7756467461585999, 0.932260274887085, -0.6797988414764404, 1.8780113458633423, 0.22326360642910004, 0.2066783607006073, 0.21946194767951965, -0.14283150434494019, -0.5898969173431396, 0.09592098742723465, 0.3913910388946533, 0.3537652790546417, 0.7368048429489136, -0.6114762425422668, 2.948939085006714, -0.6290003657341003, 0.417587012052536, -0.08418447524309158, -0.27460309863090515, -0.0873686894774437, 0.11880970746278763, -0.25171390175819397, 0.09311849623918533, 0.2593560814857483, 0.5143497586250305, -0.570336639881134, -0.18386238813400269, 0.5004515647888184, 0.6795026659965515, 0.45742055773735046, -0.46389803290367126, -1.5022807121276855, 0.6819217801094055, -0.5969952344894409, -1.0075889825820923, 0.666350245475769, 0.8787251710891724, -1.5083770751953125, 0.9593304395675659, 0.09777867794036865, -1.2698115110397339, -0.014061414636671543, -0.44191789627075195, 0.9816546440124512, -0.5633233189582825, -0.4332279860973358, -1.625144362449646, 0.024601735174655914, -0.7881960868835449, -1.0725330114364624, 0.18525204062461853, 0.40098875761032104, 1.3339648246765137, -0.9535496234893799, -0.5470408797264099, -0.014427726157009602, 0.4373096227645874, -0.10077369958162308, -0.11787284165620804, 0.519889771938324, -1.267531394958496, 1.555506944656372, 0.5261732339859009, 0.1671462208032608, -1.5043182373046875, -0.6535014510154724, 0.09618699550628662, -0.36707431077957153, -0.27939823269844055, 0.7495120763778687, -0.3380180597305298, -0.3190549314022064, -3.6809871196746826, -3.5907070636749268, -3.522143840789795, -4.737270355224609, -4.601034164428711, -3.816303253173828, -4.768959045410156, -3.086801528930664, -2.5694222450256348, -0.9810905456542969, -4.518552303314209, -3.1871297359466553, -3.430318832397461, -3.6155428886413574, -1.513885736465454, -3.6777374744415283, 3.9308853149414062, 4.374147415161133, 3.9922914505004883, 4.256664276123047, 4.732454299926758, 4.193262100219727, 4.740909576416016, 4.214498519897461, 2.4654555320739746, 2.3220715522766113, 3.0212535858154297, 2.9242539405822754, 4.6222734451293945, 4.155815124511719, 2.0479660034179688, 3.204082727432251, 0.4822446405887604, -1.0570647716522217, -0.5568786859512329, 0.18776445090770721, 0.1915472000837326, -0.2864633798599243, 0.14501117169857025, -0.8104487061500549, 0.5509935617446899, -0.9354626536369324, -0.07485848665237427, 0.08076998591423035, 0.5569356083869934, 0.5342203974723816, 0.09421852231025696, -0.027159422636032104, 0.6986570358276367, 0.1758156269788742, -0.1766745001077652, 1.0198930501937866, 0.4378737509250641, -0.6124411821365356, 1.2713546752929688, -0.8633988499641418, 0.36815252900123596, 2.015294075012207, 1.2703578472137451, 0.7712687253952026, 0.25297409296035767, -0.48135504126548767, 0.9736731648445129, -0.051700886338949203, 0.7191806435585022, -0.7982344031333923, -0.2675881087779999, -0.07422622293233871, 0.375230073928833, -0.08741039782762527, 0.22662734985351562, -0.36753419041633606, 0.4943399131298065, 0.09352513402700424, -0.09193804860115051, 0.1894894689321518, 0.5361002683639526, 0.1378955841064453, -0.035367611795663834, -0.02366548962891102, 2.3010544776916504, -3.201521873474121, -5.118453025817871, -0.07918062061071396, 0.48497167229652405, -0.7678417563438416, 0.24081547558307648, -5.01218843460083, 0.7193490266799927, 0.09383759647607803, -0.09324804693460464, 0.1971655935049057, 3.688626527786255, 7.984986782073975, -0.03642159327864647, -0.09705828130245209, -0.12452323734760284, 0.4529482424259186, 0.08849122375249863, -0.23385566473007202, 0.2996394634246826, 0.23107893764972687, -0.8843830823898315, 0.4799078702926636, -0.3272562026977539, 0.966113805770874, 0.07310298830270767, 0.7353157997131348, 0.07068852335214615, -0.5140297412872314, -0.46369245648384094, 0.6599604487419128, 0.8807403445243835, -0.39352890849113464, 0.02337041310966015, -0.580769419670105, -0.6884961128234863, -0.4337167739868164, 0.09110507369041443, -0.03472953289747238, -0.4597538709640503, 0.1152399554848671, -0.025777623057365417, -0.6044347286224365, -0.12462502717971802, -0.18261247873306274, 0.06223549693822861, -0.4845362603664398, -0.02867136336863041, -0.2424730658531189, -0.041634250432252884, -0.007828814908862114, 0.038693565875291824, 0.3909516930580139, 0.1242162361741066, -0.5784510970115662, -0.21576742827892303, 0.3980383574962616, -0.013409517705440521, 0.11627122759819031, 0.03358932584524155, -0.10996581614017487, -0.3675292730331421, -0.3940519094467163, 0.45888274908065796, 0.04745728522539139, -0.5546687245368958, 0.528209388256073, -0.37020668387413025, 0.2740909457206726, 0.19768063724040985, -0.22737134993076324, 0.5818305611610413, -0.7509323954582214, 0.7518566250801086, 0.3546367585659027, -0.06691556423902512, 0.4053300619125366, 0.18156935274600983, 0.13889893889427185, 0.019070127978920937, -0.03746192902326584, 0.23914511501789093, 0.16909824311733246, -0.15564586222171783, 0.20556633174419403, 0.16041195392608643, 0.07377225905656815, -0.6223540902137756, -0.3270546793937683, 0.5563217997550964, 0.224229097366333, -0.47381168603897095, -0.051082126796245575, 0.38783565163612366, 0.044270578771829605, 0.15299706161022186, -0.08540116995573044, 0.23168817162513733, -0.4953899681568146, -0.19870895147323608, -0.0554017648100853, -0.0694914236664772, 0.3975268006324768, 0.1456582397222519, -0.07443606108427048, 0.007952689193189144, -0.16002009809017181, -0.004922122228890657, 0.144459530711174, -0.33868059515953064, 0.46319979429244995, 0.26678556203842163, -0.06774340569972992, 0.18143370747566223, 0.05729399248957634, 0.643122136592865, -0.22416889667510986, 0.49156513810157776, -0.011728369630873203, 0.4106966257095337, 0.19838905334472656, -0.4222651720046997, -0.4950571656227112, 0.20067939162254333, 0.1095416471362114, -0.031442735344171524, 0.5713708400726318, -0.8569869995117188, 0.22791743278503418, -0.08337367326021194, -0.9327467083930969, -0.12182741612195969, -0.13959234952926636, 0.5196749567985535, 0.14726336300373077, -0.19552573561668396, -0.21726356446743011, 0.02271598018705845, 0.45192933082580566, 0.1414514183998108, -0.3039838671684265, -0.128935307264328, -0.09144912660121918, 0.16429883241653442, -0.6082773208618164, -0.34647703170776367, 0.3849257528781891, 0.4665803611278534, 0.006049197167158127, 0.4951794445514679, -0.2728697657585144, 1.1153337955474854, -1.487640142440796, -0.07751089334487915, -0.191974937915802, 0.2030976563692093, 0.5704509615898132, -0.45229366421699524, -0.381339430809021, -0.12230829894542694, 0.418284147977829, -0.11244332790374756, 0.08187153190374374, 0.43509724736213684, -0.1332910805940628, 0.27570176124572754, -0.19785866141319275, -0.5001242160797119, -0.30866459012031555, 0.16444674134254456, -0.2557375133037567, 0.41994690895080566, -0.0799175277352333, 0.45276013016700745, -0.5735226273536682, 0.7270881533622742, -0.4858286380767822, -0.21983514726161957, 0.39780575037002563, -0.27789998054504395, -0.01863837242126465, -0.2864868938922882, -0.19255457818508148, 0.21740390360355377, 0.8831619620323181, -0.28790631890296936, 0.538830041885376, 0.42849764227867126, 0.4578225314617157, -0.4768631160259247, -0.3808169662952423, -0.15840961039066315, 0.4002516567707062, -0.20734933018684387, -0.3237692713737488, -0.1412695050239563, 0.45129600167274475, 0.6405708193778992, -0.15542016923427582, 0.4332779049873352, -0.44981253147125244, 0.100413016974926, 0.2265174835920334, 0.19565899670124054, -0.032373830676078796, 0.455513060092926, -0.21973495185375214, 0.29941171407699585, -0.2018953263759613, -0.049458567053079605, 0.11295206099748611, -0.23286855220794678, -0.18298698961734772, -0.026903869584202766, 0.015226777642965317, 0.14104925096035004, 0.32017114758491516, -0.0695677101612091, 0.20554287731647491, -0.07027433067560196, 0.18529215455055237, -0.41216129064559937, -0.0956248790025711, 0.2170294225215912, 0.5904760360717773, -0.07922815531492233, -0.4546312689781189, -0.0723557248711586, 0.17698869109153748, 0.4105767011642456, 0.13159723579883575, 0.3571978807449341, -0.3152788281440735, -0.11080951988697052, 0.21254174411296844, 0.28589320182800293, 0.009522219188511372, 0.45134618878364563, -0.4661543071269989, -0.05505640059709549, -0.15455882251262665, -0.06977972388267517, -0.25894004106521606, 0.25419241189956665, 0.47347214818000793, -0.009711895138025284, -0.10385831445455551, 0.010807515121996403, -0.3087864816188812, -0.22584791481494904, 0.4173945486545563, -0.3232884109020233, 0.11795482784509659, 0.11290508508682251, -0.12082967907190323, -0.345820814371109, -0.2082168161869049, -0.09030462056398392, -0.9860988259315491, 0.48111575841903687, 0.15623141825199127, 0.36023765802383423, 0.3718688488006592, -0.00037410997902043164, -0.37848126888275146, -0.1819540411233902, -0.013475853018462658, -0.07537412643432617, 0.5647481083869934, 0.2275468111038208, -0.20861515402793884, 0.4464627206325531, -0.3140196204185486, -0.10393733531236649, 0.09112423658370972, -0.1311279833316803, 0.27675753831863403, -0.41682639718055725, 0.0320097878575325, 0.32131561636924744, 0.7873293161392212, -0.08724115043878555, 0.7133020758628845, 0.4938913881778717, 0.2605457305908203, -0.4524821937084198, -0.1625424325466156, 0.28931504487991333, 0.2414947897195816, -0.3370596170425415, -0.5088305473327637, 0.002721708733588457, 0.18602050840854645, 0.49097779393196106, -0.07649321854114532, 0.3823452889919281, -0.6556945443153381, 0.012155573815107346, 0.39287739992141724, 0.5227112174034119, 0.2567886710166931, 0.7317959666252136, -0.5706624984741211, 0.44807812571525574, -0.08602359145879745, -0.42062368988990784, 0.34809038043022156, -0.09967004507780075, 0.31469547748565674, -0.12147582322359085, -0.3618474006652832, -0.011816958896815777, 0.4702085554599762, -0.2524788975715637, 0.5225106477737427, 0.028339415788650513, 0.19818158447742462, -0.22715777158737183, -0.15805059671401978, -0.07916048169136047, 0.08643102645874023, -0.02236909046769142, -0.6694378852844238, -0.12884505093097687, 0.3330806493759155, 0.1520254909992218, -0.30874791741371155, 0.0019049375550821424, -0.2700917720794678, 0.13105399906635284, 0.008900503627955914, 0.5517595410346985, 0.4309168756008148, 0.05903655290603638, -0.2611418068408966, -0.31201744079589844, 0.1790122538805008, 0.41542407870292664, -0.06745672971010208, -0.1460707187652588, -0.03606760501861572, 0.46345850825309753, 0.12255147099494934, -0.1074712797999382, 0.5897505879402161, -0.049181412905454636, -1.434444546699524, -0.45507848262786865, -0.03971296176314354, 0.11369536072015762, 0.2896236777305603, 0.38840359449386597, -0.06412208825349808, 0.39591115713119507, -0.31912392377853394, 0.03312414512038231, 0.09166079759597778, -0.6093409657478333, 0.39826107025146484, -0.061691440641880035, -0.13541731238365173, -0.3734920620918274, 0.04538922384381294, -0.27615758776664734, 0.11909794062376022, -0.3006058931350708, 0.07996375113725662, 0.36418771743774414, 0.16362124681472778, 0.06629413366317749, -0.1414954662322998, 0.11838537454605103, -0.1624617576599121, -0.07411634176969528, -0.10170841217041016, 0.21159814298152924, 0.04731741547584534, -0.16970378160476685, 0.5936567783355713, 0.3910227417945862, 0.1247112900018692, -0.24980729818344116, -0.1854357272386551, -0.02682538516819477, 0.2531174421310425, -0.19826319813728333, -0.05947929248213768, -0.039179008454084396, -0.1449034959077835, -0.30041080713272095, -0.11800027638673782, 0.25065526366233826, -0.3269350826740265, 0.2271917313337326, 0.0478900745511055, 0.025106225162744522, 0.1009962260723114, -0.0020537355449050665, 0.0202647615224123, 0.380450040102005, -0.27227628231048584, -0.08705613762140274, 0.052980437874794006, 0.002830317011103034, 0.3241390585899353, 0.06884327530860901, -0.036400411278009415, 0.26412123441696167, -0.24548348784446716, -0.1943952441215515, 0.32822126150131226, 0.14037080109119415, -0.02154058963060379, -0.4300217032432556, -0.20282423496246338, 0.04610501602292061, 0.4046330153942108, 0.19600169360637665, 0.19803917407989502, 0.2720741629600525, 0.0749051421880722, 0.09898041933774948, -0.14368832111358643, 0.36615225672721863, -0.22377640008926392, 0.10196229070425034, 0.003408897202461958, -0.09211234748363495, 0.3049008250236511, 0.3683865964412689, -0.20259739458560944, 0.0352841392159462, 0.10692203044891357, 0.3245736360549927, 0.18937043845653534, -0.12099295854568481, 0.013043003156781197, -0.4652118682861328, 0.21146921813488007, 0.5977557897567749, -0.41123130917549133, -0.6318963170051575, 0.41326484084129333, -0.06165133789181709, -0.2830483019351959, 0.09765070676803589, 0.7597736120223999, -0.5583146214485168, -0.3039621114730835, -0.23212988674640656, 0.8909040689468384, -0.24787092208862305, 0.023455215618014336, 0.19308966398239136, -0.2860761284828186, -0.005694215651601553, 0.02287391759455204, -0.7250785827636719, 0.2671657204627991, -0.08097227662801743, -0.3958553671836853, 0.38417837023735046, -0.5453459024429321, 0.13573211431503296, -0.8349767923355103, -0.4368976652622223, 0.24412328004837036, -0.013219333253800869, 0.452992707490921, 0.465005487203598, -1.249624490737915, 0.4217566251754761, -0.8737589120864868, 0.15852735936641693, -1.238723874092102, 0.12356281280517578, 0.4102014899253845, 0.011518226005136967, -1.3985528945922852, -0.44858869910240173, 1.0710066556930542, 0.0470864363014698, -0.34929195046424866, -0.6878229975700378, 0.25517380237579346, 0.2964082956314087, -0.2740797698497772, -0.4026387333869934, 0.2465774118900299, -0.26523807644844055, -0.09863915294408798, 0.9091768264770508, 2.9207417964935303, -0.14541004598140717, -0.608870804309845, 0.09878218173980713, 0.04137672856450081, -0.1347571164369583, 0.17963886260986328, -0.09677441418170929, -0.15768012404441833, -0.06212548539042473, -0.19983594119548798, -0.07497460395097733, 0.5075459480285645, 0.052757084369659424, 0.34584999084472656, 0.40067940950393677, -0.19041119515895844, -0.3883056640625, 0.23706920444965363, -0.3852514922618866, 0.1575896441936493, -0.3958553373813629, -0.023801816627383232, -0.15046702325344086, -0.3843465745449066, 0.29063379764556885, -0.18289457261562347, -0.23299722373485565, 0.0778048112988472, -0.3864401578903198, 0.5266557931900024, 0.25954684615135193, 0.013186235912144184, 0.3160320520401001, -0.2386782169342041, 0.7969574928283691, 0.03411230817437172, -0.36953675746917725, -0.10166741162538528, -0.11617311090230942, -0.3333190679550171, -0.23072965443134308, -0.04460889473557472, 0.24742154777050018, 1.5055187940597534, -0.29778680205345154, 0.4641624093055725, 0.7354133129119873, 0.41648226976394653, 0.16070450842380524, -0.5005137920379639, 0.186146080493927, 0.9325788617134094, -0.3623674213886261, 0.6856126189231873, -0.18715772032737732, 0.592708170413971, 0.03551386296749115, -0.22968365252017975, 0.4331611394882202, -0.6519879102706909, 0.27880364656448364, 0.296191930770874, -0.0634901225566864, 0.6353991031646729, 0.08132252097129822, -0.5970149040222168, 0.31376633048057556, -0.0907391831278801, 0.1241089478135109, 0.5751477479934692, 0.21460679173469543, -0.14834116399288177, -0.1767074018716812, 0.08348309993743896, -0.2175714671611786, -0.1726643443107605, -0.21631580591201782, -0.007506133522838354, 0.20016595721244812, -0.1522866040468216, -0.14204002916812897, -0.08112519979476929, 0.2494308054447174, 0.61537104845047, -0.3750171959400177, 0.28752386569976807, 0.07090363651514053, -0.017650101333856583, 0.03473708778619766, -0.3463086485862732, 0.13835470378398895, -0.1688731163740158, 0.5464005470275879, 0.5463883876800537, 0.19504350423812866, -0.09174495935440063, -0.20487047731876373, -0.44358906149864197, 0.07997312396764755, -0.3579787015914917, -0.29838255047798157, 0.16664853692054749, -0.07416560500860214, 0.24021826684474945, 0.4428211450576782, -0.3300383985042572, 0.3486478626728058, -0.6512956023216248, 0.2520715892314911, -0.6186191439628601, -0.004996913019567728, 0.2844047546386719, 0.07938522845506668, -0.2740112841129303, -0.24771453440189362, 0.35859325528144836, 0.04875832423567772, -0.45120397210121155, 0.1562105119228363, 0.5557365417480469, 0.13759449124336243, -0.050525326281785965, 0.26705417037010193, -0.2955861985683441, 0.06835855543613434, 0.22217699885368347, 0.0623822920024395, 0.20311415195465088, -0.14139512181282043, 0.19019553065299988, 0.1896212249994278, 0.05840679258108139, 0.0526333749294281, -0.19777551293373108, 0.0692492425441742, 0.15297433733940125, 0.14622870087623596, -0.11176475137472153, -0.14977318048477173, -0.07388686388731003, -0.015275413170456886, -0.5692994594573975, 0.16413463652133942, -0.04108348861336708, -0.29074928164482117, 0.1993996948003769, -0.5391360521316528, -0.49812081456184387, 0.28340592980384827, -0.6667635440826416, -0.27150270342826843, -0.33728209137916565, 0.20997214317321777, 0.790766179561615, -0.6367314457893372, 0.2293292135000229, -0.025647006928920746, 0.5728982090950012, -0.11557403951883316, 0.7176243662834167, -0.37518954277038574, 0.3438563048839569, -0.363031804561615, -0.3634997606277466, 0.9650318622589111, -0.09653531759977341, 0.14249072968959808, -0.31543222069740295, -1.4517096281051636, 0.1687413454055786, 1.4206535816192627, -1.9873437881469727, 0.23600450158119202, -0.9704284071922302, -0.9644861221313477, -0.0711406022310257, 0.2175992727279663, -0.7663343548774719, 0.5845839977264404, -0.2536420226097107, 0.6603763699531555, -0.6255634427070618, -0.10207808762788773, -0.518310010433197, -0.8351393938064575, 0.37752631306648254, -0.6234959363937378, 0.12770776450634003, -0.5202897191047668, -0.6601468324661255, -0.23634321987628937, 0.3797324597835541, 0.18836785852909088, 0.21733303368091583, 0.7540065050125122, 0.17901122570037842, -0.2552177608013153, 0.1962188184261322, -0.008986168541014194, -0.4254895746707916, -0.10684987902641296, 0.014774397946894169, 0.20920376479625702, 1.1271363496780396, -0.3989505171775818, 0.3393555283546448, 0.782602846622467, -0.16452106833457947, -0.5333388447761536, 0.1170598566532135, 0.016944605857133865, 0.9370356798171997, 0.27054888010025024, -0.12553779780864716, -0.005885171238332987, 0.24452628195285797, 0.38993439078330994, 0.09978896379470825, 0.06556741893291473, -0.024916566908359528, 0.08359576016664505, 0.7439120411872864, 0.16974219679832458, 0.3210648000240326, 0.5404105186462402, -0.35934746265411377, 0.222774475812912, 0.040219418704509735, -0.44974538683891296, -0.16750049591064453, 0.1297026425600052, -0.11059308797121048, -0.3623920977115631, -0.150923490524292, 0.30764609575271606, 0.05638508498668671, -0.06528293341398239, 0.5407688021659851, 0.2541792094707489, 0.171805739402771, -0.7605593204498291, 0.10108958184719086, 0.06265269964933395, 0.3531738817691803, -0.22121888399124146, -0.2127062976360321, 0.21227388083934784, 0.44838717579841614, 0.49374252557754517, 0.003634548746049404, 0.7399640679359436, -0.7786132097244263, -0.2248227894306183, 0.1986047625541687, 0.21251465380191803, 0.24735629558563232, 0.6032788753509521, -0.806255578994751, 0.3172588348388672, -0.1661892980337143, -0.4876280128955841, -0.014974570833146572, 0.266928106546402, 0.1204838976264, -0.3295344114303589, -0.10298973321914673, 0.4902639389038086, 0.18090903759002686, -0.17357082664966583, 0.15590493381023407, -0.13159577548503876, 0.12938223779201508, 0.017515046522021294, -0.46449968218803406, -0.5103539228439331, -0.14053001999855042, -0.4072747230529785, -0.8176418542861938, 0.025815138593316078, 0.30421483516693115, 0.019732551649212837, 0.039266061037778854, 0.11777494102716446, -0.4887832701206207, -0.2969456613063812, 0.5795114040374756, 0.16103211045265198, 0.5837014317512512, 0.5205904245376587, 0.05303269997239113, 0.33744364976882935, 0.1946059614419937, -0.07852071523666382, -0.09119449555873871, 0.02047630026936531, -0.10291168838739395, 0.0979856476187706, 0.06418899446725845, 0.04893108457326889, 0.6467878222465515, 0.009555425494909286, 0.4467952847480774, 0.5204452872276306, 0.16778194904327393, -0.6703302264213562, 0.252387136220932, 0.192773699760437, 0.05162786692380905, 0.3301768898963928, -0.595950722694397, -0.20644907653331757, 0.061498869210481644, 0.4378819763660431, 0.025979086756706238, -0.07061166316270828, -0.24654796719551086, -0.3790285289287567, 0.6647864580154419, 0.17536284029483795, 0.2763371765613556, 0.9403334856033325, -0.7315273880958557, 0.3089480996131897, -0.2487683743238449, -0.38146308064460754, 0.10530093312263489, -0.09508822858333588, -0.05267271399497986, -0.27922874689102173, 0.037891265004873276, 0.4135458469390869, 0.1609714776277542, 0.09622654318809509, 0.3148588538169861, 0.3584020435810089, 0.3095855116844177, -0.16410872340202332, -0.11790662258863449, -0.09093915671110153, 0.10342317819595337, -0.0591740682721138, -0.3535987436771393, 0.026037611067295074, 0.3286904990673065, 0.24768494069576263, -0.047480255365371704, 0.2504843771457672, -0.32377851009368896, 0.2928282618522644, 0.4719898998737335, 0.5580806136131287, -0.05745752528309822, 0.29952067136764526, -0.20982889831066132, 0.4426335096359253, -0.2658873200416565, -0.38298436999320984, -0.07799660414457321, -0.11363576352596283, -0.07132064551115036, 0.2853688597679138, -0.37456461787223816, 0.07170853763818741, -0.4252333641052246, -0.1436847448348999, -0.4557344913482666, 0.49238887429237366, 0.25774964690208435, -0.5377517938613892, -0.36185136437416077, -0.09326008707284927, 0.08781149238348007, 0.13190680742263794, 0.29093897342681885, -0.2337695211172104, 0.6833593845367432, 0.37962713837623596, 0.10570436716079712, 0.4995962977409363, -0.18007905781269073, -0.3519047498703003, 0.19781026244163513, 0.2723833918571472, 0.7657501697540283, 0.7533093690872192, -0.030448704957962036, 0.18442155420780182, -0.3090520203113556, -0.11347406357526779, 0.08751954883337021, -0.14073051512241364, -0.27182474732398987, 0.04403100535273552, 0.011890429072082043, 0.3759189546108246, 0.1610109508037567, 0.10758750885725021, 0.22835512459278107, 0.16032624244689941, 0.029616210609674454, -0.3506676256656647, 0.10177089273929596, 0.22162319719791412, 0.5011213421821594, -0.2689107358455658, 0.30658555030822754, 0.06568042933940887, 0.1358111947774887, 0.1502097100019455, -0.0002058084646705538, -0.027193984016776085, -0.47953781485557556, 0.18536370992660522, 0.4632875621318817, -0.04376533627510071, 0.06735992431640625, -0.15349061787128448, -0.24972394108772278, 0.18099896609783173, -0.009361488744616508, -0.3107392489910126, 0.3291563391685486, -0.01141984760761261, 0.16207212209701538, 0.02003488317131996, 0.021390903741121292, 0.002694672206416726, 0.04043843597173691, 0.009525034576654434, 0.22634388506412506, 0.410595178604126, 0.06545447558164597, -0.5539916157722473, -0.14710095524787903, 0.18189620971679688, 0.22130687534809113, 0.2015492469072342, -0.069905124604702, -0.15923209488391876, 0.18274572491645813, 0.35158273577690125, -0.09208253771066666, 0.4839227497577667, -0.5003164410591125, 0.21862156689167023, 0.3447255790233612, 0.2555782198905945, 0.05552373826503754, 0.557113528251648, -0.3809446692466736, -0.2990770936012268, 0.3740229904651642, 0.12290501594543457, -0.43160760402679443, -0.28472164273262024, 0.46638309955596924, -0.4130672216415405, 0.29961729049682617, -0.1696406453847885, -0.9620153903961182, 0.1843314915895462, 0.34527787566185, 0.059595271944999695, -0.24296995997428894, 0.25025713443756104, 1.2306891679763794, 0.17756132781505585, 0.1492491513490677, 0.07283902168273926, 0.09135955572128296, -0.011798909865319729, 0.24494563043117523, -0.1712021380662918, -0.13604922592639923, -0.06816183775663376, -0.1215980127453804, -1.165052056312561, -0.5677539110183716, -0.3523522913455963, -0.6989975571632385, -0.2466524988412857, -0.23266953229904175, -0.9799219369888306, 0.7502210736274719, 0.37978407740592957, -0.8466053009033203, 0.3396490812301636, 0.2788063585758209, 0.0364224873483181, -0.18309947848320007, 0.0346410870552063, -0.933456540107727, 0.5050264596939087, -2.5448827743530273, -0.8097699284553528, -0.5000105500221252, 0.3745211064815521, 0.1283329427242279, -0.3547282814979553, 0.15331752598285675, 0.8452211022377014, -1.5381667613983154, -0.1501101553440094, -1.7075154781341553, 0.9196832180023193, 0.6279668211936951, -1.9559465646743774, 1.1721142530441284, -0.19130003452301025, 0.14723263680934906, 0.6523482203483582, 2.025827646255493, -1.3192470073699951, -0.334149032831192, 0.10451649874448776, -0.11669845879077911, 0.022425688803195953, 0.15176820755004883, 0.15302014350891113, -0.009555957280099392, 0.19120225310325623, -0.30442920327186584, 0.21481138467788696, 0.5732877254486084, -0.1484621912240982, 0.20965614914894104, 0.159364715218544, 0.05085855349898338, -0.18319818377494812, -0.016042843461036682, -0.5427106618881226, 0.1080840677022934, -0.08727875351905823, 0.08488132804632187, -0.004309691954404116, -0.20211392641067505, 0.0698256716132164, -0.40754497051239014, 0.19255924224853516, -0.19454549252986908, -0.19113363325595856, 0.3548954725265503, 0.27118760347366333, 0.032894473522901535, 0.4136900007724762, -0.13514654338359833, 0.021262316033244133, -0.4036550521850586, 0.07805705070495605, 0.3897320628166199, -0.05460701137781143, 0.2615060806274414, 0.5146676301956177, -0.234894797205925, -0.07047416269779205, -0.16822685301303864, 0.46326306462287903, -0.6669113039970398, -0.24380511045455933, 0.37106987833976746, 0.14980588853359222, -0.1533169150352478, -0.02219422534108162, 0.17108629643917084, -0.1263902336359024, 0.16266652941703796, -0.005632535554468632, 0.4134445786476135, -0.2966625988483429, 0.20032702386379242, 0.29776865243911743, -0.25447067618370056, 0.271619975566864, -0.21020254492759705, 0.11176608502864838, 0.22808527946472168, 0.1863861232995987, 0.32573479413986206, 0.33447328209877014, -0.309558629989624, -0.28002461791038513, 0.10241520404815674, -0.12399578094482422, -0.08212792128324509, 0.004107873886823654, -0.05095215141773224, 0.6733474135398865, 0.6393796801567078, -0.07073071599006653, -0.07262232154607773, 0.23909731209278107, 0.25935035943984985, -0.5423353314399719, 0.05304453521966934, -0.18905214965343475, -0.1548071950674057, -0.24021077156066895, 0.36277228593826294, -0.37859055399894714, 0.21493971347808838, 0.02763870172202587, -0.028709199279546738, 0.3756850063800812, -0.009524941444396973, 0.03157399594783783, 0.525847315788269, 0.0689556673169136, 0.42351672053337097, -0.4400418996810913, -0.16232924163341522, -0.06207551434636116, 0.024700073525309563, -0.1044420674443245, 0.25464507937431335, 0.35773172974586487, -0.24562115967273712, 0.023320941254496574, 0.26097744703292847, 0.0036958984564989805, 0.30996671319007874, -0.4650411307811737, 0.11474496871232986, 0.014301130548119545, 0.06982968002557755, -0.46870362758636475, 0.1070820689201355, -0.03868165984749794, 0.240422323346138, -0.023893870413303375, 0.4653237462043762, 0.013853342272341251, -0.24574211239814758, 0.27349334955215454, -0.18172018229961395, -0.26028943061828613, -0.27122771739959717, 0.14986927807331085, 0.042492348700761795, -0.22552701830863953, 0.10096046328544617, 0.28592154383659363, -0.4641212522983551, 0.26280301809310913, -1.1968859434127808, -0.09513351321220398, 0.5518747568130493, 0.6956179141998291, 0.17117415368556976, 0.14604705572128296, -0.8618992567062378, 0.5180438160896301, 0.3713524043560028, -0.13925963640213013, -0.48717451095581055, 0.054195426404476166, 0.6341588497161865, -0.15430808067321777, -0.26047074794769287, -0.5351414084434509, 0.1670052409172058, -0.07635089010000229, -0.7587629556655884, -0.039821650832891464, 1.028208613395691, -0.15636631846427917, 0.4202519655227661, 0.8544394969940186, -0.24268661439418793, -0.5070037841796875, 0.327497661113739, 0.03684566915035248, 0.9701196551322937, -0.06863786280155182, 0.5512280464172363, 0.46149978041648865, -0.00173970649484545, -0.3213130831718445, -0.05824882164597511, 0.00465378537774086, -0.24058254063129425, -0.026417262852191925, -0.24415254592895508, -0.07986005395650864, -0.1984642893075943, -0.6277264356613159, 1.2847446203231812, 0.3571915626525879, 0.7231682538986206, -0.6201511025428772, -0.15063194930553436, -0.7772051095962524, -0.5355969071388245, -0.1783922016620636, 0.04196646437048912, -0.21683835983276367, -0.11197112500667572, 0.29852917790412903, -0.0462767630815506, -0.44195613265037537, 0.24164865911006927, -0.36114928126335144, 0.9920801520347595, 0.46829235553741455, 0.7436531782150269, -0.15425820648670197, 0.0606856644153595, 0.4121271073818207, 0.17303240299224854, -0.5469579696655273, 0.5551826357841492, 0.10383331775665283, -0.00372673268429935, -0.3092128336429596, 0.19909487664699554, 0.204221710562706, 1.0829217433929443, -0.5022441148757935, 0.36283499002456665, 0.5457848310470581, 0.1587730497121811, -0.5729054808616638, -0.031935207545757294, -0.37255990505218506, 0.665723443031311, 0.1226356104016304, -0.27457132935523987, 0.08721053600311279, 0.13471318781375885, 0.21535827219486237, -0.10296496748924255, 0.2520597577095032, -0.35780707001686096, -0.5731714367866516, 0.41650986671447754, 0.3080008625984192, 0.22623281180858612, 0.46177345514297485, 0.04598640650510788, -0.048921819776296616, -0.3667058050632477, -0.341240793466568, 0.5019087195396423, -0.5371983647346497, 0.16499100625514984, -0.6924338936805725, -0.5567013025283813, -0.15078605711460114, -0.09797675907611847, -0.11730267107486725, -0.08853620290756226, 0.4867246448993683, 0.6408935785293579, -0.3236808180809021, -0.07511316984891891, -0.17186343669891357, -0.19097086787223816, -0.2795884311199188, -0.08642947673797607, -0.3999596834182739, 0.3696367144584656, 0.2348095178604126, -0.21037404239177704, 0.4575924277305603, -0.5652893781661987, 0.11534568667411804, 0.26616138219833374, 0.48869380354881287, 0.5298796892166138, 0.2251899391412735, -0.12441674619913101, -0.26876649260520935, -0.07795397937297821, 0.14513909816741943, 0.2257384955883026, -0.15664122998714447, -0.18445493280887604, 0.13406381011009216, 0.13471180200576782, 0.11138902604579926, -0.371920645236969, 0.21194873750209808, -0.1951219141483307, 0.04241911694407463, -0.06263213604688644, 0.18131491541862488, 0.4259539246559143, 0.4680241346359253, -0.022937629371881485, 0.48125091195106506, 0.10521414130926132, -0.1841067522764206, -0.3066331744194031, -0.38656869530677795, -0.22646817564964294, -0.32201358675956726, 0.12016868591308594, 0.47407811880111694, -0.6101524233818054, -0.29621949791908264, -0.36990442872047424, -0.2515262961387634, -0.017931852489709854, 0.7634263634681702, 0.017777953296899796, -0.3266862630844116, 0.3898840844631195, -0.2797422409057617, 0.1698421835899353, -0.1523982584476471, 0.20559409260749817, -0.10070209950208664, 0.6115568280220032, -0.4203878343105316, 0.46825531125068665, 0.6208301782608032, 0.4047393202781677, -0.1457255780696869, -0.157528355717659, -0.21831724047660828, -0.165305033326149, -0.036622729152441025, -0.37151801586151123, -0.1297808438539505, 0.5924203395843506, 0.1692454069852829, 0.044031236320734024, 0.5594635009765625, -0.396052747964859, -0.21921826899051666, 0.1870373785495758, 0.4193005859851837, 0.6105344295501709, 0.3170880675315857, 0.18586651980876923, -0.5392407178878784, 0.33000683784484863, 0.37324753403663635, -0.3275817334651947, 0.2353278547525406, -0.06584251672029495, 0.11926919221878052, 0.1936558037996292, 0.0462467297911644, -0.6512112021446228, -0.005251487251371145, -0.504662275314331, -0.348359614610672, -0.5533912181854248, 0.6034148931503296, 0.08022395521402359, 0.08729787915945053, -0.12545795738697052, 0.3468795120716095, 0.1148458942770958, 0.2865065336227417, -0.04454020410776138, 0.018558107316493988, 0.45060116052627563, -0.15144763886928558, 0.07554231584072113, -0.19569814205169678, -0.3872545063495636, -0.3339627683162689, -0.09895370155572891, -0.10034007579088211, -0.1339111179113388, -0.008862153626978397, -0.25757741928100586, -0.05092041194438934, 0.2605190575122833, 0.2971033453941345, 0.01468466967344284, 0.5165974497795105, -0.18621651828289032, 0.23175838589668274, 0.15822750329971313, 0.10944515466690063, -0.44040754437446594, 0.12619298696517944, 0.2303820550441742, -0.17372068762779236, -0.052546270191669464, -0.2609879672527313, -0.11430566012859344, 0.03814968466758728, 0.037306685000658035, 0.02104310318827629, 0.5662850737571716, -0.1766076236963272, -0.0032894553150981665, 0.3522574305534363, -0.13395750522613525, 0.040529970079660416, 0.4913990795612335, 0.18314924836158752, 0.24650001525878906, 0.06720652431249619, 0.4068880081176758, 0.3190556764602661, -0.40582600235939026, -0.31665313243865967, 0.06516744941473007, -0.3841053545475006, 0.2366063892841339, -0.2817045748233795, -0.3387337625026703, 0.4711841940879822, -0.2223813533782959, -0.08844222873449326, 0.3621099889278412, 0.21032676100730896, 0.39199307560920715, 0.011798117309808731, -0.06952004134654999, -0.04080691933631897, 0.013221941888332367, -0.14260223507881165, -0.027220329269766808, 0.20637568831443787, 0.48469144105911255, -0.03534773364663124, -0.25451722741127014, 0.6586451530456543, -0.32272666692733765, -0.07438088953495026, 0.11087513715028763, 0.010655771009624004, 0.5109698176383972, -0.11064201593399048, -0.11121038347482681, 0.23534232378005981, -0.17582300305366516, -0.10519590228796005, 0.27066221833229065, -0.08287634700536728, 0.23300448060035706, -0.2447330802679062, 0.11423143744468689, -0.014347786083817482, 0.09599077701568604, -0.24712936580181122, 0.04916531220078468, 0.0661672055721283, 0.30049365758895874, -0.17017829418182373, 0.015357269905507565, -0.07454568147659302, 0.06095604598522186, 0.2769637405872345, 0.2181503027677536, 0.02946820668876171, 0.37234407663345337, -0.018957875669002533, -0.06809491664171219, 0.5420041680335999, -0.49436819553375244, 0.32389551401138306, 0.20984777808189392, 0.019569598138332367, 0.02772332727909088, 0.18928055465221405, -0.23092101514339447, 0.20449690520763397, 0.08655044436454773, 0.0637272298336029, 0.36291661858558655, -0.0862627774477005, 0.10120054334402084, -0.9579909443855286, -0.05480991303920746, -0.17829401791095734, 0.7963682413101196, -0.628840982913971, 0.727085530757904, -0.011910615488886833, -0.07639182358980179, 0.38708117604255676, -0.14427420496940613, 0.5974267721176147, 0.36313900351524353, -0.33303025364875793, 0.6597484350204468, 0.11062280088663101, 0.39349550008773804, -0.6789484024047852, -0.27038654685020447, 0.4973141551017761, -0.08852732181549072, -0.663950502872467, -0.33196234703063965, -0.4136870801448822, -0.3498874306678772, 0.825481116771698, -0.6759796738624573, 0.3000224530696869, -0.4773288667201996, 0.01662573218345642, 1.1652891635894775, -0.23259955644607544, 0.9743118286132812, 0.5984980463981628, -0.010686567053198814, 1.1071138381958008, -1.029160737991333, -0.4327637255191803, -0.7277564406394958, -0.14884264767169952, -0.004689626861363649, -0.3072934150695801, -0.1816665679216385, 1.0736578702926636, 0.1974286437034607, 0.33741092681884766, 1.9907172918319702, -0.4962254762649536, 0.012066587805747986, 0.9035595655441284, -0.535044252872467, -0.4270753264427185, 0.10849419981241226, 0.45455026626586914, 0.013288174755871296, 0.6607269644737244, 1.4245303869247437, -0.9240869879722595, -0.022629158571362495, -0.37050387263298035, 0.03014066442847252, -0.046255405992269516, -0.19806422293186188, 0.23844939470291138, -0.17792527377605438, 0.20063716173171997, 0.0894295871257782, 0.30732905864715576, 0.22112011909484863, 0.14101846516132355, -0.2175160050392151, -0.2304508090019226, -0.318064421415329, 0.170163094997406, 0.16632294654846191, 0.22443756461143494, -0.38039398193359375, 0.2899875044822693, -0.1518765538930893, 0.2104243040084839, -0.4235142171382904, -0.3441765308380127, -0.07062321156263351, -0.2932729721069336, 0.13174282014369965, 0.08931170403957367, 0.06779322028160095, -0.0852983221411705, -0.5135979056358337, -0.5259727835655212, 0.16910946369171143, -0.044310227036476135, 0.2188403606414795, 0.457459032535553, -0.23746363818645477, 0.20806246995925903, 0.2414204180240631, 0.013542337343096733, 0.006410752423107624, -0.16874802112579346, 0.8034385442733765, 0.4096052944660187, -0.14577971398830414, -0.20020629465579987, 0.24141685664653778, 0.1557026356458664, -0.903993546962738, -0.39248883724212646, 0.16977046430110931, 0.7661619186401367, -1.2413445711135864, -0.01774425618350506, 0.27788448333740234, -0.4476329982280731, 0.7950546145439148, 0.43119320273399353, 0.12429064512252808, 0.26267924904823303, 0.6490748524665833, 0.02108015865087509, 1.617872953414917, -0.5887200236320496, 0.2694978415966034, -0.3165895640850067, -0.4750649929046631, 0.4012390375137329, 0.36784422397613525, 0.2387743443250656, 0.7210608124732971, 0.3567744791507721, -0.41182008385658264, 0.3993864357471466, -0.4561787247657776, -0.06453077495098114, -0.5769721865653992, -0.39622804522514343, -0.4264200031757355, 0.010285457596182823, -0.4626958966255188, 0.23024190962314606, 0.16108740866184235, 0.830463707447052, 0.7419692277908325, -0.5649501085281372, 0.5198721289634705, -0.6151743531227112, 0.18907767534255981, 0.6198789477348328, -1.0547540187835693, 0.7394293546676636, -0.9108676910400391, -0.5379278659820557, 3.150010585784912, 0.7751394510269165, 0.1644372195005417, 0.2071949541568756, 0.21606087684631348, -0.36567479372024536, -0.48029765486717224, 0.02655704692006111, -0.133322611451149, -0.1764003187417984, 0.14927546679973602, -0.4808272421360016, -0.5684522986412048, 0.6922409534454346, 0.6579338312149048, 0.03611573204398155, 0.12753167748451233, -0.3394516408443451, 0.43088456988334656, 0.7589325904846191, 0.22632892429828644, -0.003943760879337788, -0.22522926330566406, 0.4513896405696869, -0.33917996287345886, 0.29662585258483887, 0.07803264260292053, -0.43440353870391846, -0.014394301921129227, 0.23844972252845764, -0.42991018295288086, -0.05732008442282677, -0.9774068593978882, 1.1479072570800781, -0.32178476452827454, -0.30885258316993713, 0.07193440943956375, 0.13307712972164154, -0.1503891497850418, -0.00802766066044569, 0.13110306859016418, 0.3428945541381836, -0.09161563962697983, 0.07180622220039368, 0.17716571688652039, 0.014728003181517124, 1.323717713356018, -0.12925682961940765, -0.2384338229894638, 0.4100033938884735, 0.41292253136634827, 1.2707408666610718, 0.14842385053634644, 0.07272950559854507, 0.5358408689498901, -0.23585961759090424, -0.39594560861587524, 0.6266093850135803, -0.4708561897277832, -0.3742290139198303, -0.20037034153938293, 0.8498263955116272, -1.1987193822860718, -0.24703095853328705, -3.397442102432251, 0.28056302666664124, -1.51153564453125, -0.12311173975467682, 0.329461932182312, 0.4430902600288391, -0.8472675681114197, 0.8689438700675964, 0.06518270820379257, 1.1656855344772339, 0.5220090746879578, 0.5771589875221252, 0.02631121128797531, 0.6185929179191589, -1.2088807821273804, -0.5679622292518616, 1.111535668373108, -1.2165110111236572, -0.7144650220870972, 0.7330414652824402, -0.3292824625968933, -0.502816379070282, -0.3605365455150604, -0.4037085175514221, -0.6921536922454834, 0.07179118692874908, -0.10411287844181061, -0.4880598783493042, 0.7118025422096252, 0.15677227079868317, 1.4892886877059937, 0.6642637252807617, 0.9644818305969238, -0.5875626802444458, -0.11535584181547165, -0.8050047755241394, -0.24094176292419434, 0.46817800402641296, 0.09165424853563309, -0.42551279067993164, 0.7640421390533447, -0.6914462447166443, -0.5775902271270752, 0.010063889436423779, 0.07713902741670609, 0.4480232298374176, -0.06957560032606125, -0.8914661407470703, -0.6049344539642334, 0.9560697078704834, -0.34727805852890015, -0.689413845539093, -0.008561461232602596, 0.22185103595256805, 0.32076194882392883, 0.36437246203422546, 0.37579813599586487, -0.8391379117965698, 0.20585796236991882, 0.6276911497116089, -0.8866609930992126, -0.6628721356391907, -0.9432352781295776, -1.7487465143203735, -0.3355332612991333, 0.24784299731254578, 0.32512128353118896, 0.24201682209968567, 0.8896604180335999, -0.08053837716579437, -0.36166074872016907, -0.13948331773281097, -0.2803654372692108, 0.5328875184059143, 1.0890567302703857, -0.7145287990570068, 0.44767269492149353, -0.021499373018741608, 0.11931942403316498, 0.22539213299751282, -0.13795335590839386, -0.3361998200416565, -0.35525283217430115, 0.820785641670227, 0.22144420444965363, -0.2410101294517517, -0.6412132382392883, 0.6094765067100525, -0.8595882058143616, 0.7528576850891113, 0.1401798576116562, -1.1549463272094727, 0.38336315751075745, -0.12040948867797852, 0.6213333010673523, 0.4147443175315857, 0.6099080443382263, -0.056735746562480927, -1.113206148147583, 0.18159547448158264, 0.40893104672431946, -0.28922927379608154, 0.05768538638949394, -0.5552667379379272, -0.10576105117797852, -0.7551083564758301, 0.2876930832862854, -0.37265127897262573, -0.25121042132377625, -0.5022740364074707, 1.2370580434799194, 0.2135627567768097, -0.13413263857364655, 0.21426163613796234, 0.18339920043945312, 1.7262201309204102, 0.27282750606536865, -0.25007113814353943, 0.8482800722122192, 0.364260196685791, -0.7685608267784119, 0.30647924542427063, -0.46962782740592957, -0.2304552048444748, -0.1179831326007843, 0.10526350885629654, -0.7312713861465454, -0.3630063235759735, -2.868635416030884, 0.23483867943286896, -0.9109443426132202, -0.8062907457351685, -0.19635221362113953, 0.8570511937141418, -0.07200445979833603, -0.2022150158882141, 0.729187548160553, -0.6829008460044861, -0.578554093837738, 0.1229391023516655, 1.0557937622070312, 0.3572189211845398, -0.0701405256986618, -1.077133059501648, -0.3552841246128082, 1.3285614252090454, 0.21333347260951996, -0.1242913082242012, -0.30367937684059143, 0.29103291034698486, 0.3980904519557953, 0.21960429847240448, 0.2820878028869629, -0.45718351006507874, 0.5350402593612671, 0.2697710692882538, -0.9511616230010986, -0.9822399616241455, -1.0920062065124512, -1.9570029973983765, -1.594808578491211, 0.5088869333267212, -0.0026040009688585997, -0.43271809816360474, 0.4251137673854828, 0.18512120842933655, 0.004818218760192394, -0.11009632796049118, 0.6245858669281006, 0.06645943224430084, 0.4465857148170471, -0.08963513374328613, 0.743436336517334, -0.2008953094482422, 1.141166090965271, -0.6746599674224854, -0.08746322989463806, 0.20686869323253632, 0.020380450412631035, -0.285565584897995, -0.838928759098053, 0.571639358997345, 0.5952445268630981, 1.2080661058425903, -0.5010234117507935, 0.2592158913612366, -0.5147787928581238, -0.10027897357940674, -1.0491156578063965, -0.6377056837081909, -0.7339053750038147, -1.1085318326950073, -1.3737165927886963, -0.188136026263237, -1.393829345703125, 0.11001689732074738, 0.12064838409423828, -0.08078443259000778, -0.3851533532142639, -0.5941300988197327, -0.23610682785511017, -0.4791601598262787, 0.31423643231391907, 0.23470252752304077, -0.4686402380466461, 0.03302600234746933, 0.6429060697555542, 0.350506067276001, -0.28009042143821716, -0.2979136109352112, 0.3987543284893036, 1.769118070602417, 0.535672664642334, 0.09262947738170624, 0.5790113806724548, 0.23613190650939941, -0.4494408071041107, 0.25168195366859436, -0.467027485370636, -0.07419541478157043, -0.30462104082107544, 0.6123054623603821, -0.8746244311332703, -0.40707507729530334, -1.9241849184036255, -0.11281384527683258, -0.3960985243320465, 0.5247571468353271, 0.4376815855503082, -0.02825990691781044, -0.30306747555732727, -0.5462179183959961, -0.7221280336380005, 0.9747282266616821, 0.4932746887207031, -0.0419890321791172, 0.6563071012496948, -0.5749365091323853, -0.892450749874115, 0.3346889615058899, 0.25387945771217346, 0.2586192190647125, -0.8409900069236755, -1.6821733713150024, -0.16454190015792847, 0.6834094524383545, -1.4120627641677856, -0.5051430463790894, 0.6109353303909302, 0.29511427879333496, 0.08256655186414719, 1.0570367574691772, 0.013045964762568474, 0.15780940651893616, 1.1275033950805664, 0.48201847076416016, 4.00712776184082, 0.09597465395927429, 0.7211705446243286, 0.44028183817863464, 0.09738858789205551, -0.03813479468226433, -0.2441503405570984, 0.06218032166361809, -0.07741207629442215, 0.9712274074554443, 0.04248486086726189, 0.1255471557378769, -0.15288673341274261, 0.046815820038318634, -0.7911859154701233, 0.2054719477891922, -0.0658755749464035, -0.4074050188064575, -0.05755612254142761, -0.7299721240997314, 0.24386392533779144, 0.1550261378288269, -0.9601725935935974, -0.5068032741546631, 0.36420193314552307, -0.36918726563453674, 0.19407320022583008, 0.2911390960216522, 0.39798209071159363, 0.17862249910831451, 1.240167260169983, 0.41129907965660095, 3.6286492347717285, -0.4350365102291107, 0.9531839489936829, -0.5557124614715576, -0.12657244503498077, 0.7753410935401917, 0.24253955483436584, -0.2604629099369049, 0.7635791897773743, 0.1767979860305786, -0.4172309339046478, 0.8746111392974854, -0.11143937706947327, 0.4190944731235504, -1.1678708791732788, -0.9452860951423645, 0.2731878161430359, 0.2970088720321655, -0.5362947583198547, -2.1099355220794678, -0.09003661572933197, 1.2775942087173462, -2.06423020362854, -0.049156706780195236, 1.0269502401351929, -0.6953155398368835, 1.1958575248718262, 0.7405698299407959, -0.7061176896095276, -1.2119145393371582, 0.10505738109350204, -0.5963350534439087, 1.7859408855438232, -0.1087317019701004, 0.8661938309669495, -0.40713921189308167, -1.0506142377853394, 0.2008202224969864, 0.14770057797431946, 0.3635289669036865, 0.0297249648720026, -0.08490800857543945, -0.18832562863826752, -0.8358298540115356, -2.2329792976379395, -0.09404969215393066, -1.5915580987930298, -0.36112433671951294, 0.2004188448190689, -0.10248177498579025, 0.848275899887085, -1.6904860734939575, 2.208122730255127, -0.382403701543808, 3.019832134246826, -0.3766046166419983, 3.3585145473480225, 0.5651575922966003, 0.3320331573486328, 3.0545685291290283, -1.6884015798568726, -0.9532396793365479, 0.24045909941196442, -0.14732415974140167, 1.8830547332763672, -0.5315724015235901, 0.0849107950925827, -0.3461166024208069, 0.13921725749969482, 0.5355067849159241, -0.062416065484285355, -0.2784363329410553, 0.18773192167282104, -0.12830530107021332, 0.4885365664958954, -0.9056328535079956, -0.3219979405403137, -0.08628453314304352, 0.9069873690605164, -0.363851398229599, 0.0142522556707263, 0.1381983757019043, 0.1454499363899231, 1.1915677785873413, 1.1503664255142212, -0.053549546748399734, 0.8389226794242859, 0.6011008024215698, -1.276596188545227, 0.9448378682136536, 0.11386323720216751, -1.0669918060302734, -0.15199069678783417, -0.5380725860595703, -0.16392575204372406, -0.03103768266737461, -1.3036943674087524, 1.0707154273986816, -2.2340087890625, -4.435730934143066, -3.8917086124420166, -4.247840881347656, -3.858370542526245, -3.7569010257720947, -3.28822660446167, -4.130129337310791, -4.023702144622803, -3.213405132293701, -3.7507786750793457, -4.811082363128662, -4.112096786499023, -3.731630802154541, -4.055870056152344, -3.2317678928375244, -4.150858402252197, 4.330537796020508, 4.551239967346191, 4.423960208892822, 4.290346145629883, 2.796651840209961, 3.98538875579834, 4.318821430206299, 4.445321083068848, 4.31884765625, 4.387897491455078, 4.754301071166992, 4.76106071472168, 4.112119674682617, 3.756629467010498, 2.918184757232666, 4.340079307556152, -0.2610120177268982, 0.35018423199653625, -0.4372428059577942, 0.802202582359314, 0.5193207263946533, 0.47171807289123535, 0.30140504240989685, -0.5164217352867126, 0.4058496057987213, -0.27317002415657043, 0.26621803641319275, 0.36164021492004395, 0.09238161891698837, 0.1034756451845169, 0.18257978558540344, -0.03214665502309799, -0.20567771792411804, 0.21568316221237183, -0.08792915940284729, -0.5398892760276794, -0.6331405639648438, -0.26931360363960266, -0.19219562411308289, -0.4137173593044281, -0.8117029070854187, -0.8669970035552979, 0.2377883642911911, 0.3807332515716553, 0.008022114634513855, -0.4927636981010437, -0.19928652048110962, -0.6317645311355591, -0.12165310978889465, 0.6384475231170654, 0.15880262851715088, 0.6299163103103638, 0.21022836863994598, 0.04392079636454582, 0.5223215818405151, -0.6144825220108032, 0.024154266342520714, -0.2750173509120941, 0.3818948268890381, 0.5360828042030334, 0.3890005946159363, 0.0031941155903041363, 0.4994584619998932, -0.8585106730461121, -1.6753168106079102, 45.43292236328125, 0.25757113099098206, 1.0908883810043335, 0.7069004774093628, 374.4378967285156, 53.64080810546875, -2.302948236465454, 160.88861083984375, -40.30923080444336, 0.5602884292602539, 25.797163009643555, 47.52647399902344, 0.2909507155418396, 0.5859763026237488, -17.52582359313965, 0.05929826945066452, 0.043547507375478745, -0.2549503743648529, -0.32655131816864014, -0.08701135963201523, -0.5648808479309082, 0.568401575088501, 0.6277369856834412, 0.25628259778022766, 0.5134595036506653, -0.6221961975097656, -0.19199238717556, 0.27911967039108276, -0.05146322771906853, 0.07458209246397018, -0.5139732956886292, 0.245787113904953]}