{"version": "0.5.1", "metadata": {"date": {"year": 2023, "month": 5, "day": 29, "hour": 17, "minute": 5, "second": 4}, "loudness": -11.725313186645508, "gain": 0.5965619512240007}, "architecture": "WaveNet", "config": {"layers": [{"input_size": 1, "condition_size": 1, "head_size": 2, "channels": 4, "kernel_size": 3, "dilations": [1, 2, 4, 8, 16, 32, 64], "activation": "Tanh", "gated": false, "head_bias": false}, {"input_size": 4, "condition_size": 1, "head_size": 1, "channels": 2, "kernel_size": 3, "dilations": [128, 256, 512, 1, 2, 4, 8, 16, 32, 64, 128, 256, 512], "activation": "Tanh", "gated": false, "head_bias": true}], "head": null, "head_scale": 0.02}, "weights": [0.20864363014698029, 0.8024476766586304, -0.5351406335830688, -0.6766833066940308, -0.34967008233070374, -0.33313119411468506, -0.3266916573047638, 0.45169398188591003, 0.04592067748308182, -0.2145940661430359, -0.3234618306159973, -0.12928034365177155, 0.006090836133807898, -0.41874170303344727, -0.19540219008922577, 0.3014377951622009, -0.13174526393413544, 0.20819781720638275, -0.05995114520192146, 0.07647346705198288, 0.22077742218971252, 0.6153808236122131, -0.2509903609752655, 0.10627347975969315, -0.40312454104423523, -0.18083126842975616, 0.14420807361602783, -0.6355199217796326, 0.009535601362586021, -0.06358958035707474, 0.07137507945299149, 0.25922438502311707, -0.5471367835998535, 0.22598060965538025, -0.18669572472572327, 0.09104667603969574, -0.4943769872188568, 0.22829240560531616, 0.47123658657073975, -0.21968361735343933, 0.1364227533340454, -0.1746380627155304, 0.21890497207641602, -0.16407759487628937, -0.45725709199905396, 0.31019991636276245, 0.10639270395040512, 0.4335137903690338, -0.5429285764694214, -0.12037386000156403, 0.4254966378211975, -0.16419951617717743, 0.1343764066696167, 0.040155403316020966, 0.28186115622520447, -0.13638544082641602, -0.0901947170495987, -0.41048893332481384, -0.3539474904537201, -0.08362623304128647, 0.27706611156463623, 0.23463213443756104, -0.15649837255477905, 0.15050551295280457, 0.6457645893096924, -0.012075352482497692, -0.18517644703388214, -0.4029207229614258, 0.5426814556121826, 0.4298790395259857, -0.7424126267433167, -0.5568410754203796, 0.485169917345047, 0.94465172290802, 0.4781884253025055, 0.3434756100177765, 0.14213837683200836, -0.3795415759086609, -0.012367144227027893, -0.14949196577072144, -0.18820875883102417, 0.35070276260375977, 0.17501898109912872, -0.46633145213127136, 0.02167847380042076, 0.03355516865849495, -0.3309360146522522, 0.1417057365179062, 0.2649434506893158, 0.6814652681350708, 0.055419422686100006, 0.22362524271011353, 0.16529835760593414, 0.10497306287288666, -0.3041282594203949, -0.37729310989379883, -0.1043170839548111, -0.04898690804839134, -0.3086366057395935, -0.30639025568962097, 0.5162853598594666, 0.31537044048309326, -0.05774715915322304, 0.11389421671628952, -0.2758869528770447, -0.09938523173332214, -0.16874584555625916, -0.16266457736492157, 0.133386492729187, 0.1586860567331314, -0.30468782782554626, -0.07113407552242279, -0.2288001924753189, 0.19091299176216125, 0.12028315663337708, -0.5499157905578613, -0.2581815719604492, -0.1732410490512848, -0.1390174925327301, 0.007727915421128273, 0.15444596111774445, 0.05326147750020027, -0.284835547208786, 0.2175203114748001, -0.2202218472957611, 0.5161519646644592, -0.26933255791664124, -0.08727499097585678, -0.19608186185359955, -0.2268325537443161, 0.039641689509153366, -0.03849395737051964, -0.3933503031730652, 0.046177081763744354, 1.1257779598236084, 0.014595137909054756, -0.0075904447585344315, -0.11952342092990875, 0.38002678751945496, 0.5729694962501526, 0.5605298280715942, 0.5309514999389648, 0.4867708384990692, -0.049748554825782776, -0.9693282246589661, -0.7323644757270813, 0.21720141172409058, -0.4344051480293274, -0.3852837383747101, -0.6405786871910095, -0.3331708014011383, -0.13761775195598602, -0.047823160886764526, 0.2598940134048462, 0.19993062317371368, -0.3265632688999176, 0.15922948718070984, -0.271950364112854, -0.07885246723890305, -0.1551879346370697, -0.35595402121543884, -0.0979803279042244, -0.09881474822759628, -0.25841253995895386, 0.12716452777385712, -0.08418374508619308, 0.09345589578151703, 0.0066172657534480095, -0.7624689936637878, 0.30889633297920227, 0.45901942253112793, -0.06995777040719986, 1.0311428308486938, -0.07848504930734634, -0.47287288308143616, 0.2688805162906647, -0.10194796323776245, -0.18420341610908508, -0.025037983432412148, -0.029787413775920868, 0.13928817212581635, -0.27533793449401855, -0.058117400854825974, 0.3457411825656891, -0.2315443903207779, 0.014027523808181286, 0.19011111557483673, 0.1551254540681839, -0.1343069076538086, -0.0006524831987917423, 0.117728590965271, -0.1937301754951477, -0.16952009499073029, 0.10883624851703644, -0.2615380883216858, -0.0029417434707283974, -0.30446869134902954, 0.209572434425354, -0.35606133937835693, -0.17628856003284454, 0.2226269245147705, -0.024421196430921555, 0.1063513457775116, -0.16887366771697998, -0.08358752727508545, 0.013867979869246483, -0.048434749245643616, 0.12235179543495178, 0.46638548374176025, -0.1900666058063507, 0.1128849908709526, 0.14415594935417175, 0.19276760518550873, -0.5861256122589111, 0.01208905316889286, 0.25959479808807373, -0.5109381675720215, -0.3242162764072418, 0.3623109757900238, -0.4429630637168884, -0.38406628370285034, 0.7697056531906128, 0.03982864320278168, -0.432326078414917, -0.47478675842285156, 0.6185368299484253, -0.49933403730392456, -0.15505686402320862, -0.19896601140499115, -0.0015872734365984797, -0.06680111587047577, 0.26967135071754456, -0.10501216351985931, 0.12484902888536453, 0.13080841302871704, -0.4030754268169403, 0.12940968573093414, -0.11567485332489014, -0.4904281198978424, 0.08199859410524368, 0.4362495541572571, 0.2275758534669876, -0.4608984887599945, 0.6264516115188599, 0.24373659491539001, -0.11639624834060669, 0.2681194841861725, -0.14858494699001312, 0.06650373339653015, -0.1715184599161148, -0.14535634219646454, -0.11694709211587906, -0.041367679834365845, -0.07860930263996124, -0.02629769966006279, 0.16796882450580597, -0.388328492641449, 0.04883351922035217, -0.17104488611221313, -0.4749859869480133, -0.25821906328201294, 0.3412550389766693, -0.2945702373981476, 0.2744273245334625, 0.41168031096458435, -0.038157399743795395, -0.3877337872982025, 0.6007869839668274, 0.40241730213165283, 0.055215973407030106, -0.1463010609149933, 0.31446459889411926, -0.46335166692733765, -0.27349287271499634, 0.2811707854270935, -0.812662661075592, 0.22522157430648804, 0.36660683155059814, 0.26743969321250916, 0.348289430141449, -0.029670918360352516, -0.31043383479118347, -0.22124800086021423, 0.08376820385456085, 0.022723540663719177, 0.2341347336769104, -0.4776341915130615, 0.6707753539085388, -1.0690922737121582, -0.2768358886241913, -0.9070264101028442, 0.1863124817609787, -0.35829514265060425, -0.2009359747171402, -0.34998849034309387, -0.14754420518875122, 0.7285847663879395, -0.08100294321775436, 0.6085700988769531, -0.25054165720939636, -1.4061897993087769, 0.11507195234298706, -1.3707633018493652, 0.012659700587391853, 0.060469817370176315, -0.28005239367485046, 0.012961327098309994, 0.11236449331045151, 0.2020464539527893, -0.17869749665260315, -0.2076244354248047, 0.09444506466388702, 0.3574914336204529, -0.24286441504955292, 0.30412033200263977, 0.3457343876361847, -0.3110213577747345, 0.004835021682083607, 0.11516936868429184, -0.038562193512916565, 0.10862157493829727, 0.008550574071705341, -0.19451294839382172, -0.053381938487291336, 0.44643887877464294, 0.12563906610012054, -0.08120736479759216, 0.14046986401081085, 0.050001900643110275, -0.2539239525794983, -0.29708290100097656, -0.1229325607419014, 0.13380037248134613, -0.010092107579112053, 0.7491855621337891, 0.0496211014688015, 0.05356866866350174, 0.20159487426280975, 0.24889306724071503, 0.26526114344596863, -0.7540549635887146, 0.005206095986068249, 0.24729463458061218, 0.2977568209171295, 0.12785443663597107, 0.22306349873542786, -0.12045915424823761, 0.09143005311489105, 0.12860897183418274, -0.28284430503845215, 0.09327645599842072, 0.13197222352027893, -0.16113488376140594, 0.009129652753472328, -0.1611490100622177, 0.045920826494693756, -0.06720881909132004, 0.18618907034397125, -0.05492790415883064, -0.03582165762782097, -0.6046820878982544, -0.8585798144340515, -0.9522879123687744, 0.7186452746391296, 0.5855565667152405, 0.4634886384010315, 0.5486227869987488, -0.6366548538208008, 0.47491419315338135, 0.15827514231204987, 0.34508559107780457, 0.49211007356643677, -0.3918399512767792, -0.3794412910938263, -1.0436710119247437, -0.25530165433883667, 1.1826121807098389, -0.5661217570304871, 0.9513280987739563, 0.7475258708000183, 0.3946250379085541, -0.11791203916072845, 0.12456680834293365, 0.2739814221858978, 0.09282245486974716, 0.010471353307366371, -0.18005965650081635, -0.011069866828620434, -0.2991679012775421, 0.27355247735977173, -0.14458951354026794, -0.2853868007659912, -0.09499053657054901, -0.19551150500774384, -0.13954715430736542, 0.12777702510356903, 0.04840053990483284, -0.02074575237929821, 0.4451534152030945, -0.07358992844820023, 0.26623809337615967, 0.014085629023611546, -0.3867853283882141, 0.20509378612041473, -0.38910573720932007, -0.3285519778728485, 0.1059790700674057, 0.3934302031993866, -0.11205197125673294, 0.13547882437705994, -0.294590562582016, 0.046083059161901474, -0.09960402548313141, 0.014528321102261543, 0.1530323624610901, 0.12776297330856323, -0.1390054076910019, 0.21708883345127106, 0.13263431191444397, 0.07283524423837662, 0.019435813650488853, -0.12947066128253937, 0.48921725153923035, -0.05793573334813118, 0.49359673261642456, -0.35184547305107117, -0.04070347920060158, 0.08226534724235535, -0.4424628019332886, -0.03603781387209892, -0.031607262790203094, 0.2584247589111328, 0.21493619680404663, -0.05865464359521866, -0.07097679376602173, -0.1299332082271576, 0.16541306674480438, -0.7111442685127258, 0.3735101819038391, -0.18799802660942078, -1.008781909942627, 0.07588932663202286, 0.6303182244300842, 0.4755847156047821, -0.9138641953468323, 0.40492555499076843, 0.4219602942466736, 0.2231563776731491, -0.26089930534362793, -0.5059844851493835, 0.2708413302898407, 0.12327549606561661, 1.2522242069244385, 1.479981780052185, -0.1904546618461609, 1.370650053024292, 0.4142761528491974, 0.24575141072273254, -0.41496187448501587, -0.3312917947769165, -0.6600657105445862, -0.6495827436447144, 0.5047540068626404, -0.20506158471107483, -0.3584212064743042, 0.6550894975662231, -0.41952070593833923, 0.026988478377461433, -1.332170844078064, 0.05637429282069206, 0.20011800527572632, 1.331405758857727, -0.2277662307024002, 0.05458606407046318, 0.6705957055091858, -0.3989757001399994, -0.7488925457000732, 0.3774028420448303, -0.2071838676929474, 0.23110444843769073, -1.021098256111145, 0.056158773601055145, 0.1825396716594696, 0.7092085480690002, 0.18517129123210907, 0.1749643236398697, -0.5618173480033875, 0.381107896566391, 0.4349059760570526, -0.3494334816932678, 0.0682080015540123, -0.03946933150291443, 0.8264748454093933, -0.10022018104791641, -0.11509948968887329, -0.6022210717201233, -0.2062413990497589, -0.08170755952596664, 0.24384528398513794, 0.05732056125998497, 0.3495329022407532, -0.07420635223388672, -0.2318478673696518, -0.14098836481571198, -0.24989663064479828, -0.05386848375201225, -0.09699983894824982, -0.08495014905929565, -0.45401594042778015, 0.23513807356357574, -0.44874852895736694, -0.049740176647901535, -0.026156632229685783, -0.12054576724767685, 0.07542315870523453, -0.5988317728042603, -0.26534464955329895, 0.29051753878593445, 0.033236872404813766, -0.32111871242523193, 0.3633326292037964, 0.03623674809932709, 0.04003697261214256, -0.4297333061695099, -0.5432133674621582, -0.23804645240306854, 0.4279510974884033, 0.03293211758136749, -0.5029451251029968, -0.19386158883571625, 0.6425396800041199, 0.030248790979385376, -0.43509918451309204, -0.30230599641799927, -0.46349021792411804, -0.08419055491685867, -0.42056867480278015, -0.2858983278274536, -0.2745150625705719, 0.3330672085285187, 0.04435107111930847, 0.07412172853946686, -0.019686775282025337, -0.48194995522499084, -0.1807643324136734, 0.22274702787399292, -0.2917458415031433, -0.08927130699157715, -0.1841384321451187, 0.34758153557777405, -0.3336649537086487, -0.1189955472946167, 0.029721669852733612, -0.3211321234703064, 0.17023269832134247, -0.021519238129258156, 0.25546056032180786, -0.034002259373664856, 0.24004201591014862, 0.03459838032722473, -0.1996818333864212, -0.18937021493911743, -0.033621896058321, 0.5565920472145081, -0.1286909580230713, 0.5501987934112549, 0.061264459043741226, 0.02493317238986492, 0.045563895255327225, 0.21102000772953033, 0.3412156105041504, 0.2193649560213089, -0.20412187278270721, -0.4223940968513489, 0.03816790133714676, -0.3908214271068573, 0.34907081723213196, -0.03008391335606575, 0.308310866355896, 0.883211076259613, 0.12140750139951706, 0.23586603999137878, -0.0515085868537426, -0.09508858621120453, -0.18591821193695068, 0.04394855350255966, 0.2531529366970062, -0.16993343830108643, 0.1536266803741455, 0.997414767742157, -0.528803825378418, -0.3200623095035553, -0.704078197479248, 0.651726484298706, 0.1890174299478531, 0.3111015260219574, 0.10296425223350525, 0.09475219994783401, 0.8552361726760864, -0.08042251318693161, -0.06867890805006027, 0.7753596901893616, -0.03346485272049904, -0.030915841460227966, -0.19989383220672607, 0.02620004676282406, 0.02524632401764393, -0.3269898295402527, -0.030298622325062752, -0.08003957569599152, 0.13457699120044708, -0.47953975200653076, 0.08037231117486954, -0.24255569279193878, 0.13800114393234253, 0.6617993712425232, 0.08792722225189209, 0.09528909623622894, 1.6299957036972046, 0.7958167791366577, -0.23690015077590942, 1.948185682296753, 0.5111375451087952, -0.7309210896492004, -0.09068578481674194, -0.8754600286483765, -0.11945442855358124, 0.10393525660037994, -1.5024023056030273, -0.331937313079834, -0.48988136649131775, 0.18581604957580566, 0.5421373844146729, -0.1425110548734665, 0.32282891869544983, -0.7451228499412537, 0.21768753230571747, -0.6839150786399841, -0.687446653842926, 0.3320693373680115, 0.07954232394695282, 0.3406510651111603, -0.5034711956977844, -0.1769651472568512, 0.6060384511947632, 0.263288289308548, -0.49965164065361023, -0.0864732638001442, -0.303302139043808, 0.12425816804170609, -0.14722298085689545, -0.5538157820701599, -0.27478542923927307, -0.17120887339115143, -0.2816552519798279, -0.06686615198850632, 0.39618927240371704, 0.22756356000900269, 0.7476935386657715, 0.29462018609046936, -0.2673283517360687, -0.09764410555362701, 0.2888241410255432, 0.33215203881263733, -0.2931345999240875, -0.0875421091914177, 0.1975499838590622, 0.17538031935691833, 0.3208978772163391, -0.529474675655365, 0.13844676315784454, -0.4802244007587433, 0.024436229839920998, -0.40870118141174316, 0.1374676525592804, 0.10713968425989151, -0.04820908233523369, 0.31262606382369995, 1.1932706832885742, -0.938508152961731, 1.3791189193725586, -0.512476921081543, -0.2911982834339142, 0.06906116008758545, 0.15656471252441406, 0.4524727463722229, -0.3813854455947876, -0.17929621040821075, -0.38408514857292175, 0.4856735169887543, -0.16472460329532623, -0.17123858630657196, 0.24330174922943115, 0.32092925906181335, 0.30282294750213623, -0.3320239782333374, 0.2658621668815613, -0.17835600674152374, 0.26692646741867065, 0.21273083984851837, 0.16291503608226776, -1.0203617811203003, -0.9661657810211182, -2.230213165283203, -0.7031154632568359, 0.04743751883506775, -0.0167685616761446, 0.29948651790618896, -0.021109288558363914, -0.08070138096809387, -0.47581833600997925, 0.3713856637477875, -0.061236921697854996, 0.7283418774604797, -0.1098901703953743, -0.023812269791960716, -0.7104759812355042, 0.0945456475019455, 0.5103099346160889, 1.1179131269454956, 0.157730832695961, -0.13186590373516083, -0.5865890979766846, 0.6542105674743652, -0.8499389886856079, -0.2112540453672409, 0.7105810642242432, -0.445800244808197, -0.004204657860100269, -0.05813908204436302, -0.3028920888900757, 0.0036529346834868193, 0.013079201802611351, 0.38905707001686096, 0.025245463475584984, 0.3043918311595917, -0.1370486617088318, -0.04681311175227165, -0.27851834893226624, 0.088245689868927, -0.261949747800827, 0.1522347331047058, 0.023283565416932106, -0.00018415349768474698, 1.017866849899292, 1.6193583011627197, 0.4753827750682831, -0.5748708248138428, -0.03546380251646042, -0.018388846889138222, 0.025479324162006378, 0.07961629331111908, -0.15278524160385132, -0.03523343428969383, -0.06575416773557663, 0.45375362038612366, 0.051637690514326096, 0.2078322470188141, -0.19545681774616241, -0.06872053444385529, -0.1849684864282608, 0.08007432520389557, 0.00810382142663002, 0.0019674068316817284, 0.2331007719039917, 0.0033446266315877438, -0.19507154822349548, 1.9471369981765747, -1.2105234861373901, -0.5898672342300415, 0.24325211346149445, -0.6708502173423767, -0.05106326937675476, -0.34619084000587463, 0.1372545212507248, 5.791273360955529e-05, 0.2800217270851135, 0.017352186143398285, 0.07935035228729248, -0.04376789182424545, -0.5838122963905334, -0.08926569670438766, 0.04167559742927551, -0.6513465642929077, 0.17302703857421875, -0.2562836706638336, 0.15385490655899048, -0.6450962424278259, -1.7202309370040894, 0.5130865573883057, 0.5576651096343994, 0.7179814577102661, 0.6018909811973572, 0.13812226057052612, 0.04007091000676155, -0.2549115717411041, 0.12471809983253479, 0.015875717625021935, 0.14996975660324097, 0.3924914300441742, 0.23471403121948242, 0.3563458323478699, -0.013804602436721325, -0.14015023410320282, -0.24425891041755676, -0.21326103806495667, 0.5657997131347656, -0.21701925992965698, -0.004645495675504208, 0.17379677295684814, -1.0660468339920044, 2.456993341445923, 0.01831057108938694, -0.22658857703208923, -0.016282042488455772, 0.39205020666122437, -0.112197145819664, -0.08250997215509415, -0.027184007689356804, -0.03448095917701721, -0.037455346435308456, 0.18192888796329498, 0.01556821446865797, 0.0785229280591011, -0.2914019823074341, 0.012976255267858505, 0.02870139107108116, -0.679554283618927, 0.07304078340530396, -0.16125397384166718, -0.1181095689535141, -0.08900611847639084, 0.07090878486633301, -0.2630368769168854, -0.5921692252159119, 0.2861429452896118, 0.09047992527484894, -0.2831847667694092, -1.7977997064590454, 2.167759895324707, 0.24693205952644348, 0.019999999552965164]}